tree
version=v4
num_class=1
num_tree_per_iteration=1
label_index=0
max_feature_idx=112
objective=binary sigmoid:1
feature_names=ret_1 ret_3 ret_6 ret_12 ret_24 ret_48 ret_144 ema_dist_20 ema_dist_50 ema_dist_200 atr_regime rv_ratio range_pos_12 range_pos_48 body_frac upper_wick lower_wick range_atr gap_open efficiency_12 dist_day_open dist_day_high dist_day_low day_range_atr dist_vwap tickvol_rel tickvol_accel spread_now spread_rel tod_sin tod_cos dow_0 dow_1 dow_2 dow_3 dow_4 mins_since_open mins_to_flat us_dst ms_trend_5m ms_dist_bear_top_5m ms_dist_bear_bot_5m ms_dist_bull_top_5m ms_dist_bull_bot_5m ms_has_bear_5m ms_has_bull_5m ms_bear_width_5m ms_bull_width_5m ms_in_bear_5m ms_in_bull_5m ms_flip_age_5m ms_zone_age_5m ms_choch_bull_5m ms_choch_bear_5m ms_bos_bull_5m ms_bos_bear_5m ms_trend_30m ms_dist_bear_top_30m ms_dist_bear_bot_30m ms_dist_bull_top_30m ms_dist_bull_bot_30m ms_has_bear_30m ms_has_bull_30m ms_bear_width_30m ms_bull_width_30m ms_in_bear_30m ms_in_bull_30m ms_flip_age_30m ms_zone_age_30m ms_choch_bull_30m ms_choch_bear_30m ms_bos_bull_30m ms_bos_bear_30m ms_trend_4h ms_dist_bear_top_4h ms_dist_bear_bot_4h ms_dist_bull_top_4h ms_dist_bull_bot_4h ms_has_bear_4h ms_has_bull_4h ms_bear_width_4h ms_bull_width_4h ms_in_bear_4h ms_in_bull_4h ms_flip_age_4h ms_zone_age_4h ms_choch_bull_4h ms_choch_bear_4h ms_bos_bull_4h ms_bos_bear_4h ms_sell_setup ms_buy_setup ms_sell_break ms_buy_break zz_last_dir zz_pivot_age zz_dist_pivot zz_leg_ret zz_leg_ratio zz_hh zz_hl pat_forming pat_awaiting pat_type pat_dir pat_age pat_height_atr pat_dist_neck pat_dist_target pat_break_up pat_break_dn pat_reached pat_failed
feature_infos=[-9.0094690322875977:8.1067876815795898] [-5.392390251159668:5.1287102699279785] [-4.3257360458374023:3.9724264144897461] [-3.6610226631164551:3.8579373359680176] [-3.1973919868469238:3.3957216739654541] [-4.4506931304931641:6.2260499000549316] [-6.1315574645996094:10] [-8.058192253112793:7.1880507469177246] [-8.836665153503418:10.033877372741699] [-15:15] [-1.3936638832092285:1.1150730848312378] [-2:1.2540737390518188] [0:1] [0:1] [-1:1] [0:1] [0:1] [0:8] [-8:4.4385466575622559] [0:1] [-15:15] [-15:0] [0:15] [0:30] [-15:15] [-3:2.4098653793334961] [-2.4772951602935791:1.4230983257293701] [0:100] [-2:2] [-1:1] [-1:0.96592581272125244] [0:1] [0:1] [0:1] [0:1] [0:1] [0:0.94202899932861328] [0.036231882870197296:0.97826087474822998] [0:1] [-1:1] [-20:20] [-20:20] [-20:20] [-20:20] none none [0:10.019565582275391] [0:6.6894474029541016] [0:1] [0:1] [0:5.1873860359191895] [0:4.8362817764282227] [0:1] [0:1] [0:1] [0:1] [-1:1] [-20:20] [-20:20] [-20:20] [-20:20] none none [0:20] [0:20] [0:1] [0:1] [0:4.8903489112854004] [0:4.6443910598754883] [0:1] [0:1] [0:1] [0:1] [-1:1] [-20:20] [-20:20] [-20:20] [-20:20] none none [0:20] [0:20] [0:1] [0:1] [0:6.2166061401367188] [0:6.2166061401367188] [0:1] [0:1] [0:1] [0:1] [0:1] [0:1] none none [-1:1] [0:4.3307332992553711] [-16.663015365600586:19.541484832763672] [-30:30] [-3:3] [-1:1] [-1:1] [0:1] [0:1] [0:14] [-1:1] [0:6.2166061401367188] [0:30] [-20:20] [-30:30] [0:1] [0:1] [0:1] [0:1]
tree_sizes=2949 2817 3034 2925 2708 2817 2377 3045 3038 2941 2818 2708 2931 2703 2822 2489 3151 3147 3046 3154 3033 2933 3165 3381 2603 2921 2824 2606 2371 2604 2932 3042 3042 1927 2715 3270 2272 3281 2820 2381 2259 2944 2613 3283 2384 2616 2165 2486 2487 2600 2381 2267 2272 2712 2820 3383 3394 2392 3052 3045 3267 2597 2266 1829 2274 2933 2043 2389 2609 2262 2480 2601 2367 3047 3499 2603 2486 3259 2047 2277 2713 1937 2354 1817 2506 2275 2377 2834 1926 3047 2828 2382 1263 2945 2376 1933 2939 2270 1935 2616 2715 1714 1594 1934 1488 1704 1933 3045 1830 1705 2163 2831 2818 2048 1699 2939 2483 2042 1703 2379 2932 1485 2157 2719 2044 2499 1946 1484 2379 1137 2153 3062 1370 1821 1925 1709 2269 2369 2266 2167 2723 1929 2273 3272 1605 2263 2045 3036 1703 1931 2149 1609 1827 2718 1599 2033 2278 2261 2156 2483 1827 1817 2598 2281 2159 2501 1928 1602 1822 2380 1374 1268 2380 1602 1479 1367 1589 2603 1366 1152 1264 1830 2943 2163 2705 2821 1935 1584 2155 1380 1267 2825 2042 2608 2055 1369 1597 2024 1819 1932 2383 1601 1373 1479 1812 1710 2605 2821 2600 1936 2497 1254 2168 2272 1710 1149 3047 1149 2041 1932 1488 1495 1481 2824 1262 1487 1490 2157 2036 1600 1385 2038 2499 1263 1595 1718 2387 2818 1043 2485 1144 1595 1260

Tree=0
num_leaves=26
num_cat=0
split_feature=12 30 30 12 60 10 10 11 2 29 1 30 13 6 57 7 8 84 22 84 19 98 21 29 29
split_gain=226.504 82.7701 38.2793 34.0021 18.1152 17.185 15.8618 11.5232 10.8177 9.6731 8.12082 7.16773 6.45203 5.65472 4.77931 4.67559 3.23426 5.32231 3.02326 2.78507 2.75658 1.87966 1.75599 1.34929 0.94678
threshold=0.3361694216728211 0.81279832124710094 -0.18436925113201139 0.71372652053833019 13.757685184478762 -0.27956320345401758 0.46118970215320593 0.43844683468341833 -1.0007765889167783 0.39271505177021032 -0.56580209732055653 -0.95688340067863453 0.69561278820037853 0.035687049850821502 -4.1057519912719718 -0.73011478781700123 1.1398254632949831 2.1383330821990971 1.8532973527908327 3.0201274156570439 0.46820266544818884 -0.2694502174854278 -6.1473145484924308 -0.81279832124710072 -0.52803644537925709
decision_type=2 2 2 2 2 2 2 2 2 2 2 2 2 2 2 2 2 2 2 2 2 2 2 2 2
left_child=2 3 8 6 7 20 10 -5 18 16 -2 22 -11 -8 -13 24 -3 -18 -1 -6 21 -4 -10 -17 -7
right_child=1 9 5 4 19 15 13 -9 11 12 -12 14 -14 -15 -16 23 17 -19 -20 -21 -22 -23 -24 -25 -26
leaf_value=-0.95067991457801404 -0.94406122014036931 -0.95600661028597222 -0.9477042611097416 -0.93377340115382645 -0.9253608904270616 -0.95418609698131929 -0.94232619206437307 -0.94013841351240701 -0.94516870923386542 -0.94849561518240511 -0.93763669602600452 -0.9401749729416885 -0.93578924722198775 -0.95116700574093771 -0.94467436801960358 -0.9442662079826375 -0.95327591692870306 -0.9429646089646414 -0.94625647815125302 -0.93606412577214881 -0.95053367599395677 -0.94254996606408104 -0.95124618500136748 -0.9509524531831135 -0.95914903064957402
leaf_weight=441.50663514900953 198.75808039540425 156.35735580930486 102.74467361997813 1108.2486237664707 239.26609923364595 445.40881733316928 128.00663958489895 360.02532899659127 88.542818650137633 56.777390650473535 1229.8201693207957 288.51851481990889 47.727669349405915 107.65088285552338 663.98496730579063 53.549051289446652 81.973441524896771 81.185500823892653 269.38313517766073 63.55458915932104 133.93933259043843 127.14546291297302 126.11037052376196 67.37815137533471 273.87121006054804
leaf_count=5812 7702 7554 6124 62158 11779 13499 4447 10360 2978 4145 72594 8298 3442 3017 19445 3298 3863 3616 4170 3077 4192 7244 5016 4116 7466
internal_value=-0.942965 -0.938133 -0.949008 -0.936586 -0.933707 -0.953149 -0.939721 -0.935276 -0.946272 -0.950387 -0.938534 -0.944449 -0.942483 -0.946696 -0.943284 -0.955492 -0.952844 -0.948713 -0.949142 -0.927045 -0.947364 -0.945054 -0.949147 -0.948606 -0.956464
internal_weight=6941.43 3859.35 3082.08 3435.33 1771.09 1204.04 1664.24 1468.27 1878.05 424.021 1428.58 1167.16 104.505 235.658 952.503 840.207 319.516 163.159 710.89 302.821 363.829 229.89 214.653 120.927 719.28
internal_count=289412 197754 91658 175134 87374 45939 87760 72518 45719 22620 80296 35737 7587 7464 27743 28379 15033 7479 9982 14856 17560 13368 7994 7414 20965
is_linear=0
shrinkage=1


Tree=1
num_leaves=24
num_cat=0
split_feature=12 30 30 12 36 10 28 20 2 59 30 57 8 36 84 20 8 60 98 75 28 23 81
split_gain=218.581 78.1713 37.226 35.617 19.5598 16.6324 15.6129 14.9286 12.8708 7.85278 7.23378 7.04919 6.5487 6.449 6.27214 4.89015 4.71304 3.38902 3.44938 3.32535 1.70695 1.33044 0.0757866
threshold=0.36621315777301794 0.87137606739997875 -0.18436925113201139 0.70209181308746349 0.69021740555763256 -0.27956320345401758 -0.11952726170420645 5.9802713394165048 -1.0007765889167783 11.156083106994631 -0.96298784017562855 -3.9041614532470699 0.20904655754566195 0.19384057819843295 2.2499048709869389 5.4718022346496591 1.0423042178153994 8.2065958976745623 0.32343785464763647 -1.0000000180025095e-35 -0.41478642821311945 9.5963010787963885 1.4032614827156069
decision_type=2 2 2 2 2 2 2 2 2 2 2 2 2 2 2 2 2 2 2 2 2 2 2
left_child=2 3 8 6 9 17 15 -6 19 -5 21 -12 20 -8 22 -2 -16 18 -4 -1 -7 -10 -3
right_child=1 14 5 4 7 12 13 -9 10 -11 11 -13 -14 -15 16 -17 -18 -19 -20 -21 -22 -23 -24
leaf_value=-0.0037173329056578281 -0.0037867484005274506 -0.015453909227345566 -0.0076790775868356932 0.0091643448026412101 -0.00065032959445249152 -0.0096075856966236321 -0.0004976561711768886 0.010726116534472941 -0.0080609996826947559 0.015187422091864423 0.0033988200555487924 -0.0017901179531143012 -0.0033685053451695231 0.0055529187422765046 -0.0087708604557260698 0.0043135138329972941 0.0012132994250117328 0.0003385706162147221 -0.00016699595705424032 -0.0081964108664892236 -0.014472402747587506 -0.0026351069747403968 -0.0074231519551208203
leaf_weight=334.6611545002088 328.62233379483223 89.012565417215228 204.26865693181753 1149.9606707300991 301.17333600670099 316.56134373368695 186.74276240170002 136.75998533563688 114.79941945476457 308.07890614168718 324.66306517133489 724.98245301330462 90.662782164290547 925.07911890000105 65.16918428754434 65.424330729059875 76.584339696448296 106.96815919922665 74.089999216143042 375.7048275959678 474.49787518847734 98.773904020432383 69.887507666368037
leaf_count=4655 14508 4340 9992 53894 17657 11000 14386 8588 4038 14270 9657 21737 5225 48231 3221 3682 3447 5965 3269 5432 14639 4133 3457
internal_value=-2.76439e-05 0.00493991 -0.00569868 0.00624534 0.00896524 -0.00967934 0.0027482 0.00321566 -0.00307161 0.0106253 -0.00121706 -0.0001516 -0.0119359 0.00454582 -0.00929895 -0.00229845 -0.00389371 -0.00418157 -0.00582483 -0.00624585 -0.0128105 -0.00599212 -0.0131466
internal_weight=6943.13 3702.5 3240.63 3401.84 1895.97 1267.05 1505.87 437.933 1973.58 1458.04 1263.22 1049.65 881.722 1111.82 300.654 394.047 141.754 385.327 278.359 710.366 791.059 213.573 158.9
internal_count=289423 189681 99742 175216 94409 50090 80807 26245 49652 68164 39565 31394 30864 62617 14465 18190 6668 19226 13261 10087 25639 8171 7797
is_linear=0
shrinkage=0.03


Tree=2
num_leaves=26
num_cat=0
split_feature=7 30 30 96 10 10 2 67 75 29 42 30 84 10 63 75 5 22 6 9 3 84 6 98 29
split_gain=201.264 54.9033 53.6283 30.3483 28.1267 22.5005 16.9899 10.4035 9.31248 8.13343 7.59131 6.80773 7.99907 6.73987 6.52215 8.37107 5.96595 5.76313 5.20569 4.43846 4.3691 3.48609 2.54743 1.50863 0.571107
threshold=-0.17186181992292401 0.75894212722778331 -0.20576497167348859 -1.7900511026382444 0.3964244425296784 -0.30307118594646448 -0.93018764257431019 2.8029010295867924 0.22468374669551852 0.39271505177021032 1.2934609651565554 0.8491516411304475 0.89587974548339855 -0.18512252718210218 0.84045037627220165 1.0000000180025095e-35 0.68774718046188366 1.0526767969131472 1.0356983542442324 -2.6197092533111568 0.12515334039926532 2.1383330821990971 0.47682288289070135 0.76683858036994945 -0.43245348334312433
decision_type=2 2 2 2 2 2 2 2 2 2 2 2 2 2 2 2 2 2 2 2 2 2 2 2 2
left_child=2 3 6 20 7 18 14 -5 17 21 -6 12 -7 -10 15 -1 -11 -8 19 -4 -2 24 -23 -22 -3
right_child=1 9 5 4 10 11 8 -9 13 16 -12 -13 -14 -15 -16 -17 -18 -19 -20 -21 23 22 -24 -25 -26
leaf_value=0.00086064181615000195 0.0026130524129089599 -0.0047860069221802035 -0.0012703999522335836 0.0067773408816942963 -0.0033059684571503803 -0.0016510800590788907 -0.0021523476185945269 0.011301558012392295 0.0020084460937066294 -0.0033337910393269709 0.0044616920560622535 -0.016390987546006652 -0.010816740628655962 -0.0035842216072503258 -0.0089133937964171375 -0.0064900181710976675 0.0082982389404503056 0.0046688952644359403 0.002239901245576735 -0.0084670103279260098 -0.001868990940174055 -0.0057463748458069508 0.0014210110313062816 -0.0078304533536539978 -0.011633109109041119
leaf_weight=251.35566040035337 77.41570715373382 61.578985932748765 160.72527702292427 982.35665196133777 199.86308578774333 105.83434753213078 133.94340405613184 1156.7296408866532 270.21263988316059 72.39255509339273 214.20857150573283 233.51179566793144 724.90166342677549 583.56830039061606 271.33152690064162 281.9174027107656 51.116036062128842 440.36290392046794 110.22240502061322 144.78666362632066 85.959073677659035 93.421020962763578 62.750487744342536 85.040645893197507 94.26480294438079
leaf_count=3513 4120 4198 7716 57746 7996 4370 3113 62468 10986 5639 6827 7777 27224 17256 4220 4053 3901 15386 5953 7322 3514 4637 3036 2590 4067
internal_value=-2.38379e-05 0.00542586 -0.00477907 0.00696218 0.007932 -0.0091692 -0.00181341 0.00930588 0.000164079 -0.00432852 0.000732842 -0.0114554 -0.00971532 -0.00180874 -0.0052421 -0.00311945 0.00196588 0.00305911 -0.00305957 -0.00499166 -0.00285379 -0.00678843 -0.0030321 -0.00534321 -0.00977966
internal_weight=6949.77 3237.1 3712.67 2801.57 2553.16 1479.98 2232.69 2139.09 1428.09 435.524 414.072 1064.25 830.736 853.781 804.605 533.273 123.509 574.306 415.734 305.512 248.415 312.015 156.172 171 155.844
internal_count=289628 170739 118889 145261 135037 60362 58527 120214 46741 25478 14823 39371 31594 28242 11786 7566 9540 18499 20991 15038 10224 15938 7673 6104 8265
is_linear=0
shrinkage=0.03


Tree=3
num_leaves=25
num_cat=0
split_feature=12 30 12 30 10 10 10 59 96 22 75 84 8 20 7 46 21 19 84 6 106 59 30 29
split_gain=209.909 71.7174 35.2353 30.9719 15.7607 15.2862 13.6787 9.91819 9.84826 8.67575 8.19357 8.13165 11.9067 7.90761 6.59007 6.08999 6.0302 5.50244 3.26041 3.12688 3.18733 1.48283 1.40541 1.05049
threshold=0.32760940492153173 0.81279832124710094 0.71372652053833019 -0.18436925113201139 -0.27956320345401758 0.47993977367877966 0.46118970215320593 11.156083106994631 -2.1860934495925899 0.99514445662498485 1.0000000180025095e-35 2.1383330821990971 1.1398254632949831 -0.42864051461219782 -0.73011478781700123 0.36618095636367803 -5.1788425445556632 0.44634374976158148 2.3502402305603032 1.0356983542442324 7.0737369060516366 1.7211916446685793 0.88186877965927135 -0.52803644537925709
decision_type=2 2 2 2 2 2 2 2 2 2 2 2 2 2 2 2 2 2 2 2 2 2 2 2
left_child=3 2 6 9 19 7 8 -4 -2 17 16 22 -13 -8 23 -12 -11 -1 -7 20 -5 -16 -3 -6
right_child=1 11 5 4 14 18 13 -9 -10 10 15 12 -14 -15 21 -17 -18 -19 -20 -21 -22 -23 -24 -25
leaf_value=-0.0025118380758359904 -0.0034058050420267307 -0.0048614208481814964 0.0083459499162333306 -0.00057693457919734501 -0.010851815458314566 -0.0031126033117627782 0.0024492320720243422 0.014653811778406469 0.0046567449475546797 0.0041555321584357645 -0.0052572657227467146 -0.0088185936434877592 0.0041611511060728511 -0.0078385421046011823 -0.0066689805486192478 0.00095368148964616124 -0.0024641877391207577 -0.0086420892231691363 0.0039894884386303658 0.00033497468173054315 -0.0078779230963209688 -5.1683428788987748e-05 -0.01274321853584456 -0.01575723312858825
leaf_weight=233.3509624809958 137.13081678887829 64.713132607750595 1267.7699485537596 79.102363315876573 439.27675258507952 87.204220407642424 103.53696692921221 324.85010315105319 1345.0572667317465 248.47329268278554 600.18094789562747 108.1726403334178 108.99755447823554 138.9425265211612 64.363233565818518 177.1475709262304 211.85579190449789 366.20051054609939 108.40160514274612 99.79690301977098 174.04788068821654 48.207003457471728 142.53853627340868 271.22684657853097
leaf_count=4821 4008 4640 64591 3553 13410 3043 3677 15805 78116 6456 16435 5834 5480 4055 4126 5518 5999 5384 3794 5424 8099 2901 6876 7428
internal_value=-5.81923e-05 0.00449326 0.0059039 -0.00599588 -0.00976973 0.00883717 0.0027961 0.00979836 0.00387539 -0.003501 -0.00201019 -0.00692273 -0.00250252 -0.00359383 -0.0120263 -0.00385342 0.00113321 -0.00641425 0.000828236 -0.00414466 -0.00580585 -0.00427051 -0.0109266 -0.0131045
internal_weight=6950.55 3937.32 3512.89 3013.23 1176.02 1788.23 1724.67 1592.62 1482.19 1837.21 1237.66 424.422 217.17 242.479 823.074 777.329 460.329 599.551 195.606 352.947 253.15 112.57 207.252 710.504
internal_count=289473 199919 177089 89554 44941 87233 89856 80396 82124 44613 34408 22830 11314 7732 27865 21953 12455 10205 6837 17076 11652 7027 11516 20838
is_linear=0
shrinkage=0.03


Tree=4
num_leaves=23
num_cat=0
split_feature=12 30 10 30 12 60 10 42 30 7 30 29 7 77 96 20 60 64 84 50 29 29
split_gain=182.74 71.2148 31.9469 27.2053 25.0579 14.6468 13.3601 9.57314 9.05577 5.73363 7.29094 5.69552 5.5621 5.21256 4.85541 3.63427 3.14431 2.55503 2.05787 1.41574 1.09377 1.02962
threshold=0.32760940492153173 0.87137606739997875 0.46118970215320593 -0.18436925113201139 0.71372652053833019 10.548973560333254 -0.25715363025665278 1.1704288125038149 0.098011311143636717 -2.3317849636077876 -0.95688340067863453 0.35222910344600683 -0.73011478781700123 -4.9181308746337882 -3.0405340194702144 -0.42864051461219782 8.2065958976745623 0.49606494605541235 2.2499048709869389 2.6020033359527592 -0.56457334756851185 -0.83743050694465626
decision_type=2 2 2 2 2 2 2 2 2 2 2 2 2 2 2 2 2 2 2 2 2 2
left_child=3 2 4 9 8 -6 16 15 -2 13 19 18 20 -1 -12 -4 17 -5 -3 -11 -8 -14
right_child=1 11 7 6 5 -7 12 -9 -10 10 14 -13 21 -15 -16 -17 -18 -19 -20 -21 -22 -23
leaf_value=-0.0025203578208946461 0.005046181913236576 -0.014329645610493578 -0.001208476630165834 -0.00061925007781021141 0.007308027041751766 0.014283669379114074 -0.010133192559974441 0.0031301848203315291 -0.00016817538038204965 -0.0086023324277488631 -0.0040224829513696931 -0.0018158598921277724 -0.00046383104119767705 -0.0084529431822789255 0.0003866323909536362 -0.0081713669327619764 0.00037792339947184748 -0.0073698331936074175 -0.0063855128462350702 -0.0027975048850210956 -0.014943050310322495 -0.0061811416477709812
leaf_weight=277.80645918939263 1120.7492909720168 120.96441935095936 126.08300745720044 71.203158322256058 1246.0433808411472 380.92062628082931 412.37156941788271 191.24673709413037 404.88505830010399 135.40910039981827 302.2203359361738 83.381889459211379 48.93145533837378 287.51445157453418 733.45752249285579 148.27446762192994 100.42196187609807 193.45478561287746 108.91299967374653 85.765236489940435 264.20895787281916 61.147974342107773
leaf_count=3654 54234 5331 4784 3181 64580 18714 12747 5796 31535 4498 5496 5383 2977 3610 23634 5019 5450 8973 4468 3497 7426 3839
internal_value=1.32944e-06 0.00423708 0.00543498 -0.00558916 0.00651323 0.00909485 -0.0091709 -0.00183345 0.00367808 -0.00325027 -0.00206568 -0.00909464 -0.0113577 -0.00572332 -0.000951819 -0.00527104 -0.00411367 -0.00572478 -0.0113782 -0.00677004 -0.0123866 -0.0041018
internal_weight=6905.37 3931.46 3618.2 2973.91 3152.6 1626.96 1151.74 465.604 1525.63 1822.17 1256.85 313.259 786.66 565.321 1035.68 274.357 365.08 264.658 229.877 221.174 676.581 110.079
internal_count=288826 199844 184662 88982 169063 83294 44593 15599 85769 44389 37125 15182 26989 7264 29130 9803 17604 12154 9799 7995 20173 6816
is_linear=0
shrinkage=0.03


Tree=5
num_leaves=24
num_cat=0
split_feature=12 30 30 12 36 10 28 20 28 17 13 36 59 8 84 7 59 64 6 106 29 29 30
split_gain=180.979 66.2728 29.2218 25.5094 15.0423 13.6788 12.3623 11.2414 9.1556 9.57213 8.55139 8.1641 7.64241 6.69395 7.50093 5.04344 4.42314 3.81617 2.58816 1.85388 1.85097 0.316202 0.21003
threshold=0.3317550420761109 0.8491516411304475 -0.18436925113201139 0.71372652053833019 0.69384059309959423 -0.27956320345401758 -0.18426230549812314 4.4119703769683847 -0.56719541549682606 1.0715995430946352 0.34639878571033483 0.19384057819843295 11.156083106994631 1.1398254632949831 2.1383330821990971 -0.81645643711090077 4.6853001117706308 0.9841924011707307 1.5279179811477663 7.0737369060516366 -0.81279832124710072 0.33172981441020971 0.79989895224571239
decision_type=2 2 2 2 2 2 2 2 2 2 2 2 2 2 2 2 2 2 2 2 2 2 2
left_child=2 3 8 6 12 18 16 -6 -1 17 -11 -8 -5 21 -15 22 -2 -10 19 -4 -17 -3 -7
right_child=1 13 5 4 7 15 11 -9 9 10 -12 -13 -14 14 -16 20 -18 -19 -20 -21 -22 -23 -24
leaf_value=0.0042777301335975336 -0.0027241770238947858 -0.013348423569746103 -0.0011778000506308323 0.0079739178405618411 -0.0015996808647504824 -0.010749007159851061 -0.00099945677709229299 0.0082483142036521399 0.001053458896271566 -0.0064866968014252327 0.00020588896913520139 0.0053669652344087463 0.013801210986952719 -0.0086171552660581369 0.0025678747561285265 -0.00054792560271832999 0.0046618167088429783 -0.0039108206928029224 0.0012060236347497793 -0.0066009554709665613 -0.0075407630201346091 -0.0059625523799857662 -0.015470271261861178
leaf_weight=125.15250286925584 375.04537097737193 114.82477116212249 90.342097564600408 1137.6477552978322 234.27437716117129 500.08046477520838 210.31924942787737 160.78938194876537 413.75098919123411 915.86895843734965 208.9910846860148 1078.1993973841891 304.81142435595393 88.189402097370476 93.648665224667639 59.523273234255612 70.550888546742499 185.88372055534273 64.318084510043263 198.06100004678592 71.785182068124413 60.69228244991973 175.90635207062587
leaf_count=1177 16268 5270 4072 51624 14296 14903 15816 9948 15043 15136 6092 55249 13683 4500 4386 3645 3877 7744 3758 9400 4443 4020 4881
internal_value=4.47485e-05 0.00427621 -0.00547101 0.00551503 0.00796665 -0.00917314 0.00285601 0.00261273 -0.00307591 -0.00365251 -0.00526139 0.00432841 0.0093772 -0.00774146 -0.00317308 -0.0113101 -0.00140474 -0.000562001 -0.00393775 -0.0050887 -0.00486227 -0.0116656 -0.0123868
internal_weight=6938.66 3928.99 3009.66 3571.64 1837.52 1160.02 1734.11 395.064 1849.65 1724.49 1124.86 1288.52 1442.46 357.355 181.838 807.295 445.596 599.635 352.721 288.403 131.308 175.517 675.987
internal_count=289231 198937 90294 180761 89551 45102 91210 24244 45192 44015 21228 71065 65307 18176 8886 27872 20145 22787 17230 13472 8088 9290 19784
is_linear=0
shrinkage=0.03


Tree=6
num_leaves=20
num_cat=0
split_feature=7 36 36 96 36 10 22 12 29 29 76 75 98 1 46 98 59 96 3
split_gain=168.272 30.3593 29.137 23.8815 25.0966 21.0664 20.3356 10.8559 8.01513 6.03785 5.46385 5.33087 4.52625 4.34481 5.24032 4.27131 4.09253 2.93771 2.69266
threshold=-0.25340880453586573 0.89673915505409252 0.70108696818351757 -1.6569010615348814 0.034420289099216468 0.30597087740898138 0.99514445662498485 0.26527409255504614 -0.87137606739997853 -0.52803644537925709 19.77491664886475 0.12023927271366121 0.12361780181527139 -1.140950560569763 0.25662381947040563 0.33916132152080541 2.0627166032791142 2.2335029840469365 0.42159104347229009
decision_type=2 2 2 2 2 2 2 2 2 2 2 2 2 2 2 2 2 2 2
left_child=2 3 6 15 16 -6 8 11 -1 13 -10 -8 -9 -4 -15 -2 -5 -3 -17
right_child=1 17 9 4 5 -7 7 12 10 -11 -12 -13 -14 14 -16 18 -18 -19 -20
leaf_value=0.00024523578170770047 0.0030508841030470772 -0.010347527360908267 -0.012958716518631752 -0.0093367810317830646 0.0083405069415849308 0.0017947482091486772 -0.00046158115820045141 -0.0011398734295783757 -0.0089767957896085219 -0.015714198531157485 -0.0023322896199318844 -0.0048020450233833209 0.0033449454903010435 -0.0085819600558779043 -0.0021409744228250067 -0.00095095008923370375 0.00023213750138376962 -0.001226780067785391 -0.007004460454122269
leaf_weight=128.87685432564467 102.4382033883594 98.03418496157974 128.77676590997726 75.555790119338781 2136.9331412743777 572.92052337294444 412.77340763900429 344.79638434108347 638.48158251401037 128.32333358796313 154.70985842170194 664.87471994478256 445.1518074227497 320.82813944527879 195.94684679526836 156.06010333029553 67.83490813523531 51.652672345750034 105.16210333816707
leaf_count=1485 5889 6564 2061 3521 124224 21278 11331 15400 16041 4011 4600 18978 16478 13174 8656 7025 2839 2188 3299
internal_value=-1.06634e-05 0.00478429 -0.00454203 0.00541001 0.00632813 0.00697988 -0.00307172 -0.00124416 -0.00666833 -0.0096313 -0.00777004 -0.00317821 0.0014076 -0.00798626 -0.00631048 -0.00174783 -0.00533564 -0.00771577 -0.00371278
internal_weight=6930.13 3366.59 3563.54 3216.9 2853.24 2709.85 2789.66 1867.6 922.068 773.875 793.191 1077.65 789.948 645.552 516.775 363.66 143.391 149.687 261.222
internal_count=289042 176827 112215 168075 151862 145502 84313 62187 22126 27902 20641 30309 31878 23891 21830 16213 6360 8752 10324
is_linear=0
shrinkage=0.03


Tree=7
num_leaves=26
num_cat=0
split_feature=12 30 10 30 1 10 96 29 30 96 74 77 7 28 13 4 42 104 96 2 30 60 29 42 28
split_gain=164.349 55.9298 28.7016 25.3487 21.9526 13.7577 10.0886 7.64571 7.45828 7.28295 7.24958 7.17653 6.61248 5.397 5.32787 4.71322 3.93736 3.55354 3.19474 2.85513 2.69647 1.7967 1.53873 1.0795 0.7102
threshold=0.32760940492153173 0.82531082630157482 0.46118970215320593 -0.18436925113201139 0.25880004465579992 -0.26830904185771937 -2.1860934495925899 0.37256073951721197 0.11969653144478799 -3.0405340194702144 -4.6250708103179923 -8.1331543922424299 -0.73011478781700123 -1.0000000180025095e-35 0.69971001148223888 -1.0202546119689939 1.1291397809982302 1.0000000180025095e-35 2.3359389305114751 -0.68837839365005482 -0.60003554821014393 8.5811848640441912 -0.81279832124710072 1.467929005622864 -0.41478642821311945
decision_type=2 2 2 2 2 2 2 2 2 2 2 2 2 2 2 2 2 2 2 2 2 2 2 2 2
left_child=3 2 4 9 6 19 -2 18 -6 17 -4 13 24 -11 -9 -13 -12 20 23 -5 -1 -21 -14 -3 -7
right_child=1 7 10 5 8 12 -8 14 -10 11 16 15 22 -15 -16 -17 -18 -19 -20 21 -22 -23 -24 -25 -26
leaf_value=-0.0057097403591738023 -0.0042126803442987613 -0.012477819298355779 0.0046342829248556166 -0.0064515441415186857 0.0095947500661013891 -0.0091261076105683663 0.0041639363340282053 -0.0050505832141199709 0.0044885773295279593 0.0065242005565388167 -0.0063009035519273173 -0.0086086800876145429 0.00053767333380861303 -0.00068097001759022922 0.0063417690215372292 -0.0022053818720101466 -8.9959690106445822e-05 -0.0087207614246085623 -0.0025599160406091013 -0.0028222660876731443 -0.00093033644505589473 0.002717394344243609 -0.0059737155518684382 -0.0053334730070525192 -0.013588215952029517
leaf_weight=247.32419307855889 127.54762713052332 140.11409934842959 104.84154881723225 156.09595962660387 1302.9745212076232 277.15969150979072 1286.4488899023272 59.123863512184471 388.42215567873791 113.51723284879699 202.7731741652824 109.95838030055165 50.108424321748316 302.07447883952409 49.355704443063587 646.11003418080509 157.31927114771679 212.53807678865269 73.249325315933675 142.38693747390062 191.48402732610703 59.572883430402726 59.868762064259499 75.70390764484182 404.16942309960723
leaf_count=4214 3659 7285 3511 4733 51878 8766 81462 4217 26307 2824 7265 2020 3169 9264 3440 20115 4708 3415 2828 8668 2697 4076 3798 3506 11659
internal_value=-2.62729e-05 0.00396135 0.0051539 -0.00534033 0.0061897 -0.0088024 0.00336012 -0.00648263 0.0084883 -0.00308574 -0.00173441 -0.00162465 -0.0109885 0.00149629 0.000313016 -0.0033345 -0.00373494 -0.0055873 -0.00888809 -0.00364539 -0.00375561 -0.00109059 -0.00338073 -0.0106366 -0.0120851
internal_weight=6940.24 3967.87 3570.33 2972.37 3105.39 1149.36 1414 397.547 1691.4 1823.01 464.934 1171.66 791.306 415.592 108.48 756.068 360.092 651.346 289.067 358.056 438.808 201.96 109.977 215.818 681.329
internal_count=289484 200066 178790 89418 163306 44869 85121 21276 78185 44549 15484 34223 27392 12088 7657 22135 11973 10326 13619 17477 6911 12744 6967 10791 20425
is_linear=0
shrinkage=0.03


Tree=8
num_leaves=26
num_cat=0
split_feature=7 30 30 96 10 10 0 20 22 14 84 30 8 30 77 7 60 5 47 24 96 3 27 30 20
split_gain=144.309 39.2329 36.1528 23.3631 18.2322 17.9494 14.3755 13.9676 10.1995 10.1443 9.75931 8.10587 5.75605 5.44265 5.35706 5.32443 5.1339 5.16756 4.389 4.32467 3.66168 3.2254 2.92389 2.613 0.359572
threshold=-0.25340880453586573 0.75894212722778331 -0.22706275433301923 -1.972028851509094 -0.33855643868446345 0.30597087740898138 -0.29911139607429499 6.2054336071014413 1.8532973527908327 0.10636750608682634 2.1383330821990971 0.88186877965927135 1.1398254632949831 -0.60003554821014393 -1.1796012520790098 -1.8984781503677366 10.548973560333254 -0.6946650743484496 0.21491627395153048 -0.96359282732009877 -3.0405340194702144 0.15038631856441501 10.449999809265138 0.8491516411304475 0.095504175871610655
decision_type=2 2 2 2 2 2 2 2 2 2 2 2 2 2 2 2 2 2 2 2 2 2 2 2 2
left_child=2 3 6 21 16 9 8 -7 13 -5 23 15 -12 -1 20 -6 17 -4 -14 -10 -8 -2 -16 -3 -25
right_child=1 10 4 5 11 7 14 -9 19 -11 12 -13 18 -15 22 -17 -18 -19 -20 -21 -22 -23 -24 24 -26
leaf_value=-0.0086382860501761291 0.00094156320794084626 -0.0019590474334921226 0.001951249231747134 0.0049434152097040636 -0.01138763258196719 -0.00075781528328698134 -0.0014780758245593404 0.0098423426821188081 0.002116794385412327 0.0094012433846775642 -0.0048010649706351841 -0.015736749368859698 -0.0016623157834379486 -0.0026295837377704558 -0.0050606933350665333 -0.0060661236958196914 0.0040483682863831517 -0.0063535659259029301 0.0080898156705976661 -0.0028412589618749891 0.0048987890211138413 -0.0063003817426842933 0.00034204443708856993 -0.0048358081132816077 -0.011461805680387854
leaf_weight=372.42113141808659 80.727030391339213 63.088965110480785 87.332115451805294 836.06354467477649 329.53708716714755 466.14687850140035 94.204430858138949 126.20879855332896 234.3713213680312 1296.8120684549212 86.02004426997155 181.9814065983519 60.942758909892291 243.91223726328462 102.12776240333915 548.75384480832145 81.676063700579107 193.07872673403472 80.534791136160493 405.12991184974089 343.16921635484323 128.88617206504568 335.85169138899073 57.758265223354101 98.96615032851696
leaf_count=6792 3873 4954 4092 52440 6863 17508 2016 4411 5698 67916 5342 5944 3261 3468 2802 26375 4370 9752 4435 10200 12009 4178 11594 3096 5450
internal_value=1.80017e-05 0.00444023 -0.00419223 0.00569877 -0.00786338 0.00644105 -0.00169177 0.00174838 -0.00372562 0.00771598 -0.00370764 -0.00982073 0.000685851 -0.00641775 0.00124415 -0.00827185 -0.00191777 -0.00380938 0.0042034 -0.00101509 0.00352072 -0.00367226 -0.00108375 -0.00793269 -0.00984352
internal_weight=6935.7 3382.16 3553.55 2934.84 1422.36 2725.23 2131.19 592.356 1255.83 2132.88 447.311 1060.27 227.498 616.333 875.353 878.291 362.087 280.411 141.478 639.501 437.374 209.613 437.979 219.813 156.724
internal_count=288839 176864 111975 150326 57396 142275 54579 21919 26158 120356 26538 39182 13038 10260 28421 33238 18214 13844 7696 15898 14025 8051 14396 13500 8546
is_linear=0
shrinkage=0.03


Tree=9
num_leaves=25
num_cat=0
split_feature=12 30 12 30 10 28 60 30 30 0 1 29 73 13 11 7 108 20 64 7 64 8 17 59
split_gain=136.008 54.7506 23.8431 23.0712 11.9688 11.1035 10.7319 10.2108 9.01072 9.13973 6.45068 6.34757 6.31063 5.52828 5.28613 4.68479 4.12091 4.05156 3.12809 3.05087 2.21498 2.34827 1.82222 1.73486
threshold=0.32760940492153173 0.81279832124710094 0.71372652053833019 -0.18436925113201139 -0.25715363025665278 -0.11952726170420645 7.8645315170288095 -0.2693240344524383 -0.49049438536167139 -0.40149384737014765 -0.31247629225254053 0.35222910344600683 1.0000000180025095e-35 0.69561278820037853 -0.053009876981377595 -0.76422846317291249 7.5303015708923349 5.4718022346496591 0.9841924011707307 1.1661803126335146 0.47896614670753485 -0.85004258155822743 0.86026322841644298 1.4118330478668215
decision_type=2 2 2 2 2 2 2 2 2 2 2 2 2 2 2 2 2 2 2 2 2 2 2 2
left_child=3 2 5 8 20 17 7 -4 9 14 -7 19 -10 -13 -1 22 -8 -2 -11 -3 -5 -22 -6 -17
right_child=1 11 6 4 15 10 16 -9 12 18 -12 13 -14 -15 -16 23 -18 -19 -20 -21 21 -23 -24 -25
leaf_value=-0.0029542988332931946 -0.0031317976779668571 -0.011113029275830669 0.0075451729690704759 0.00059810281646810958 -0.0070494029833296952 0.00016267628754958595 0.012392773271094195 0.0020029959204294762 0.0039795772038887329 0.00047936254179469444 0.0048686440863165929 -0.0058313281833385347 -0.0024362593191445069 0.0049534535179224046 -0.0082506000204075492 -0.0064407606065724496 0.0044167762214221886 0.0040373834727641155 -0.0042891853096245951 -0.0037088698480713918 -0.0067539002186224424 -0.00096187430594615853 -0.012481909703638695 0.00045282985591071613
leaf_weight=318.94645218458027 368.60605816962197 184.11343712359667 846.24099091161042 86.944869936909527 172.6963693536818 363.3666577343829 386.71521470323205 485.44517108704895 237.21523012733087 377.74685737397522 934.47046334343031 71.192761735059321 278.31096784537658 60.970393260475248 445.23143714852631 64.476753485854715 103.24007117655128 68.765274134930223 161.75442373752594 103.60161787131801 167.76765168644488 106.19254679325968 489.9657537881285 49.726530218496919
leaf_count=7459 15737 9510 32496 4187 7314 17010 18001 31833 4963 12336 53470 5025 5680 4190 8482 4199 5000 3766 5537 4161 6375 7110 12663 2981
internal_value=-8.1604e-05 0.00353445 0.00474822 -0.00493578 -0.00825884 0.00219386 0.00713114 0.00558439 -0.00279026 -0.00410122 0.00357354 -0.00649596 0.000554305 -0.000858893 -0.0061718 -0.0103358 0.0109513 -0.00187737 -0.00105257 -0.00886125 -0.00348008 -0.00472698 -0.0113141 -0.00381898
internal_weight=6933.7 3976.73 3556.85 2956.98 1137.77 1735.21 1821.64 1331.69 1819.21 1303.68 1297.84 419.878 515.526 132.163 764.178 776.865 489.955 437.371 539.501 287.715 360.905 273.96 662.662 114.203
internal_count=289485 200199 177313 89286 44829 89983 87330 64329 44457 33814 70480 22886 10643 9215 15941 27157 23001 19503 17873 13671 17672 13485 19977 7180
is_linear=0
shrinkage=0.03


Tree=10
num_leaves=24
num_cat=0
split_feature=12 30 30 12 60 10 10 30 8 84 96 30 0 73 22 10 8 108 60 98 64 29 29
split_gain=129.072 48.6248 24.2689 22.0077 15.716 11.0856 10.3966 8.58717 8.42297 7.89058 7.81369 7.14687 7.17744 6.08798 5.74068 5.586 4.32624 3.97821 3.8366 3.17738 3.1133 2.96689 0.92695
threshold=0.3317550420761109 0.81279832124710094 -0.22706275433301923 0.70209181308746349 7.8645315170288095 -0.27956320345401758 0.16270625591278079 -0.29026740789413447 1.1878203749656679 2.1383330821990971 -2.1860934495925899 -0.49049438536167139 -0.37776936590671534 1.0000000180025095e-35 1.1385741829872134 -0.61623182892799366 0.068814400583505644 7.5303015708923349 8.2065958976745623 0.29454736411571508 0.9841924011707307 -0.60003554821014393 0.39271505177021032
decision_type=2 2 2 2 2 2 2 2 2 2 2 2 2 2 2 2 2 2 2 2 2 2 2
left_child=2 3 11 7 6 18 -5 10 22 -10 -2 12 14 -13 -1 -9 21 -6 19 -4 -14 -7 -3
right_child=1 8 5 4 17 16 -8 15 9 -11 -12 13 20 -15 -16 -17 -18 -19 -20 -21 -22 -23 -24
leaf_value=-0.0084676331280796914 -0.003117025830143776 -0.011310521470811559 -0.0070546971982141183 0.0069744096044921412 0.01270311736359005 -0.0083454457367653501 0.0015043271251765141 0.0060512003245848994 -0.0068529498834410119 0.0039029304658683389 0.0046700455052255414 0.0042100222961080052 0.00065889977191521969 -0.0024122105844790066 -0.0030969596065932559 -0.0017974708462001386 -0.0027837707130149133 0.0048462500984191919 0.0013916727189100713 0.00016833932439239081 -0.0041296854344931629 -0.013429906622442074 -0.0041882328814874048
leaf_weight=312.75336006563157 118.44456896930933 154.79755202075467 192.33686790987849 877.24232330638915 403.16506079537794 449.94547058548778 500.56188906356692 75.439431577920914 100.46974072651938 106.57481571566314 907.99802427925169 213.89359200699255 374.01254225196317 249.19364524725825 473.69659781176597 550.57134678261355 86.83496624417603 107.27439041575417 100.17492376733571 72.64789160201326 158.44816768821329 296.11331004928797 55.029922299087048
leaf_count=4897 2874 7819 9273 46682 18748 14822 19874 7439 5509 5367 41123 4365 12255 4957 11812 34229 4815 5186 5519 3186 5462 9179 4099
internal_value=-5.80498e-05 0.00348567 -0.00475604 0.00463037 0.00682992 -0.00802905 0.00503707 0.00206535 -0.00600371 -0.00146033 0.00372907 -0.00249088 -0.00360286 0.000694172 -0.00538978 -0.000693583 -0.00992466 0.0112969 -0.00341451 -0.0052016 -0.000863989 -0.0106614 -0.00996963
internal_weight=6937.62 3957.57 2980.05 3540.7 1888.24 1198.05 1377.8 1652.45 416.872 207.045 1026.44 1782 1318.91 463.087 786.45 626.011 832.894 510.439 365.16 264.985 532.461 746.059 209.827
internal_count=289491 198949 90542 176155 90490 46794 66556 85665 22794 10876 43997 43748 34426 9322 16709 41668 28816 23934 17978 12459 17717 24001 11918
is_linear=0
shrinkage=0.03


Tree=11
num_leaves=23
num_cat=0
split_feature=12 30 30 10 12 59 10 96 28 7 8 84 30 42 7 20 77 60 59 60 63 29
split_gain=122.797 44.3334 25.0064 20.7453 16.3084 11.6483 10.0779 7.94071 7.34957 7.78101 6.86493 8.28732 6.74272 6.57542 4.952 4.29089 2.92787 2.67827 2.10237 1.87809 1.27751 0.593704
threshold=0.3361694216728211 0.81279832124710094 -0.18436925113201139 0.46118970215320593 0.70209181308746349 11.156083106994631 -0.28544761240482325 -2.1860934495925899 -0.56719541549682606 -2.4029037952423091 1.2124229073524477 2.1383330821990971 -0.96298784017562855 1.1704288125038149 -0.81645643711090077 -0.42864051461219782 -5.6702885627746573 8.2065958976745623 -10.544032096862791 3.0370043516159062 0.17229352146387103 0.39271505177021032
decision_type=2 2 2 2 2 2 2 2 2 2 2 2 2 2 2 2 2 2 2 2 2 2
left_child=2 3 8 4 7 -6 17 -2 -1 16 21 -12 -11 15 20 -5 -10 18 -4 -16 -8 -3
right_child=1 10 6 13 5 -7 14 -9 9 12 11 -13 -14 -15 19 -17 -18 -19 -20 -21 -22 -23
leaf_value=0.0042538593056304901 -0.0037084977317598236 -0.010382818643383473 -0.00030048645068973497 3.3953256610076925e-06 0.0060532602298691823 0.012426709845837632 -0.014123569369684461 0.0037616063226938094 -0.0031759207296556177 -0.006162474374433651 -0.0070133089915093696 0.0040762032444844123 -0.00048306177291223456 0.002819013867809095 -0.0059998669326669649 -0.0073933453575384112 -0.0082332341142658822 0.00067747412701766425 -0.0064880638843039249 0.00083950671089848326 -0.0091858893928939579 -0.0040473118144310856
leaf_weight=125.30515563301742 126.10320451715961 152.28061124216765 67.838423606939614 124.01477733068168 1323.1548701608554 342.43554017692804 174.22769160289317 1281.5561987645924 234.13040392939001 211.0410117325373 99.109969158656895 104.89465255569667 1035.7488700016402 187.58673093141988 86.606272184289992 143.77436257759109 246.33536612614989 98.664172052405775 184.33269184082747 47.982301243580878 493.78991229925305 54.806454490870237
leaf_count=1189 3695 7752 3140 4662 66254 16201 4941 73773 3169 7743 5466 5295 30494 5711 5531 4895 3197 5415 8816 2909 15178 4105
internal_value=4.49158e-05 0.00352185 -0.00450517 0.00461117 0.00549211 0.0074955 -0.00793996 0.00304983 -0.00230463 -0.00282367 -0.00560851 -0.00145648 -0.00152652 -0.00131509 -0.00978033 -0.00420569 -0.00599422 -0.00342936 -0.0049679 -0.0037684 -0.0108468 -0.00921023
internal_weight=6945.72 3939.72 3006 3528.63 3073.25 1665.59 1153.44 1407.66 1852.56 1727.26 411.092 204.005 1246.79 455.376 802.606 267.789 480.466 350.835 252.171 134.589 668.018 207.087
internal_count=289531 197809 91722 175191 159923 82455 45930 77468 45792 44603 22618 10761 38237 15268 28559 9557 6366 17371 11956 8440 20119 11857
is_linear=0
shrinkage=0.03


Tree=12
num_leaves=25
num_cat=0
split_feature=12 30 30 10 12 10 59 14 30 22 42 30 5 29 30 6 7 108 73 7 40 30 29 74
split_gain=123.868 47.31 21.7864 20.9407 16.4302 10.477 8.67447 7.58305 7.44758 7.54042 7.0684 6.55097 4.45618 3.84578 3.71857 3.4514 3.36717 2.81055 2.31149 2.01142 1.86395 1.66638 1.40344 0.860596
threshold=0.32760940492153173 0.87137606739997875 -0.18436925113201139 0.46118970215320593 0.70209181308746349 -0.34469872713088984 11.156083106994631 -0.15976137667894361 -0.49049438536167139 1.2261729240417483 1.1704288125038149 0.16288578510284427 -0.021325502544641491 0.37256073951721197 -0.35222910344600672 1.0356983542442324 -0.81645643711090077 6.0772991180419931 1.0000000180025095e-35 -1.268843352794647 1.9062656164169314 0.88186877965927135 -0.81279832124710072 6.6621890068054208
decision_type=2 2 2 2 2 2 2 2 2 2 2 2 2 2 2 2 2 2 2 2 2 2 2 2
left_child=2 3 7 4 11 15 -6 8 9 -1 12 -2 -5 20 -10 19 21 18 -9 -4 23 -7 -18 -3
right_child=1 13 5 10 6 16 -8 17 14 -11 -12 -13 -14 -15 -16 -17 22 -19 -20 -21 -22 -23 -24 -25
leaf_value=-0.0085013700846868628 0.0039680681285822333 -0.013183574947160463 -0.0071629760094528419 -0.00087082516148511313 0.0059379392842064289 -0.0092063061623283947 0.011397047278480586 0.004081317990971764 0.0026094345911584472 -0.0028685099882659335 0.0027474621858069605 -0.00058294082981972194 -0.0083426493685897617 -0.0009810932755273216 -0.0029978397337784885 0.0017247647758003928 -0.00057553974543439002 -0.0029979646787512229 -0.00046979535336606103 -0.0011029994284386315 -0.0035962192911117522 -0.014995207696665101 -0.0066065049518190967 -0.0056457843856669611
leaf_weight=367.61089656734839 1125.513756328728 98.535402848850936 118.37803463591263 157.63007830828428 1358.1374936047941 577.30718542682007 357.44681948330253 179.21745026158169 186.86712755216286 551.28914364613593 191.03005963936448 372.56463133869693 120.6401428305544 69.126672819722444 199.48113426193595 91.46237992728129 58.750686495564878 132.21652343682945 195.12988054053858 89.7280119410716 69.117808313108981 113.97718302812427 82.600912532769144 71.746992347761989
leaf_count=6383 54239 4556 3486 5953 69119 17859 17106 5514 3271 15210 5777 28778 3927 4630 3543 5079 3621 4362 6240 6587 2656 3131 5171 3400
internal_value=-5.50272e-05 0.00338151 -0.00470565 0.00433532 0.00519588 -0.0079423 0.00719359 -0.00261843 -0.00381222 -0.00525506 -0.00152912 0.00284349 -0.00445233 -0.00757513 -0.000290792 -0.00287883 -0.00965379 0.000485531 0.00180552 -0.00487593 -0.00925671 -0.0105556 -0.00448187 -0.0109348
internal_weight=6935.51 3991.49 2944.02 3682.96 3213.66 1132.2 1715.58 1811.81 1305.25 918.9 469.3 1498.08 278.27 308.527 386.348 299.568 832.636 506.564 374.347 208.106 239.4 691.284 141.352 170.282
internal_count=289598 200141 89457 184899 169242 44934 86225 44523 28407 21593 15657 83017 9880 15242 6814 15152 29782 16116 11754 10073 10612 20990 8792 7956
is_linear=0
shrinkage=0.03


Tree=13
num_leaves=23
num_cat=0
split_feature=12 30 12 30 60 9 11 30 97 36 25 84 8 0 108 46 7 57 30 81 108 81
split_gain=114.266 43.1063 21.7212 19.0131 13.247 9.93395 9.70347 9.65051 9.29566 9.19235 8.70966 5.609 7.33291 5.09178 4.87565 4.81559 4.23173 3.95549 3.28106 1.84245 1.7789 1.53326
threshold=0.28571483492851263 0.8491516411304475 0.75090885162353527 -0.29026740789413447 7.8645315170288095 4.1839570999145517 0.44950331747531896 -0.22706275433301923 5.4201269149780282 0.65398553013801586 -0.24551614373922345 2.1383330821990971 1.0423042178153994 -0.370140790939331 7.3045084476470956 0.12153181061148645 -1.0848562717437742 -3.9041614532470699 0.79989895224571239 1.2614812850952151 -1.1362225413322447 1.4032614827156069
decision_type=2 2 2 2 2 2 2 2 2 2 2 2 2 2 2 2 2 2 2 2 2 2
left_child=3 2 7 9 6 16 -4 8 -2 10 17 21 -13 -12 -6 -9 18 -1 -5 -7 -18 -3
right_child=1 11 4 5 14 19 -8 15 -10 -11 13 12 -14 -15 -16 -17 20 -19 -20 -21 -22 -23
leaf_value=0.0039444402679677752 0.0043724283076960555 -0.01272379989434696 0.0061108028113911342 -0.0083995561583547589 0.012241623499863942 -0.0040969564024919448 -0.00012229758344949802 -0.0043126106706754784 -0.002067318979691357 0.0022077355628507488 -0.007075950097693135 -0.0078970684484015747 0.0029915374179231621 -0.0019672997930310736 0.0036627205252895193 0.00072202644555410356 -3.4821673007867694e-05 -0.0020801065774458806 -0.014232012364985787 0.0019029061146403337 -0.0060328782086763117 -0.0049674215178771792
leaf_weight=123.91724756872281 1195.0454455148429 102.22326710307971 929.21530326036736 644.03627441870049 367.21849292796105 57.731391503941268 293.51375676272437 225.02546843281016 229.48139536147937 268.97120669763535 567.23103848658502 91.511872672010213 95.333604905754328 278.84877539146692 96.263077012263238 551.3888309346512 62.481618310324848 288.12675456982106 162.15040823630989 94.114222239237279 136.67568761436269 77.963290969841182
leaf_count=4113 49555 5426 49997 17475 16550 2796 8087 14961 9795 3296 10111 4825 4615 7791 4565 38800 4137 10543 4355 5286 8190 4293
internal_value=-0.000128508 0.00292537 0.00385983 -0.00495429 0.00640492 -0.00783168 0.00463667 0.00186984 0.00332077 -0.00270083 -0.00376834 -0.0066593 -0.00258933 -0.00547657 0.010685 -0.000808802 -0.00889268 -0.000169574 -0.00988878 -0.000589561 -0.00432601 -0.0101993
internal_weight=6938.47 4254.18 3887.15 2684.28 1686.21 1157.19 1222.73 2200.94 1424.53 1527.1 1258.12 367.032 186.845 846.08 463.482 776.414 1005.34 412.044 806.187 151.846 199.157 180.187
internal_count=289562 211469 192310 78093 79199 42239 58084 113111 59350 35854 32558 19159 9440 17902 21115 53761 34157 14656 21830 8082 12327 9719
is_linear=0
shrinkage=0.03


Tree=14
num_leaves=24
num_cat=0
split_feature=12 30 30 12 10 11 20 30 28 11 97 1 84 103 10 10 28 2 75 2 59 28 29
split_gain=114.432 43.654 18.8697 17.2454 11.1809 8.75634 8.75037 7.58737 6.85606 7.1099 6.72398 5.80919 5.38939 5.00048 4.83171 4.4949 4.44806 3.77074 3.57874 3.26855 1.5198 1.42 0.918254
threshold=0.3317550420761109 0.81279832124710094 -0.18436925113201139 0.71372652053833019 -0.28544761240482325 0.45967219769954687 5.8783648014068612 -0.29026740789413447 -0.55998471379280079 0.011968940962105991 4.4863028526306161 -1.140950560569763 3.2384861707687382 10.500000000000002 0.46118970215320593 -0.40757808089256281 0.17063520103693011 -0.63943907618522633 9.4008007049560565 -0.68837839365005482 1.4118330478668215 0.17857869714498523 -0.49049438536167139
decision_type=2 2 2 2 2 2 2 2 2 2 2 2 2 2 2 2 2 2 2 2 2 2 2
left_child=2 3 8 7 19 16 -7 10 -1 13 -2 -11 15 -10 -9 -3 -5 22 -17 -4 -19 -21 -6
right_child=1 12 4 5 17 6 -8 14 9 11 -12 -13 -14 -15 -16 18 -18 20 -20 21 -22 -23 -24
leaf_value=0.0028841663453959172 0.0049586340824096927 0.00042249887544696009 -0.0058786870407606375 0.0078300306703975586 -0.0089435631023543037 -0.00093681125713613125 0.0084175191094188369 0.0011109767946360617 -0.0035147080005502296 -0.0081693663885420709 -0.0005467205737520076 -0.0030158845913325341 0.002291051210632639 0.0012636995436906442 -0.0045073846640756319 -0.011184573490186858 0.0014933016945971682 -0.0072641319408953088 -0.0037639197670788055 0.0022105966129196274 -0.0014731944806064433 -0.0024487049790331301 -0.014239278331288529
leaf_weight=169.93902808055282 805.63812566362321 58.185700800735503 150.86330858850852 1350.6035670721903 295.29635948687792 268.80412059463561 112.79920883011073 480.9572862512432 354.05125786783174 316.31484290398657 258.45727384509519 577.04979597590864 54.521463240962476 400.56459447788075 170.24829223286361 174.02373169874772 119.00301176635548 261.31798540242016 125.6747715761885 95.500448402483016 61.558779668994248 100.18021529261023 168.96116371173412
leaf_count=1780 34439 3994 4650 69101 7873 7694 2762 36887 10719 3960 11056 15374 2843 13256 6499 9255 8041 12734 6648 6571 3524 5970 4104
internal_value=-8.46282e-05 0.00322911 -0.0045434 0.00430155 -0.00755639 0.00629899 0.00210976 0.0020981 -0.00260268 -0.00319628 0.00363603 -0.00497951 -0.00581541 -0.0010111 -0.000448403 -0.00710627 0.00734385 -0.00950799 -0.00850295 -0.00284662 -0.00631038 -0.000180642 -0.0113794
internal_weight=6930.51 3978.92 2951.6 3566.51 1133.68 1851.21 381.603 1715.3 1817.92 1647.98 1064.1 893.365 412.406 754.616 651.206 357.884 1469.61 787.134 299.699 346.544 322.877 195.681 464.258
internal_count=289734 199219 90515 176479 45426 87598 10456 88881 45089 43309 45495 19334 22740 23975 43386 19897 77142 28235 15903 17191 16258 12541 11977
is_linear=0
shrinkage=0.03


Tree=15
num_leaves=21
num_cat=0
split_feature=12 30 12 36 29 25 10 67 30 20 101 0 8 10 23 28 64 7 17 63
split_gain=106.287 40.6896 20.8554 13.4565 12.6544 10.5875 10.3258 10.4527 8.27321 7.74264 7.69743 6.52442 6.31619 5.48165 5.13113 3.86126 2.73071 1.56502 1.1906 0.337739
threshold=0.28571483492851263 0.8491516411304475 0.70209181308746349 0.69021740555763256 -0.86046862602233876 -0.24551614373922345 0.21468956768512729 3.1984648704528813 -0.22706275433301923 6.2054336071014413 1.0000000180025095e-35 -0.25298145413398737 1.2393693923950198 -0.61623182892799366 10.867704391479494 -0.11952726170420645 0.79249086976051342 -1.0636920332908628 1.0527358651161196 0.55174720287323009
decision_type=2 2 2 2 2 2 2 2 2 2 2 2 2 2 2 2 2 2 2 2
left_child=3 2 8 4 -1 14 7 -4 10 -8 -2 -7 19 -10 -6 -14 17 18 -5 -3
right_child=1 12 6 16 5 11 9 -9 13 -11 -12 -13 15 -15 -16 -17 -18 -19 -20 -21
leaf_value=0.0022748232052033543 0.0016286947405121006 -0.012237339504617337 0.0050186735013592314 -0.0065221623626539335 -0.0033208530453432013 -0.0080952591068277763 5.5804023747172207e-05 0.010537043532693573 0.0053025639566714796 0.0078756570573148173 0.0071819266490624313 -0.0022813750555753828 -0.0070879563775129509 -0.0021442007423411475 0.0018738447675300412 0.0012847309441354853 -0.0036822571926813288 -0.0046472080540728468 -0.011993964100436155 -0.006175991036080292
leaf_weight=279.35572717897594 986.50735356891528 92.884647338651121 861.61152704339474 146.58755734190345 589.57270048791543 688.46714688232169 400.79716343898326 541.76945915911347 84.351639362052083 139.38771746866405 278.42646333342418 256.62477609794587 60.643946734722704 603.6960641737096 222.93011126341298 116.01632165769115 123.52971288375556 99.955973197706044 267.56297864206135 98.916590383276343
leaf_count=3605 36523 5051 46842 5013 24289 12922 15742 25306 8010 4803 15807 7402 3210 39128 9610 5598 4649 5489 5158 5438
internal_value=-0.00011026 0.00282579 0.0037332 -0.00477844 -0.00352678 -0.00446412 0.00591917 0.00726714 0.00151982 0.00228276 0.00294379 -0.00659658 -0.00646832 -0.00110727 -0.00188478 -0.00201798 -0.00854805 -0.00953554 -0.0104469 -0.00998972
internal_weight=6939.6 4265.01 3896.55 2674.59 2036.95 1757.59 1943.57 1403.38 1952.98 540.185 1264.93 945.092 368.462 688.048 812.503 176.66 637.636 514.107 414.151 191.801
internal_count=289595 211458 192161 78137 57828 54223 92693 72148 99468 20545 52330 20324 19297 47138 33899 8808 20309 15660 10171 10489
is_linear=0
shrinkage=0.03


Tree=16
num_leaves=27
num_cat=0
split_feature=7 30 30 11 12 6 30 36 13 1 20 30 41 30 46 20 85 74 76 19 74 80 57 74 67 12
split_gain=93.3135 26.9926 24.3723 14.4706 12.7197 11.5112 9.61839 8.80037 8.87275 8.16643 8.04064 11.3073 6.12978 5.75229 5.38368 4.97688 4.8694 4.8548 4.64088 6.20055 4.18132 3.47289 3.3048 3.1026 2.70557 2.47514
threshold=-0.25340880453586573 -0.20576497167348859 -0.29026740789413447 -0.35696661472320551 0.2282788082957268 0.48668722808361059 0.8491516411304475 0.90398553013801586 0.83387959003448497 -1.1787447333335874 1.1049713492393496 -0.79989895224571217 -2.6338479518890376 0.71473535895347606 0.36950886249542242 4.0976083278656015 2.2499048709869389 -3.5176802873611446 -19.999938964843746 0.58377453684806835 8.9648637771606463 2.6491076946258549 -1.0407831668853758 -0.46479849517345423 2.9174053668975835 0.79740813374519359
decision_type=2 2 2 2 2 2 2 2 2 2 2 2 2 2 2 2 2 2 2 2 2 2 2 2 2 2
left_child=1 4 3 15 18 13 9 8 -7 -3 16 -12 21 17 -11 25 -5 -4 -1 -20 -15 -6 -8 -14 -17 -2
right_child=2 6 5 10 12 7 22 -9 -10 14 11 -13 23 20 -16 24 -18 -19 19 -21 -22 -23 -24 -25 -26 -27
leaf_value=0.0003947451761632377 0.0082638790752347716 -0.010957181037790505 0.0032311656008943927 0.0049232327035629827 0.0083431095269887665 0.00047514026002257984 -0.014604657473129733 -0.0066559880151073232 0.0081640260649762965 -0.0055610247126783897 -0.0013164145793379037 0.0053129280199709717 0.0023688827314994995 -0.0065569644166914203 -0.00048647813850778254 0.0011107225274744634 0.011850296379144932 -0.0019290041355594888 -0.0025325552040788759 -0.0075858669350550197 0.0021936900904979181 0.00078911222191453646 -0.0054418928776737126 -0.0019894172330185535 0.0083313605708514576 0.017192380391301811
leaf_weight=259.17204395728186 131.53224297473207 188.31904711155221 246.17814350919798 428.04707765299827 131.03814924275503 238.07984979497269 165.10732921073213 48.888029225636274 300.31916215317324 655.75717428931966 422.64814089983702 475.43489338597283 234.02009358908981 232.04212398547679 266.44636575272307 77.958276072517037 126.28717747610062 407.85982659691945 797.4550501909107 302.06885060667992 50.590217222925276 93.096816770732403 86.956875197123736 329.09308748599142 129.71637608297169 106.87439746502787
leaf_count=5905 8398 3377 17171 16999 4085 17208 5926 2741 18819 30525 19180 12660 7931 14478 13207 4215 4999 25447 18461 4589 3176 3138 3621 11390 6658 4919
internal_value=-0.000146341 -0.00357427 0.00336815 0.00561822 -0.00145276 0.000528605 -0.00684609 0.00375309 0.0049028 -0.00546636 0.00406738 0.00223237 0.00155668 -0.00152932 -0.00413632 0.0102765 0.00685905 5.15138e-05 -0.00319376 -0.00403155 -0.00494917 0.00552716 -0.0120761 -0.000159057 0.00595651 0.0132873
internal_weight=6930.99 3508.53 3422.46 1898.5 2145.94 1523.96 1362.59 587.287 538.399 1110.52 1452.42 898.083 787.248 936.67 922.204 446.081 554.334 654.038 1358.7 1099.52 282.632 224.135 252.064 563.113 207.675 238.407
internal_count=289223 112155 177068 78028 55499 99040 56656 38768 36027 47109 53838 31840 26544 60272 43732 24190 21998 42618 28955 23050 17654 7223 9547 19321 10873 13317
is_linear=0
shrinkage=0.03


Tree=17
num_leaves=27
num_cat=0
split_feature=7 30 30 96 10 10 14 67 20 26 63 29 25 84 75 64 5 105 6 98 63 64 6 81 97 81
split_gain=92.4063 26.8379 24.946 15.6168 14.4101 11.6923 11.1393 9.81264 6.80429 6.03946 5.63139 4.90063 4.83556 4.80341 4.33515 4.2497 3.27912 3.16502 2.93818 2.75479 2.56711 2.07051 1.86822 1.82861 1.20658 0.456846
threshold=-0.25340880453586573 -0.20576497167348859 0.87137606739997875 -1.7342658042907713 0.31295096874237066 -0.27956320345401758 -0.049780823290348046 2.8029010295867924 6.2054336071014413 -0.041726781055331223 1.3131415843963625 -0.52803644537925709 0.81244459748268139 2.1383330821990971 -6.4024550914764395 0.97225096821784984 -0.54341647028923024 4.610145330429078 1.0356983542442324 0.34601055085659033 0.57720205187797557 0.88556173443794262 0.44729228317737585 2.5260273218154912 -4.5626466274261466 1.4032614827156069
decision_type=2 2 2 2 2 2 2 2 2 2 2 2 2 2 2 2 2 2 2 2 2 2 2 2 2 2
left_child=1 6 3 19 7 16 9 -5 -6 15 -11 12 -7 25 20 -1 21 -16 -18 -2 -8 -3 -15 -21 -13 -4
right_child=2 5 13 4 8 11 14 -9 -10 10 -12 24 -14 22 17 -17 18 -19 -20 23 -22 -23 -24 -25 -26 -27
leaf_value=0.0056438388358660196 0.0023281374108098034 0.0044536766348015873 -0.010502382834065807 0.0038282702207796202 -0.00098811992405637154 -0.0042337850030525455 0.0085329804411425868 0.0079208470550960596 0.0065302604626336089 -0.0023201893545755784 -0.007228950397390123 -0.0071468530398140877 -0.010363245004786 -0.003468470848607505 0.0017984929074986004 -0.0026614871258708876 -0.0061284100227168778 -0.0035401579996746282 0.00051776296408726657 -0.0053630023294681441 0.0015515553530940059 -0.001879907764887639 0.0026871336412669449 0.00014116563430072182 -0.01322862248845706 -0.0042349604820346521
leaf_weight=108.13030719244853 82.956674674525857 68.554388970136642 72.043676582165062 1039.1816978114657 455.95355771156028 415.37620164453983 97.276875649578869 1219.5528983650729 120.58758345572278 1033.7835470642895 257.66355458181351 140.12994254333898 179.22340705059469 77.656879071611911 338.60860258853063 81.644670738838613 178.93482229672372 118.69538311008364 81.440754446666688 148.36590313259512 97.802766130771488 80.656426588539034 62.189728558529168 78.714194471482188 216.16072456538677 61.762832284439355
leaf_count=5479 4618 3276 3875 62477 17103 18863 2877 65843 4215 20000 5320 5581 4449 3877 10918 4215 9064 3515 4405 5331 3219 3583 2950 3453 7645 3218
internal_value=6.35816e-05 -0.00335791 0.00355944 0.0043192 0.0050156 -0.00661935 -0.00123612 0.00608809 0.000750618 -0.00266421 -0.00339487 -0.00842155 -0.00635843 -0.00487243 0.00198912 0.00215765 -0.00223812 0.000322544 -0.00416096 -0.0019674 0.00550261 0.0012125 -0.000737365 -0.00359807 -0.0113436 -0.00853631
internal_weight=6913.05 3494.08 3418.97 3145.31 2835.28 1360.48 2133.61 2258.73 576.541 1481.22 1291.45 950.89 594.6 273.653 652.384 189.775 409.586 457.304 260.376 310.037 195.08 149.211 139.847 227.08 356.291 133.807
internal_count=289369 112409 176960 163040 149638 56866 55543 128320 21318 35014 25320 36538 23312 13920 20529 9694 20328 14433 13469 13402 6096 6859 6827 8784 13226 7093
is_linear=0
shrinkage=0.03


Tree=18
num_leaves=26
num_cat=0
split_feature=12 30 30 10 10 67 73 30 14 6 108 19 29 84 84 42 8 74 25 25 46 96 98 76 103
split_gain=74.498 29.2228 17.9077 13.7919 13.4204 10.4001 9.1002 11.5443 8.44559 6.88397 6.85762 6.54981 6.24411 5.35841 4.81354 4.75751 4.38012 4.32876 4.1384 3.77104 3.59785 3.16265 4.02908 1.78412 0.681861
threshold=0.47880192101001745 0.8491516411304475 -0.22706275433301923 -0.27956320345401758 0.46118970215320593 3.6242519617080693 1.0000000180025095e-35 -0.79989895224571217 -0.22727525234222409 -0.49373869597911829 -3.9530911445617671 0.45330634713172918 -0.52803644537925709 2.1383330821990971 2.2499048709869389 1.2934609651565554 1.0423042178153994 -11.392590045928953 0.81244459748268139 -0.24551614373922345 0.31819532811641699 -2.3502701520919795 -0.2694502174854278 15.028406143188478 10.500000000000002
decision_type=2 2 2 2 2 2 2 2 2 2 2 2 2 2 2 2 2 2 2 2 2 2 2 2 2
left_child=2 4 6 21 5 8 7 10 -2 -9 -1 20 18 24 -6 -16 -15 -7 -5 -14 -8 -4 -23 -13 -3
right_child=1 13 3 12 14 17 11 9 -10 -11 -12 23 19 16 15 -17 -18 -19 -20 -21 -22 22 -24 -25 -26
leaf_value=0.0036539824474005837 0.00073540490570656329 -0.011639174103656252 -0.0049362829480120718 -0.0033916036098981923 -0.0047643970969600807 0.002964447341116754 -0.0025171410881750628 -0.00084950237915952379 0.005140516478073608 0.0059413365987430015 -0.0047093481346270416 -0.0075568424932968437 -0.0057247290987451028 -0.0064905094006481373 -0.0024575281811669396 0.0059360617622509718 0.0028177659997815122 0.01083366897564088 -0.0087185072564472561 -0.013216334901120699 0.0017521331499234494 -0.0029579600905691988 0.0031941639707269861 -0.0030154114372101409 -0.0044769380161001028
leaf_weight=101.35371621092781 523.38941357005388 75.985868224408478 116.43076739925891 438.87627034634352 156.52907482301816 99.646459423471242 565.46858646441251 195.39769323915243 1629.8016641568393 380.35132662579417 331.33402182394639 236.49514140328392 151.11844757711515 60.101968601346016 104.25357680674642 102.46910851681605 87.209815292153507 331.0350071429275 203.78352413699031 210.0917889168486 238.45039407489821 155.12035220721737 191.99872441636398 172.05683764955029 58.452537997160107
leaf_count=3331 29743 4207 4534 21320 5362 5138 18245 5264 83318 9415 9631 3972 6919 3316 3907 3126 4083 15895 4936 6977 8370 10201 11319 3490 3216
internal_value=4.84955e-05 0.003365 -0.00285736 -0.00540685 0.00425284 0.00500721 -0.00113962 0.000957289 0.00408636 0.00368551 -0.00267542 -0.00287089 -0.00735246 -0.00558818 -0.00109439 0.00185966 -0.00130182 0.00922532 -0.00529289 -0.0105469 -0.00123904 -0.00106359 0.000433537 -0.00587426 -0.00950815
internal_weight=6917.2 3228.87 3688.33 1467.42 2947.12 2583.87 2220.91 1008.44 2153.19 575.749 432.688 1212.47 1003.87 281.75 363.252 206.723 147.312 430.681 642.66 361.21 803.919 463.55 347.119 408.552 134.438
internal_count=289235 161311 127924 66206 146489 134094 61718 27641 113061 14679 12962 34077 40152 14822 12395 7033 7399 21033 26256 13896 26615 26054 21520 7462 7423
is_linear=0
shrinkage=0.03


Tree=19
num_leaves=27
num_cat=0
split_feature=12 30 10 9 30 30 20 14 9 30 74 21 2 30 98 96 3 7 20 23 96 30 96 106 30 47
split_gain=79.9321 32.393 16.7323 15.6866 14.132 11.0898 8.17522 7.90755 7.5295 7.34084 7.34295 6.75029 5.59933 6.25445 4.86963 4.52988 4.49996 4.29328 4.20519 4.93348 3.87537 3.47582 3.04011 2.0155 1.68636 0.837423
threshold=0.28571483492851263 -0.29026740789413447 -0.14893969148397443 4.2511539459228525 -0.18436925113201139 0.88186877965927135 1.8280525803565981 0.2885242253541947 4.1839570999145517 0.8491516411304475 -3.5176802873611446 -1.5583404302597044 -0.93018764257431019 -0.96298784017562855 -0.35012818872928614 -2.1860934495925899 -0.22993626445531842 -0.76422846317291249 -5.6641449928283683 8.3113527297973651 -1.5295712351799009 0.82531082630157482 2.077315211296082 8.3412618637084979 -0.56457334756851185 0.29646673798561102
decision_type=2 2 2 2 2 2 2 2 2 2 2 2 2 2 2 2 2 2 2 2 2 2 2 2 2 2
left_child=4 2 6 9 12 20 16 15 17 10 -3 -8 18 -14 -15 -4 -2 21 -1 -20 -5 -6 -11 -10 -9 -19
right_child=1 3 7 5 8 -7 11 24 23 22 -12 -13 13 14 -16 -17 -18 25 19 -21 -22 -23 -24 -25 -26 -27
leaf_value=-0.0074725818821665888 0.0043822413346090916 0.001800172852458522 -0.00529075506655828 -0.0020083398440915268 -0.0072125754113864116 -0.0046731625555230579 0.0015646146026452436 0.003717687817557274 -0.0034443562420263894 -0.008675643436616266 -0.0032080747637625098 0.0087819093930363214 -0.0058897045090896038 0.0046659466891947419 -0.0008937134238499937 0.0015314278587631727 0.013373891834387797 0.00070292937277842112 -0.0058780539613846735 -3.0579869746323566e-05 0.0062202348879821434 -0.012993816595798274 -0.00058953652532786995 0.0028528691277107526 0.0070081617684987817 -0.0041079575523525688
leaf_weight=233.91413058200851 91.473816362675279 426.15196324372664 79.908111124765128 48.51269253809005 604.43243042379618 106.54447586275637 248.63810913125053 509.41389102023095 75.529600889421999 176.98979829531163 630.16372449696064 218.99261679500341 152.77592343557626 166.06318377982825 577.99960816046223 705.48075447790325 278.30099909286946 57.001917612273246 209.03752730600536 300.354638423305 443.10887433495373 156.84950416721404 57.023287246469408 68.144473906606436 264.48977907095104 43.274389731232077
leaf_count=3419 3504 28294 1718 3202 19722 5025 12722 20098 3775 9868 38271 9312 5759 5770 16132 28224 13711 3982 2927 4896 30039 4727 2601 3863 5014 3076
internal_value=-5.27091e-05 0.00247517 0.00477571 -0.000463904 -0.00413542 0.00348076 0.00816076 0.00287748 -0.00691072 -0.00231777 -0.00119168 0.00516605 -0.0023717 -0.000745909 0.000436771 0.000723169 0.0114886 -0.00794901 -0.00426236 -0.0025616 0.00536148 -0.00870584 -0.00690681 -0.00047395 0.00499046 -0.00171107
internal_weight=6930.57 4285.19 2396.7 1888.49 2645.38 598.166 837.406 1559.29 1005.23 1290.33 1056.32 467.631 1640.15 896.839 744.063 785.389 369.775 861.558 743.306 509.392 491.622 761.282 234.013 143.674 773.904 100.276
internal_count=289651 211603 94303 117300 78048 38266 39249 55054 39145 79034 66565 22034 38903 27661 21902 29942 17215 31507 11242 7823 33241 24449 12469 7638 25112 7058
is_linear=0
shrinkage=0.03


Tree=20
num_leaves=26
num_cat=0
split_feature=1 30 30 30 9 10 9 29 11 96 103 20 13 30 84 22 63 21 3 4 107 60 84 21 25
split_gain=73.8253 30.4407 15.5252 14.5125 14.3626 12.5919 10.45 8.81602 9.6854 6.7083 5.76461 4.83027 5.23143 4.74236 5.99821 4.73086 4.45337 4.3987 4.26823 5.23955 3.76116 2.30947 3.54556 2.02702 0.692438
threshold=-0.1671214550733566 -0.22706275433301923 -0.29026740789413447 0.89194178581237804 5.0835957527160653 -0.16172376275062558 4.1839570999145517 -0.86046862602233876 -0.053009876981377595 -3.3841725587844844 1.5000000000000002 0.44984638690948492 0.53777483105659496 0.82531082630157482 0.89587974548339855 8.9272656440734881 1.564137399196625 -1.460425794124603 -0.5185054838657378 0.97248643636703502 -2.0057407617568965 -2.6745871305465694 2.1383330821990971 -2.0451908111572261 0.33579233288764959
decision_type=2 2 2 2 2 2 2 2 2 2 2 2 2 2 2 2 2 2 2 2 2 2 2 2 2
left_child=2 5 7 4 15 18 13 -1 10 -10 -9 16 -13 14 -4 -3 -7 -6 -2 -20 -8 -5 -23 -22 -15
right_child=1 3 6 21 17 11 20 8 9 -11 -12 12 -14 24 -16 -17 -18 -19 19 -21 23 22 -24 -25 -26
leaf_value=0.0026596216711130345 0.001497623867387225 -0.0016049548518526863 0.00060117401157277464 -0.011020903710838454 0.0010925791405310631 0.0064872426268079682 0.0055204964067334973 -0.0052046434088203249 -0.008957119070477389 -0.0028317214712149513 0.0014628732081715249 -0.002878583066024492 0.0030906223921283783 -0.0070760838916961296 -0.006556193888076131 0.0056389560817970566 -0.00086492807916247697 0.0082697573938798116 0.010438796648678228 0.0019588157154568834 -0.0046896571120500401 -0.0078547827406580707 0.00034619110409095833 0.0013607830098781729 -0.013823514526881788
leaf_weight=361.65670169284567 78.28598899114877 865.43740407889709 117.03803909569979 69.351428044494241 120.59935316164047 536.27275354322046 61.723287365399301 125.11252692248672 215.63580166175961 615.56194624863565 576.42087332392111 147.42028443841264 657.09113160194829 120.00341050000861 810.32998981932178 69.741371154319495 80.499377532396466 230.94270653091371 533.30601161811501 86.318373683840036 95.876450906507671 81.548428292386234 86.020613893400878 74.881506664212793 91.446534652728587
leaf_count=4988 2883 56073 4975 3330 9504 20150 3650 3706 3229 18469 20384 5674 20923 5382 31179 5360 3365 14734 27706 2825 4937 4057 3895 5050 2555
internal_value=2.85775e-05 0.00295724 -0.00323643 -0.000279766 0.00100543 0.00526542 -0.0056464 -0.00145115 -0.00244287 -0.00459394 0.000162472 0.00356103 0.00195352 -0.00681097 -0.00565928 -0.000957977 0.00553063 0.00599892 0.00854048 0.00935566 0.000145933 -0.0067946 -0.00405684 -0.0021719 -0.0109365
internal_weight=6908.52 3642.84 3265.69 1523.64 1286.72 2119.19 1371.3 1894.39 1532.73 831.198 701.533 1421.28 804.511 1138.82 927.368 935.179 616.772 351.542 697.91 619.624 232.481 236.92 167.569 170.758 211.45
internal_count=288983 180479 108504 96953 85671 83526 57728 50776 45788 21698 24090 50112 26597 44091 36154 61433 23515 24238 33414 30531 13637 11282 7952 9987 7937
is_linear=0
shrinkage=0.03


Tree=21
num_leaves=25
num_cat=0
split_feature=12 30 1 30 30 6 10 96 10 22 77 3 28 20 80 57 1 84 2 105 29 98 81 68
split_gain=74.8317 29.563 17.2268 14.4956 9.95011 10.0404 7.72956 7.33086 6.5827 5.51987 6.39811 8.44242 5.39175 4.85889 4.44818 4.61686 3.89568 3.40393 2.29548 2.14362 2.10554 1.50808 1.38631 0.709242
threshold=0.34051294624805456 0.88186877965927135 0.11510686576366426 -0.18436925113201139 -0.2693240344524383 0.61515706777572643 -0.25715363025665278 -2.5452326536178584 -0.14893969148397443 1.1685680747032168 -4.6688880920410147 -0.93378567695617665 -0.030528423376381394 -1.5700635910034177 2.4683498144149785 -4.5187847614288321 -0.70407667756080616 2.2499048709869389 -0.68837839365005482 2.5249279737472539 -0.60003554821014393 -0.17048539966344831 1.4735108613967898 0.89587974548339855
decision_type=2 2 2 2 2 2 2 2 2 2 2 2 2 2 2 2 2 2 2 2 2 2 2 2
left_child=3 2 7 9 8 -6 18 -2 -4 14 11 -11 -9 -12 15 -1 23 22 -5 -19 -18 -20 -3 -8
right_child=1 17 4 6 5 -7 16 12 -10 10 13 -13 -14 -15 -16 -17 20 19 21 -21 -22 -23 -24 -25
leaf_value=0.001192026231958129 -0.0075434558020940467 -0.011925277752753699 0.0092396967225416432 -0.0049784246720067094 0.00019129496792293939 0.0070317933076314921 -0.0066000593148586801 -0.0017327318956958551 0.0048253235167987872 0.0082828025209632349 0.0017149546579518745 -0.00043678117229259037 0.0025163076605386322 -0.0038185855560566649 -0.0068419970101129832 -0.0051518450568319484 -0.0032400460402165683 -0.005569978588747606 -0.0025754205409735578 0.0012745311514070154 -0.0080674490657388388 0.0021057466716776514 -0.004006418965008079 -0.011883547854758416
leaf_weight=208.2309345100075 71.676076208241284 81.066698972601444 509.86949135409668 157.33242768701166 615.78083676099777 262.13023922406137 137.57548234518617 368.01176194055006 977.48761252500117 118.8345892126672 179.43954975064844 350.17875777790323 872.90809504175559 532.2170976549387 276.06927507231012 173.75539345433936 242.41009066905826 67.465935640968382 106.35024106269702 66.352482426445931 156.27582480106503 101.79257283266634 61.485055742785335 220.47313324129209
leaf_count=3684 1651 4153 22230 4948 38432 16936 2955 19548 32048 2200 5049 11368 52245 15481 5399 3000 11988 3149 7108 3095 7263 6301 3114 5924
internal_value=1.97011e-05 0.00271465 0.00343374 -0.00357338 0.00495313 0.00234489 -0.00623509 0.000662584 0.0064411 -0.00189929 -0.00064831 0.00202091 0.0012487 -0.0024146 -0.00405844 -0.00180638 -0.00794351 -0.00644072 -0.0024691 -0.00245175 -0.00542726 -0.000302182 -0.00942292 -0.01031
internal_weight=6915.17 3954.23 3677.86 2960.94 2365.27 877.911 1122.21 1312.6 1487.36 1838.73 1180.67 469.013 1240.92 711.657 658.056 381.986 756.735 276.37 365.475 133.818 398.686 208.143 142.552 358.049
internal_count=289269 196601 183090 92668 109646 55368 46487 73444 54278 46181 34098 13568 71793 20530 12083 6684 28130 13511 18357 6244 19251 13409 7267 8879
is_linear=0
shrinkage=0.03


Tree=22
num_leaves=27
num_cat=0
split_feature=7 30 30 96 10 12 11 30 9 101 21 74 20 63 30 22 75 28 28 30 84 35 6 9 84 60
split_gain=70.6873 21.1203 17.0886 13.7269 12.2149 11.02 9.59375 7.95123 8.09523 7.71122 5.73611 5.68005 5.48281 5.42393 4.54748 4.51557 4.36218 5.66206 5.42343 4.27888 4.85035 4.21394 3.83272 4.84014 3.60926 1.14608
threshold=-0.25340880453586573 -0.20576497167348859 -0.29026740789413447 -2.1496490240097041 -0.33855643868446345 0.18823693692684176 -0.49000827968120569 0.87137606739997875 5.0033779144287118 1.0000000180025095e-35 -1.4346554875373838 -4.0528991222381583 -0.3359569907188415 1.2962961792945864 -0.49049438536167139 1.1385741829872134 -1.0000000180025095e-35 0.068679690361022963 0.097208354622125639 0.8491516411304475 0.89587974548339855 1.0000000180025095e-35 1.0566499233245852 -3.0376907587051387 2.1383330821990971 -2.9036607742309566
decision_type=2 2 2 2 2 2 2 2 2 2 2 2 2 2 2 2 2 2 2 2 2 2 2 2 2 2
left_child=1 5 3 -2 22 13 21 8 11 -8 -10 -4 -9 14 -1 -15 17 -7 -18 20 -6 -5 23 -3 -14 -21
right_child=2 4 7 6 19 16 9 12 10 -11 -12 -13 24 15 -16 -17 18 -19 -20 25 -22 -23 -24 -25 -26 -27
leaf_value=-0.0033074926572512747 -0.0047101275975868287 0.0011578216258940745 0.0030565457045515034 0.01166117827969086 -0.00012248993531165583 0.0071305293939992785 0.0033169501381210796 0.0027933201901530814 0.00015884855629071063 0.0091911585668808509 0.0074624654449817352 -0.0019417191490669027 -0.009938643000351648 -0.010352135541238748 0.0012293493363237972 -0.0023009070674103677 -0.0023665940968501625 2.8120935430644133e-05 0.0036953404414072338 -0.01394463309867865 -0.0072309915780757478 0.0021519911350775371 0.0035502628423668015 -0.0066250622337047762 -0.0018289411113782135 -0.006274116726141565
leaf_weight=632.26897976594046 112.223552797921 127.58605834422633 303.91885002190247 263.42891834303737 99.321766029112041 181.30095696169883 1248.0347354752012 69.736992175225168 148.57965771248564 234.52996468218043 262.42207101499662 535.67197556095198 96.093737977556884 131.90784839075059 273.5094087542966 131.77840668521821 404.3553354209289 203.10228562634438 173.61167231528088 123.34347237087786 681.21400968777016 61.397773378994316 95.194273930042982 131.04327673977241 105.34723199997097 83.504757850896567
leaf_count=13813 3474 6228 21800 14818 4285 4911 43548 3676 11892 12682 16541 34705 5141 2248 4098 3776 12879 7467 6239 4365 26764 3414 5108 6664 5182 3249
internal_value=-5.82184e-05 -0.00306887 0.0029803 0.00484783 -0.0059904 -0.00119224 0.00548635 0.000592212 0.00160985 0.00435617 0.00495205 -0.000103405 -0.00388904 -0.00312607 -0.00194058 -0.00677438 0.00117353 0.0035649 -0.000482996 -0.00767668 -0.00635211 0.0100928 -0.00112573 -0.00297812 -0.00624576 -0.0116742
internal_weight=6914.43 3473.04 3441.39 1919.61 1341.21 2131.83 1807.39 1521.77 1250.59 1482.56 411.002 839.591 271.178 1169.46 905.778 263.686 962.37 384.403 577.967 987.384 780.536 324.827 353.824 258.629 201.441 206.848
internal_count=288967 112094 176873 77936 56663 55431 74462 98937 84938 56230 28433 56505 13999 23935 17911 6024 31496 12378 19118 38663 31049 18232 18000 12892 10323 7614
is_linear=0
shrinkage=0.03


Tree=23
num_leaves=29
num_cat=0
split_feature=7 30 96 30 10 67 10 12 84 80 5 5 105 24 3 42 108 30 63 64 74 30 28 7 40 58 81 74
split_gain=68.6139 24.4007 16.0188 14.4707 12.3754 8.63381 7.74582 7.59253 6.26211 5.65189 5.42468 5.40159 5.33603 5.26573 4.79972 4.43906 4.26364 3.78689 3.69449 3.11755 2.5493 2.48868 2.45312 2.28536 1.47294 0.944896 0.847132 0.825625
threshold=-0.63422542810440052 0.74455857276916515 -2.0796885490417476 -0.22706275433301923 0.46118970215320593 3.3497501611709599 -0.33855643868446345 0.19220720231533053 2.1383330821990971 2.759181141853333 0.30090726912021643 -0.44189569354057306 2.6735538244247441 -0.96359282732009877 0.10647624731063844 1.1704288125038149 -3.1596461534500118 -0.56457334756851185 0.74557557702064525 0.69630476832389843 -16.940593719482418 0.86046862602233898 -0.41478642821311945 -1.2943141460418699 -0.1467202231287956 -0.4789822101593017 1.3379126787185671 2.8646883964538579
decision_type=2 2 2 2 2 2 2 2 2 2 2 2 2 2 2 2 2 2 2 2 2 2 2 2 2 2 2 2
left_child=3 2 14 7 5 -4 11 16 21 13 25 -5 -12 -9 24 -6 18 -18 -1 -11 -8 27 -22 -13 -2 -10 -23 -3
right_child=1 8 4 6 15 -7 20 9 10 19 12 23 -14 -15 -16 -17 17 -19 -20 -21 22 26 -24 -25 -26 -27 -28 -29
leaf_value=0.0030679761362999822 0.0029887528615327942 -0.0045402127704167322 0.003445184221760992 0.0026469230557413554 -0.0040073144145225826 0.0071116623879372131 -0.0029689029774280858 0.0049842285637018849 -0.0067829865215768359 0.00037984725131669369 -0.0015274597290359394 -0.008251081685998406 0.0089645056460049676 -0.0022531158489811549 -0.006768390890878738 0.0022214905515702123 -0.0058414825540390788 -0.0014994721825632349 -0.0034067712683242954 -0.0058095725794944392 -0.0055523703202256247 -0.010904554762305139 -0.009911550548595589 -0.00098898680391839374 -0.0022906639665736033 -0.0014562561487644835 -0.0044395953786990697 0.00038560435904180996
leaf_weight=140.19383494229987 81.814580264035612 42.27059193700552 1920.1081092865206 125.28643404738978 199.05952496966347 869.1018419303 122.15956093370914 278.52628416009247 55.635704752057791 147.43469274463132 82.193540195003152 78.834640149958432 62.54202555725351 116.00593568524346 143.42906364891678 176.50067810993642 558.56627269694582 288.34174431208521 137.13199402857572 121.18441799562424 298.58612605789676 88.083825425244868 434.81247965665534 74.619687702972442 69.998148253187537 73.284825086127967 76.464630338829011 54.62899165134877
leaf_count=2945 3679 3286 107648 5190 7769 42088 4592 7578 3448 4313 4668 2341 3460 2939 4445 5495 11443 4568 3144 3766 10302 4946 14773 4502 3148 4480 4263 4174
internal_value=-0.000151731 0.0023989 0.00332117 -0.00363206 0.00394556 0.00463014 -0.0062578 -0.00191493 -0.00346934 0.000621919 -0.000221452 -0.00175573 0.00354418 0.00285017 -0.00319757 -0.00111567 -0.00339605 -0.00443188 -0.000147454 -0.00262152 -0.00765096 -0.00661157 -0.00833132 -0.00524098 0.000571221 -0.00435724 -0.00870704 -0.00217233
internal_weight=6916.8 3995.12 3460.01 2921.68 3164.77 2789.21 1134.3 1787.39 535.104 663.151 273.656 278.741 144.736 394.532 295.242 375.56 1124.23 846.908 277.326 268.619 855.558 261.448 733.399 153.454 151.813 128.921 164.548 96.8996
internal_count=289393 206997 174272 82396 163000 149736 41700 40696 32725 18596 16056 12033 8128 10517 11272 13264 22100 16011 6089 8079 29667 16669 25075 6843 6827 7928 9209 7460
is_linear=0
shrinkage=0.03


Tree=24
num_leaves=22
num_cat=0
split_feature=12 30 0 30 11 20 1 96 26 84 96 25 29 67 26 9 80 81 63 15 84
split_gain=65.6056 26.134 13.9889 11.4215 9.95853 7.96812 7.08228 6.54724 6.45739 5.80827 5.57436 5.39929 5.72442 5.04757 4.43483 3.57104 3.33956 2.38664 2.02593 0.793692 0.26402
threshold=0.28571483492851263 0.82531082630157482 -0.02405145205557346 -0.18436925113201139 0.43844683468341833 3.650553941726685 0.61913564801216137 -1.9393669962882993 0.028932238928973678 3.1567740440368657 -3.2097933292388912 0.89907285571098339 0.31107263267040258 2.6735538244247441 0.1779495179653168 7.2797160148620614 3.101933598518372 2.5885243415832524 0.29565893113613134 0.34048856794834143 2.2499048709869389
decision_type=2 2 2 2 2 2 2 2 2 2 2 2 2 2 2 2 2 2 2 2 2
left_child=3 2 7 10 6 -6 -4 -2 15 16 13 12 -12 -1 -9 18 17 -3 -5 20 -10
right_child=1 9 4 8 5 -7 -8 14 19 -11 11 -13 -14 -15 -16 -17 -18 -19 -20 -21 -22
leaf_value=-0.0012984607821855578 -0.0044380701813772775 -0.0094570985860628898 0.0037000365958024467 -0.0082232112145656233 -0.0018573657549501887 0.0054631639737187602 0.0075374807027254621 0.0026631827779920207 -0.0068682559189206117 0.0026178199487452919 -0.0036751017621602868 0.0044795665830122599 0.0010033006245200001 -0.0070298838343678402 -0.0010592718260693894 0.0021207943551910468 -0.00094212430031378948 -0.0018211637430255011 -0.0033101005818622904 -0.0050554149317468778 -0.011415186778275539
leaf_weight=253.09592871135101 188.33617611136287 201.40787198673934 1186.4140912131406 105.96571730682626 371.68527255440131 183.63356620213017 749.61006622994319 770.02189035294577 166.31183769134805 65.987290934659541 549.14554493874311 124.45763499941677 389.45992512395605 316.93298285733908 439.44910876406357 67.38344328571111 84.022082907613367 57.477803625166416 344.23822458973154 115.33433428779244 193.55110206454992
leaf_count=3848 5849 10942 72149 4959 11117 4425 29201 53494 4432 3412 16950 1419 11616 4988 12870 4173 4814 3324 16566 3997 5012
internal_value=-0.000141158 0.00213858 0.00290149 -0.0038606 0.00424063 0.000669161 0.00524774 0.000488558 -0.0063762 -0.00491467 -0.00227268 -0.000954468 -0.00175344 -0.00461537 0.00131544 -0.00382484 -0.00642857 -0.00801395 -0.0047671 -0.00888845 -0.00978606
internal_weight=6923.92 4298.05 3889.15 2625.88 2491.34 555.319 1936.02 1397.81 992.785 408.895 1633.09 1063.06 938.605 570.029 1209.47 517.587 342.908 258.886 450.204 475.197 359.863
internal_count=289557 211597 189105 77960 116892 15542 101350 72213 39139 22492 38821 29985 28566 8836 66364 25698 19080 14266 21525 13441 9444
is_linear=0
shrinkage=0.03


Tree=25
num_leaves=25
num_cat=0
split_feature=7 36 0 80 23 85 12 36 96 23 36 10 64 64 105 84 7 20 68 60 9 13 76 75
split_gain=61.2201 15.997 13.2608 9.95756 9.01103 7.23758 6.66049 6.39605 6.61012 5.4444 5.14901 5.12699 4.59507 4.29361 4.08535 3.86779 3.74321 3.64836 3.3302 3.2738 3.58404 3.29089 3.16136 1.53543
threshold=-0.25340880453586573 0.70108696818351757 -0.02405145205557346 3.242902517318726 7.8030145168304452 2.0126758217811589 0.24041476845741275 0.88949277997016918 -2.225724339485168 6.2093303203582773 0.64673915505409252 -0.26830904185771937 0.36832460761070257 0.77505025267601024 4.5379471778869638 2.6020033359527592 -1.3948771953582761 -0.42864051461219782 0.89587974548339855 10.321410655975344 6.929837942123414 0.76991915702819835 -19.999938964843746 2.2881836891174321
decision_type=2 2 2 2 2 2 2 2 2 2 2 2 2 2 2 2 2 2 2 2 2 2 2 2
left_child=1 4 7 5 10 9 22 8 -2 -4 11 -1 -7 15 -8 16 -3 -10 -15 20 -5 -21 -6 -17
right_child=2 13 3 19 6 12 14 -9 17 -11 -12 -13 -14 18 -16 23 -18 -19 -20 21 -22 -23 -24 -25
leaf_value=-0.0023112955071008046 -0.0059763779134022563 -0.0081789971240813098 -0.0028669593303496314 0.0061154671721065515 0.0011337568568665934 0.0016178468083779939 0.0032506121247638949 -0.0082032597533786313 0.0042146175824780072 0.0023486041283657575 0.00061121572413193413 -0.0072578524778704242 0.0084799615486965633 0.0024258581441775136 -0.0023612883620325563 -0.013219932186397261 -0.0017546018145041713 0.00034447242165116393 -0.0055999089135768936 0.0035561802416297886 -0.001377626361070341 0.012478768434396928 -0.0026751341783175478 -0.0056529840436097007
leaf_weight=366.45981878833845 99.984769016038626 182.58631695294753 204.41136841382831 429.51696492824703 236.08438501693308 149.31565032945946 470.00355809088796 56.963294894900173 287.96325817937031 929.11341500654817 165.89906949689612 437.26806076616049 241.086730170995 70.478939277585596 137.3118765107356 144.36583135277033 159.71663841139525 775.1130163599737 80.690217914991081 74.345856020227075 58.347097018267959 150.08593285316601 913.22427459899336 84.732483667787164
leaf_count=16588 3280 4644 10644 22485 6302 6486 18652 3744 16611 44621 2282 13301 11731 2615 5022 4937 8483 43004 3963 4585 3005 6765 21807 3225
internal_value=-0.000111001 -0.00293033 0.00270295 0.00406551 -0.00185096 0.0026385 -0.000554315 0.000180172 0.000722505 0.00137467 -0.00414134 -0.00511335 0.00606218 -0.00684327 0.00194695 -0.0080102 -0.00544374 0.00145128 -0.00201185 0.0069631 0.00520035 0.0100559 -0.00188672 -0.0110999
internal_weight=6905.07 3448.82 3456.25 2236.22 2726.25 1523.93 1756.62 1220.02 1163.06 1133.52 969.627 803.728 390.402 722.57 607.315 571.401 342.303 1063.08 151.169 712.296 487.864 224.432 1149.31 229.098
internal_count=288782 111821 176961 110322 83954 73482 51783 66639 62895 55265 32171 29889 18217 27867 23674 21289 13127 59615 6578 36840 25490 11350 28109 8162
is_linear=0
shrinkage=0.03


Tree=26
num_leaves=24
num_cat=0
split_feature=12 30 1 30 10 96 24 30 97 10 31 28 60 59 28 20 84 63 68 98 19 41 98
split_gain=51.9353 25.8195 13.5505 12.5733 8.03022 7.24121 6.11742 8.7717 6.00858 5.94893 5.94683 5.84201 5.71057 4.90668 5.5768 3.15946 2.949 2.81397 2.67496 2.03735 2.07198 1.8465 1.31195
threshold=0.28158183395862585 0.87137606739997875 0.26499024033546453 -0.18436925113201139 0.34415076673030859 -1.972028851509094 -6.2725393772125235 -0.95688340067863453 4.4863028526306161 -0.26830904185771937 1.0000000180025095e-35 -0.11952726170420645 10.548973560333254 -2.8864954710006709 -0.11952726170420645 5.6730878353118905 2.1383330821990971 0.15976413339376452 0.89587974548339855 -0.2850764393806457 0.42321550846099859 -2.4248783588409419 -0.73643019795417775
decision_type=2 2 2 2 2 2 2 2 2 2 2 2 2 2 2 2 2 2 2 2 2 2 2
left_child=3 2 5 6 12 8 -1 21 -2 19 -9 -7 -4 -3 -15 -6 -16 -11 -19 22 -21 -8 -5
right_child=1 13 4 9 15 11 7 10 -10 17 -12 -13 -14 14 16 -17 -18 18 -20 20 -22 -23 -24
leaf_value=-0.00730222332540101 0.0012826866865997804 -0.011099135704627451 0.0040903061944211573 -0.0013544773407915681 -0.00093521345473084679 -0.0015219529083245608 -0.0023140234752289188 -0.0010742856766048322 -0.006771108242707667 -0.011449773723033676 0.004196808748697981 0.0025892394751803305 0.0083728830289224159 -0.0087932985118673295 -0.0034862713712697033 0.0048363295386496799 0.0041229794568222559 -0.0028550164728545352 -0.0077848059362677045 0.0027096387529369345 -0.0032455391184779848 -0.0082592659453268203 -0.0073613059513542786
leaf_weight=143.0167095605284 138.0939702661708 98.947070858906955 1277.2321678926237 69.312441156245768 326.85815891670063 401.0559409763664 96.172443008981645 1017.2082033315673 171.34913741936907 154.10768704256043 216.57642038119957 1213.9073735834099 385.70056218048558 73.028225722257048 67.743074594065547 93.492467079777271 76.402844047639519 187.09614337049425 322.54883855162188 89.880098855122924 80.882461344823241 139.49627343984321 68.846679739654064
leaf_count=2469 4074 5201 59281 3465 10964 23004 2356 22909 5595 5035 5427 73769 17133 4092 3390 2617 3455 6036 12640 5383 2726 5036 3204
internal_value=-8.8332e-05 0.00192043 0.00257931 -0.00343706 0.00424454 0.000751486 -0.00177518 -0.00114642 -0.0033173 -0.00610081 -9.68204e-05 0.00156215 0.00517131 -0.00608906 -0.00306296 0.000509822 0.000557862 -0.00768031 -0.00615118 -0.00244642 -0.0001556 -0.00620392 -0.00490012
internal_weight=6908.96 4323.81 4007.69 2585.14 2083.28 1924.41 1612.47 1469.45 309.443 972.674 1233.78 1614.96 1662.93 316.121 217.174 420.351 144.146 663.753 509.645 308.922 170.763 235.669 138.159
internal_count=289261 212575 196437 76686 89995 106442 38197 35728 9669 38489 28336 96773 76414 16138 10937 13581 6845 23711 18676 14778 8109 7392 6669
is_linear=0
shrinkage=0.03


Tree=27
num_leaves=22
num_cat=0
split_feature=7 30 30 1 11 73 25 96 56 80 30 64 9 20 30 41 77 29 58 20 84
split_gain=54.8048 22.1827 13.262 12.258 9.43816 9.20505 8.20539 7.38795 6.80278 8.08888 5.10781 4.74497 4.29567 4.29304 4.12422 4.04624 3.20952 3.04541 1.72068 1.62102 0.705859
threshold=-0.69858828186988819 0.88186877965927135 0.79989895224571239 0.239655576646328 0.45967219769954687 1.0000000180025095e-35 0.40343107283115393 -2.225724339485168 1.0000000180025095e-35 2.4683498144149785 0.16288578510284427 0.70401817560195934 -2.4897969961166377 4.9125857353210458 0.032717135734856136 0.69655767083168041 12.422173500061037 0.37256073951721197 -1.3283943533897398 -0.3359569907188415 2.1383330821990971
decision_type=2 2 2 2 2 2 2 2 2 2 2 2 2 2 2 2 2 2 2 2 2
left_child=2 3 5 7 14 8 11 15 9 -1 -9 -7 -10 -6 -5 -2 -8 19 -4 -3 -21
right_child=1 17 18 4 13 6 16 10 12 -11 -12 -13 -14 -15 -16 -17 -18 -19 -20 20 -22
leaf_value=0.0027927213607219035 -0.00034494724495915953 -0.0023630114157868289 -0.0121438832955909 0.0062928853461913063 -0.0016270138075207485 -0.00032246737483384972 -0.0089484206930548951 0.0026799487740597821 -0.00015713457561153301 -0.0035011102314913911 -0.0011559855542138458 -0.0047096178264946905 -0.0065505825399657302 0.0043551320843119795 0.0027839271971380956 -0.0076878850598681965 -0.0033358195097481888 0.00013184306174222915 -0.0048325583251495894 -0.011016812706252131 -0.0047508922460537031
leaf_weight=556.07854097662494 149.87288710754365 70.070144477300346 144.32304245093837 1119.6360555998981 307.9659152040258 451.34676200523973 348.08490435406566 1095.2800342976116 159.23321386240423 250.55878722434863 420.763460455928 422.50987212266773 216.61954228486866 141.10742628853768 477.62149151973426 105.97508069733158 167.99458620836958 65.139337669592351 84.630377591121942 78.866852923762053 83.789763881359249
leaf_count=15748 5825 3324 5093 46405 8481 13677 7308 60705 3677 7081 36429 13140 5704 2966 32499 3556 3008 4365 3107 3735 3643
internal_value=-0.000170279 0.0020293 -0.00339362 0.00265156 0.00422245 -0.00272854 -0.00436682 0.000810483 -0.000762242 0.000800316 0.00161413 -0.00250157 -0.00398673 0.000358236 0.00529102 -0.00372335 -0.00731402 -0.00561212 -0.0100467 -0.00710304 -0.00866266
internal_weight=6917.47 4116.09 2801.38 3818.22 2046.33 2572.43 1389.94 1771.89 1182.49 806.637 1516.04 873.857 375.853 449.073 1597.26 255.848 516.079 297.866 228.953 232.727 162.657
internal_count=289476 211933 77543 196866 90351 69343 37133 106515 32210 22829 97134 26817 9381 11447 78904 9381 10316 15067 8200 10702 7378
is_linear=0
shrinkage=0.03


Tree=28
num_leaves=20
num_cat=0
split_feature=12 30 0 28 30 59 25 10 23 96 29 63 2 10 96 84 5 81 21
split_gain=57.2492 23.5511 12.4572 8.91857 8.57417 8.48352 8.07807 7.41668 5.56045 5.32398 5.26741 6.11787 5.11715 4.35654 3.75685 3.13057 3.29907 2.54402 1.02727
threshold=0.28158183395862585 0.87137606739997875 -0.02405145205557346 -0.56719541549682606 -0.2693240344524383 4.9378950595855722 0.30273406207561498 -0.22503262758255002 8.6150689125061053 -1.972028851509094 -0.8253108263015746 0.21196798235177997 -1.2821513414382932 0.41493719816207891 -2.8967128992080684 2.2499048709869389 0.17801827192306521 1.4032614827156069 -8.1769118309020978
decision_type=2 2 2 2 2 2 2 2 2 2 2 2 2 2 2 2 2 2 2
left_child=3 2 9 -1 7 -6 8 -4 12 -2 11 -8 -5 -11 -10 17 -17 -3 -12
right_child=1 15 4 6 5 -7 10 -9 14 13 18 -13 -14 -15 -16 16 -18 -19 -20
leaf_value=0.0040522406527861189 -0.0040892561820872111 -0.011292201968905928 0.0085633533152132749 -0.010346052049101133 -0.00022083999064615646 0.0058174599885188576 -0.0080083731185878713 0.0038891502285783915 -0.0037153890282373993 0.0018802516421860152 -0.01084202378039315 -0.0013460633626020682 -0.0032516472163823017 -0.0028775422508128339 0.00044101655582402609 -0.0061536654005766387 0.0018499662001724452 -0.0029367511364640532 -0.0062334636660642097
leaf_weight=115.69916677707806 183.0147170308046 90.945435267407447 435.89761899923906 99.847727082204074 681.79930751817301 281.35689635388553 185.91864620754495 1179.5455031404272 271.48437612596899 1076.2109478786588 182.90195008506998 337.95819358341396 569.59050929965451 187.31434466224164 584.89586762338877 68.948125303722918 82.277932296041399 72.965382490307093 227.77073624031618
leaf_count=1150 5607 4879 19437 1782 43266 18262 4525 40552 6330 62763 4083 8560 22157 6792 22863 3537 3794 3884 5102
internal_value=-5.49067e-05 0.00204524 0.00267031 -0.00358183 0.00391264 0.00162553 -0.0039706 0.0052397 -0.00257035 0.000432595 -0.00615499 -0.003918 -0.00457922 0.00114107 -0.000931341 -0.00562153 -0.00209166 -0.0082966 -0.00869416
internal_weight=6916.34 4340.28 4025.14 2576.07 2578.6 963.156 2460.37 1615.44 1525.82 1446.54 934.55 523.877 669.438 1263.53 856.38 315.137 151.226 163.911 410.673
internal_count=289325 212773 196679 76552 121517 61528 75402 59989 53132 75162 22270 13085 23939 69555 29193 16094 7331 8763 9185
is_linear=0
shrinkage=0.03


Tree=29
num_leaves=22
num_cat=0
split_feature=7 30 30 0 63 2 74 99 58 11 84 28 6 21 8 77 58 96 75 108 13
split_gain=51.0654 18.4594 12.6953 12.3831 10.648 9.02633 6.75464 6.12232 5.96585 5.80182 5.20804 5.73447 4.8507 4.81899 4.65574 4.65561 3.02052 2.65775 2.60103 2.29883 1.38803
threshold=-0.55567988753318776 0.75894212722778331 0.82531082630157482 -0.45756307244300837 0.87593293190002453 -0.93018764257431019 -4.9182951450347892 -1.0000000180025095e-35 -5.701589584350585 0.43844683468341833 2.1383330821990971 -0.18426230549812314 -0.49373869597911829 -3.9037702083587642 0.87605243921279918 -5.6702885627746573 -1.2513946890830991 -1.972028851509094 10.928185462951662 -2.155835628509521 0.74145141243934642
decision_type=2 2 2 2 2 2 2 2 2 2 2 2 2 2 2 2 2 2 2 2 2
left_child=2 3 5 17 9 12 13 -6 -8 -5 19 -12 -1 -7 -13 -14 -4 -2 -19 -3 -21
right_child=1 10 16 4 7 6 8 -9 -10 -11 11 14 15 -15 -16 -17 -18 18 -20 20 -22
leaf_value=-0.0075170209840976108 -0.0046362150613813288 -0.00075153230645758312 -0.012292671775589461 0.0032772966107734664 0.008809790656874688 0.0024442920129966999 0.0028473284203205029 0.0038820656232455794 -0.0034166133313205996 -0.00050441613673779528 -0.0058017861291834614 -0.0027833538403943432 0.00042650299212175979 -0.0042334738011278903 0.0064572798838791077 -0.0046956435298340137 -0.0039364245017500625 -0.0018655169846699311 0.0026521081971270124 -0.010480809135089 -0.0039775619998984341
leaf_weight=345.52777984412387 128.00093066133559 59.688682851847261 138.76486143702641 1363.5969416038133 434.47490427922457 536.00813431385905 144.0354573330842 573.27786283195019 939.73636608431116 489.4179979651235 84.230753433424979 66.268752451986074 228.92449109023437 98.973071531858295 104.25403509149328 485.36215447820723 86.363843117374927 254.73576366528869 176.91125814290717 84.189765017479658 97.599096206948161
leaf_count=5970 4096 3908 5025 74237 26242 19330 5509 31602 32434 14254 5146 4052 3891 3863 5621 8576 3375 12105 8782 5514 6014
internal_value=-0.000157857 0.00209464 -0.00308942 0.00287989 0.00367418 -0.00249096 -0.00112529 0.00613666 -0.00254761 0.00228375 -0.00321975 -0.000154677 -0.00464387 0.00130596 0.00295097 -0.00308712 -0.00966977 -0.00116702 2.14896e-05 -0.00619418 -0.00772962
internal_weight=6920.34 3916.65 3003.7 3420.42 2860.77 2778.57 1718.75 1007.75 1083.77 1853.01 496.231 254.754 1059.81 634.981 170.523 714.287 225.129 559.648 431.647 241.478 181.789
internal_count=289546 201573 87973 171318 146335 79573 61136 57844 37943 88491 30255 14819 18437 23193 9673 12467 8400 24983 20887 15436 11528
is_linear=0
shrinkage=0.03


Tree=30
num_leaves=25
num_cat=0
split_feature=1 30 8 96 10 36 26 19 81 30 30 46 81 43 7 75 36 106 46 46 105 23 22 25
split_gain=47.5739 18.0315 10.1733 10.1727 9.67655 8.18083 7.27289 7.07896 6.47043 6.33663 5.34914 5.12845 4.61109 4.27673 4.38101 4.13921 3.89324 3.2343 4.26446 4.17697 2.47296 2.41352 2.41219 1.12866
threshold=-0.16087352484464643 -0.18436925113201139 1.1398254632949831 -2.597030401229858 -0.16172376275062558 0.6974637806415559 0.79088544845581066 0.41348299384117132 2.4956768751144414 0.78661888837814342 -0.77296444773674 0.37930156290531164 4.6011972427368173 4.5865342617034921 0.24518297612667087 10.560150623321535 0.9112319052219392 11.664368629455568 0.38983283936977392 0.075038842856884017 5.059420347213746 8.6150689125061053 3.2664595842361455 -0.7428179383277892
decision_type=2 2 2 2 2 2 2 2 2 2 2 2 2 2 2 2 2 2 2 2 2 2 2 2
left_child=3 4 9 17 13 7 10 8 -5 11 -6 -3 16 14 -2 20 -4 18 19 -1 -7 -9 -11 -14
right_child=1 2 12 5 6 15 -8 21 -10 22 -12 -13 23 -15 -16 -17 -18 -19 -20 -21 -22 -23 -24 -25
leaf_value=-0.0024826389664206255 0.0038424952480607209 -0.0026876576007338034 0.0020340471543728715 -0.00085927393015300065 0.0011332843383510614 -0.007249750269891918 -0.0048877000257416484 -0.0052573989291829814 0.0038660776633596106 -0.0084810121029313887 0.0048827529999712141 0.0032585110760962278 0.0027657266775387096 0.00068821339656737596 0.0095435451532051557 0.0013046697295371586 -0.0055054440744845383 -0.0017839837155522661 -0.0013780990866164018 -0.0081641340102697416 -0.0010363593220240946 -0.0013271167797958903 -0.00086992016490067942 0.01075634388174504
leaf_weight=175.92405185522512 230.03780709672719 410.81197214033455 523.78646240197122 664.18765977723524 690.73584251757711 312.09027619799599 94.409452180378139 243.83709544874728 403.59185033058748 159.59611435653642 691.27949750889093 168.23005555849522 45.726815828122199 95.943886847700924 395.22452881745994 73.633624267298728 50.158251516055316 243.67455999506637 168.28286620555446 536.420432778541 78.707366389688104 341.59518255293369 53.602131790481508 45.181259021628648
leaf_count=3356 11585 27054 33491 28328 30795 14274 1208 6749 20440 9200 19278 11626 3647 4042 18902 4641 2607 5607 3675 10391 3373 8417 3682 2520
internal_value=-0.000111375 0.00222971 -0.000358123 -0.00274803 0.00393327 -0.00149929 0.00248544 -0.000488427 0.000965025 -0.00262448 0.00305166 -0.000908994 0.00234025 0.00675018 0.0076302 -0.00492889 0.00121196 -0.00503273 -0.0058721 -0.00686712 -0.00610974 -0.00308371 -0.00680616 0.0079606
internal_weight=6896.67 3654.72 1457.09 3241.94 2197.63 2117.64 1476.42 1653.21 1067.78 792.24 1382.02 579.042 664.853 721.206 625.262 464.431 573.945 1124.3 880.627 712.344 390.798 585.432 213.198 90.9081
internal_count=288888 179637 93827 109251 85810 86222 51281 63934 48768 51562 50073 38680 42265 34529 30487 22288 36098 23029 17422 13747 17647 15166 12882 6167
is_linear=0
shrinkage=0.03


Tree=31
num_leaves=26
num_cat=0
split_feature=1 30 30 29 59 25 9 10 36 13 20 20 21 96 1 36 59 75 106 5 30 67 81 14 13
split_gain=43.981 19.0808 14.2236 13.4956 10.5021 9.89056 9.07278 8.39119 6.14427 5.67276 5.52253 5.32329 6.46313 5.14892 5.067 4.79686 4.74553 4.69553 4.37324 4.21915 4.04142 3.94366 2.8995 2.07772 1.50684
threshold=-0.16087352484464643 -0.22706275433301923 -0.29026740789413447 -0.86046862602233876 1.8055021762847903 0.10754757374525072 4.1839570999145517 -0.14893969148397443 0.86775359511375438 0.86115032434463512 0.31367473304271704 1.9953593611717226 -1.5583404302597044 -2.6525437831878658 -1.140950560569763 0.90760871767997753 6.8076584339141855 -15.439316749572752 15.015555381774904 -0.1162072792649269 0.9015902876853944 2.5249279737472539 0.99076098203659069 -0.36370266973972315 0.55976843833923351
decision_type=2 2 2 2 2 2 2 2 2 2 2 2 2 2 2 2 2 2 2 2 2 2 2 2 2
left_child=2 7 3 -1 17 13 14 11 9 -6 18 19 -13 -5 -4 -16 -12 21 -9 -2 -19 -3 -8 -7 -24
right_child=1 4 6 5 8 23 22 10 -10 -11 16 12 -14 -15 15 -17 -18 20 -20 -21 -22 -23 24 -25 -26
leaf_value=0.0040686063726735628 0.0045438244645712948 0.0072333424870595067 -0.0097552718152991505 -0.0036885032261620453 0.00054334518027011392 -0.0068787241991628808 -0.0039049081543577188 0.0056865867174836189 -0.0039128931530788245 0.0068007551075500369 -0.00066923712215807255 -0.0001305201861486802 0.0073115471910828039 0.00092511012104688664 -0.0038734640953700188 -0.011413034882759625 0.0041979559643143746 -0.002403908107074402 -0.0013668996679615303 0.012145889412876134 -0.0085640421720942633 -0.0015524924269430921 0.0056125347406695281 -0.0025450091589629023 8.7122336200555795e-05
leaf_weight=369.30082287499681 148.89253534283489 56.576838701963425 258.51355322496966 287.64163651643321 250.4597988226451 331.62892583478242 74.777542394120246 511.6462043276988 93.317859416361898 260.80745702749118 560.33023736951873 194.38095736084506 206.72346934583038 726.72682461515069 788.75166325876489 73.412163848057389 242.8523721289821 649.06013434985653 84.890937559772283 190.80419645179063 100.19515890069306 101.43288183677942 61.122298260685056 186.94752533128485 99.603239407297224
leaf_count=5141 7002 3593 4599 6696 17083 5312 4114 19128 5541 15649 17996 10352 8484 29829 36948 3062 7984 42684 3351 8966 4947 7102 3217 4264 6645
internal_value=-0.000105644 0.0021494 -0.00263102 -0.000939246 -0.000430249 -0.00218255 -0.00495585 0.00395853 0.00258292 0.00387123 0.00253215 0.00651621 0.0038701 -0.000429182 -0.00606286 -0.00475965 0.000868658 -0.00245058 0.00467105 0.00925175 -0.00342892 0.0020526 0.000374259 -0.00546894 0.00257696
internal_weight=6910.8 3652.37 3258.43 1902.25 1511.85 1532.94 1356.18 2140.52 604.585 511.267 1399.72 740.801 401.104 1014.37 1120.68 862.164 803.183 907.265 596.537 339.697 749.255 158.01 235.503 518.576 160.726
internal_count=289689 179862 109827 51242 96599 46101 58585 83263 38273 32732 48459 34804 18836 36525 44609 40010 25980 58326 22479 15968 47631 10695 13976 9576 9862
is_linear=0
shrinkage=0.03


Tree=32
num_leaves=26
num_cat=0
split_feature=1 30 30 29 9 36 20 26 60 29 14 12 20 74 63 9 20 67 103 5 63 64 20 12 30
split_gain=40.9817 20.2689 12.1545 8.49905 7.7886 7.77807 8.31447 7.59073 6.60146 6.379 6.05377 5.77837 5.7452 4.74212 4.57852 5.0746 4.2556 3.88367 3.56117 3.21155 2.50573 2.12664 1.68131 1.25704 0.65234
threshold=-0.1671214550733566 0.75894212722778331 -0.29026740789413447 -0.86046862602233876 4.1839570999145517 0.69021740555763256 6.2054336071014413 0.058839270845055587 -2.5673612356185909 0.31107263267040258 -0.28574362397193903 0.87603321671485912 1.206700384616852 -3.5176802873611446 0.21196798235177997 -3.3270784616470332 -3.4799695014953609 3.1984648704528813 6.5000000000000009 0.43999940156936651 0.91193032264709484 0.28710667788982397 0.35970196127891546 0.17256513983011249 0.87137606739997875
decision_type=2 2 2 2 2 2 2 2 2 2 2 2 2 2 2 2 2 2 2 2 2 2 2 2 2
left_child=2 5 3 -1 14 11 13 16 24 20 -9 12 -2 -7 23 -16 -5 -13 -6 -11 -10 -8 -20 -4 -3
right_child=1 8 4 7 18 6 21 10 9 19 -12 17 -14 -15 15 -17 -18 -19 22 -21 -22 -23 -24 -25 -26
leaf_value=0.0030874725604588798 0.0043230226196909229 -0.0038595793577166759 -0.010749114623355279 0.005095361037508417 -0.0033579865586941537 0.0021051355315888001 0.0094454236548964787 -0.0050100774142812507 -0.0015433180593795283 -0.0014585639138232831 -0.00028137321920972428 0.0038589627886698404 0.00094563519074779159 -0.0037676669881172059 -0.0012965753158163315 -0.0062013999470655118 -0.00072506641628081127 0.0085864511155558758 0.0065997499691753383 0.0071936707777842746 -0.0085567207927586802 0.0018756510117921255 9.6724285147832027e-05 -0.0050916954474756176 -0.0105858266625028
leaf_weight=364.37512127030641 969.01463844673708 54.236328997183591 173.50808526016772 146.81072149472311 107.22191901830956 173.51171850413084 62.940288910176605 663.86724716471508 129.31748905032873 56.642200605478138 382.40052027860656 435.75366923771799 863.01891144830734 336.99849511263892 323.23347924370319 489.34636879945174 338.40265450952575 298.03564235428348 55.995919509790838 72.14399039465934 62.410036745015532 76.977229207288474 68.761537514161319 121.61892435560003 81.747000905219465
leaf_count=5026 46934 3911 4535 6310 5938 9490 3598 12684 6667 3916 10008 17108 42434 18650 12672 21160 16872 10354 3012 4840 3367 5040 4749 5760 4306
internal_value=-2.95781e-05 0.00213379 -0.0024833 -0.000920012 -0.00464951 0.00297495 4.11954e-05 -0.00190099 -0.00366872 -0.00112929 -0.00331948 0.00371258 0.00275942 -0.00176751 -0.0056795 -0.00432834 0.00116801 0.00595595 0.000329114 0.00370374 -0.00441891 0.00603625 0.0035241 -0.00888886 -0.00874194
internal_weight=6908.29 3672.75 3235.54 1895.86 1339.69 3216.25 650.428 1531.48 456.497 320.514 1046.27 2565.82 1832.03 510.51 1107.71 812.58 485.213 733.789 231.979 128.786 191.728 139.918 124.757 295.127 135.983
internal_count=289341 180615 108726 50900 57826 153608 36778 45874 27007 18790 22692 116830 89368 28140 44127 33832 23182 27462 13699 8756 10034 8638 7761 10295 8217
is_linear=0
shrinkage=0.03


Tree=33
num_leaves=16
num_cat=0
split_feature=2 36 36 36 0 2 75 75 26 0 28 67 76 6 22
split_gain=43.8807 12.4977 11.2903 10.8535 7.73403 7.49145 6.27681 6.50931 5.99428 5.29068 4.38079 4.06596 5.42313 4.77017 3.59334
threshold=-0.11869684234261511 0.019927536137402061 0.90760871767997753 0.69021740555763256 -0.89394107460975636 -1.0007765889167783 9.9810428619384783 -3.8700174093246456 0.79088544845581066 0.91022855043411266 -0.39745655655860895 2.6735538244247441 -7.7046558856964102 -0.47182637453079218 8.9272656440734881
decision_type=2 2 2 2 2 2 2 2 2 2 2 2 2 2 2
