tree
version=v4
num_class=1
num_tree_per_iteration=1
label_index=0
max_feature_idx=141
objective=binary sigmoid:1
feature_names=ret_1 ret_3 ret_6 ret_12 ret_24 ret_48 ret_144 ema_dist_20 ema_dist_50 ema_dist_200 atr_regime rv_ratio range_pos_12 range_pos_48 body_frac upper_wick lower_wick range_atr gap_open efficiency_12 dist_day_open dist_day_high dist_day_low day_range_atr dist_vwap tickvol_rel tickvol_accel spread_now spread_rel tod_sin tod_cos dow_0 dow_1 dow_2 dow_3 dow_4 mins_since_open mins_to_flat us_dst ms_trend_5m ms_dist_bear_top_5m ms_dist_bear_bot_5m ms_dist_bull_top_5m ms_dist_bull_bot_5m ms_has_bear_5m ms_has_bull_5m ms_bear_width_5m ms_bull_width_5m ms_in_bear_5m ms_in_bull_5m ms_flip_age_5m ms_zone_age_5m ms_choch_bull_5m ms_choch_bear_5m ms_bos_bull_5m ms_bos_bear_5m ms_trend_30m ms_dist_bear_top_30m ms_dist_bear_bot_30m ms_dist_bull_top_30m ms_dist_bull_bot_30m ms_has_bear_30m ms_has_bull_30m ms_bear_width_30m ms_bull_width_30m ms_in_bear_30m ms_in_bull_30m ms_flip_age_30m ms_zone_age_30m ms_choch_bull_30m ms_choch_bear_30m ms_bos_bull_30m ms_bos_bear_30m ms_trend_4h ms_dist_bear_top_4h ms_dist_bear_bot_4h ms_dist_bull_top_4h ms_dist_bull_bot_4h ms_has_bear_4h ms_has_bull_4h ms_bear_width_4h ms_bull_width_4h ms_in_bear_4h ms_in_bull_4h ms_flip_age_4h ms_zone_age_4h ms_choch_bull_4h ms_choch_bear_4h ms_bos_bull_4h ms_bos_bear_4h ms_sell_setup ms_buy_setup ms_sell_break ms_buy_break zz_last_dir zz_pivot_age zz_dist_pivot zz_leg_ret zz_leg_ratio zz_hh zz_hl pat_forming pat_awaiting pat_type pat_dir pat_age pat_height_atr pat_dist_neck pat_dist_target pat_break_up pat_break_dn pat_reached pat_failed d_er_yday d_er_pct d_range_atr d_rv20 d_rv_5_20 d_rv_20_60 d_vvol d_dist_sma20 d_dist_sma50 d_dist_sma200 d_dist_hi20 d_dist_lo20 d_dist_hi55 d_dist_lo55 d_dd_depth d_since_ath d_streak d_gap d_gap_sum5 c_dom c_tom c_opex c_month_sin c_month_cos t_sess_er t_ac1 t_range_exp t_persist t_tv_rel
feature_infos=[-8.3932943344116211:8.8285455703735352] [-5.1348652839660645:5.3094668388366699] [-4.3257360458374023:4.2475523948669434] [-3.42801833152771:3.8579373359680176] [-3.1153693199157715:3.5198757648468018] [-4.7980003356933594:6.2260499000549316] [-6.2377924919128418:10] [-8.0620212554931641:8.0257453918457031] [-8.7771396636962891:8.9033880233764648] [-15:15] [-1.4123564958572388:1.1280876398086548] [-2:1.2551518678665161] [0:1] [0:1] [-1:1] [0:1] [0:1] [0:8] [-4.4321861267089844:2.2895212173461914] [0:1] [-15:15] [-15:0] [0:15] [1.1893925666809082:30] [-15:15] [-3:2.3806631565093994] [-2.1793651580810547:1.3846874237060547] [0:100] [-2:1.7613276243209839] [-1:1] [-1:0.93969261646270752] [0:1] [0:1] [0:1] [0:1] [0:1] [0.047101449221372604:0.94202899932861328] [0.036231882870197296:0.93115943670272827] [0:1] [-1:1] [-20:20] [-20:20] [-20:20] [-20:20] none none [0:10.019565582275391] [0:6.7168869972229004] [0:1] [0:1] [0:5.1873860359191895] [0:4.8520302772521973] [0:1] [0:1] [0:1] [0:1] [-1:1] [-20:20] [-20:20] [-20:20] [-20:20] none none [0:20] [0:20] [0:1] [0:1] [0:4.8903489112854004] [0:4.6443910598754883] [0:1] [0:1] [0:1] [0:1] [-1:1] [-20:20] [-20:20] [-20:20] [-20:20] none none [0:20] [0:20] [0:1] [0:1] [0:4.2766661643981934] [0:3.9120230674743652] [0:1] [0:1] [0:1] [0:1] [0:1] [0:1] none none [-1:1] [0:4.3820266723632812] [-16.169467926025391:19.541484832763672] [-30:30] [-3:3] [-1:1] [-1:1] [0:1] [0:1] [0:14] [-1:1] [0:6.2166061401367188] [0:30] [-20:20] [-30:30] [0:1] [0:1] [0:1] [0:1] [0:0.33568775653839111] [0.0021052630618214607:1] [0.16240900754928589:3.4459631443023682] [0.091999150812625885:0.60132646560668945] [0.11948264390230179:1.9926179647445679] [0.47726336121559143:1.5876033306121826] [0.41495555639266968:0.8343433141708374] [-3.9250683784484863:4.6743593215942383] [-6.0881409645080566:6.8606171607971191] [-8.5125026702880859:15] [-5.9954686164855957:-0.0003653968742582947] [0:9.3976049423217773] [-10.023102760314941:-0.0003653968742582947] [0.023719567805528641:15] [-0.35525962710380554:0] [0:6.2841343879699707] [-6:8] [-1.2912484407424927:0.66912734508514404] [-1.2949522733688354:0.77630126476287842] [0.032258063554763794:1] [0:1] [0:1] [-1:1] [-1:1] [0:1] [-0.75147229433059692:0.76631402969360352] [0.024161074310541153:6] [0.083333335816860199:0.875] [0.11277016252279282:3.7212073802947998]
tree_sizes=6977 7071 7096 7088 7117 7087 7076 7091 7129 7106 7090 7102 7122 7098 7108 7108 7092 7108 7106 7117 7114 7124 7100 7123 7138 7142 7109 7144 7113 7094 7124 7112 7121 7122 7122 7101 7119 7111 7119 7103 7099 6316 7133 7128 7143 7091 7115 7123 6233 6783

Tree=0
num_leaves=63
num_cat=0
split_feature=7 37 37 96 10 7 59 30 10 28 131 29 121 114 20 43 23 139 139 5 0 121 76 13 120 118 114 121 43 58 96 29 34 131 125 124 85 46 118 117 98 20 30 58 117 7 129 138 30 30 120 30 120 23 138 131 20 22 117 20 76 99
split_gain=191.271 47.7684 36.66 30.6961 23.8682 21.5973 14.3702 17.7723 15.4275 13.777 10.0052 9.94295 9.92848 9.18154 8.2933 7.71426 7.17687 7.01785 6.79205 6.6716 6.58316 6.53227 10.1486 6.227 6.76569 8.14186 5.75886 7.75538 5.65682 5.07739 4.96213 5.41774 4.95635 4.87958 4.53207 7.11456 4.51192 5.56434 5.21119 4.30208 7.80483 4.68609 5.56001 4.28621 4.08055 3.82177 3.70152 4.19072 3.6101 3.51741 3.42365 3.28822 3.18963 3.1746 3.20754 2.73545 2.70205 5.42138 2.68613 2.68542 3.1355 2.6394
threshold=-0.25705116987228388 0.081521742045879378 0.28804346919059759 -1.7056083679199217 0.4580076932907105 -1.5008907318115232 6.7311336994171151 -0.31107263267040247 -0.49203310906887049 -0.56614142656326283 -0.2078624218702316 -0.52803644537925709 -1.7468357086181638 0.94919663667678844 -0.058993922546505921 1.2061981558799746 8.3389878273010272 0.95000535249710094 0.40051770210266119 -0.3112019002437591 1.0000000180025095e-35 -0.30285282433032984 -19.999938964843746 0.83786430954933178 -1.6135023236274717 1.2340269684791567 0.50240057706832897 -1.8302986621856687 2.816778421401978 0.92160105705261242 -2.002897977828979 -0.77296444773674 1.0000000180025095e-35 -0.012291971128433941 -0.37601037323474878 2.2426458597183232 1.7005987167358401 0.21767488867044452 0.98641502857208263 0.86263319849967968 0.46091078221797949 -6.1274547576904288 -0.71473535895347584 7.2515404224395761 1.3066052794456484 -1.9199595451354978 2.5000000000000004 -0.053779516369104378 0.56457334756851207 -0.31107263267040247 -1.2282171845436094 -0.96298784017562855 -0.58565539121627797 8.1204791069030779 -0.070536077022552476 -0.014691301155835388 -0.16397471725940702 6.5402162075042733 0.83629497885704052 -1.8138517737388609 19.99989223480225 -1.0000000180025095e-35
decision_type=2 2 2 2 2 2 2 2 2 2 2 2 2 2 2 2 2 2 2 2 2 2 2 2 2 2 2 2 2 2 2 2 2 2 2 2 2 2 2 2 2 2 2 2 2 2 2 2 2 2 2 2 2 2 2 2 2 2 2 2 2 2
left_child=2 59 11 46 6 9 7 8 29 -4 28 12 17 14 -10 55 44 19 -14 -1 30 22 -18 32 -25 -26 34 -28 -8 -5 31 -7 43 -29 35 -9 38 -38 -17 41 -41 -23 -43 -12 -11 -20 47 49 51 -3 -24 -32 -49 -22 -55 -6 -47 -58 -33 -2 -61 -31
right_child=1 3 5 4 15 20 10 26 13 16 23 -13 18 -15 -16 36 21 -19 45 -21 53 39 50 24 25 -27 27 33 -30 61 48 58 -34 -35 -36 -37 37 -39 -40 40 -42 42 -44 -45 -46 56 -48 52 -50 -51 -52 -53 -54 54 -56 -57 57 -59 -60 60 -62 -63
leaf_value=-0.90904297269966838 -0.93986407033116659 -0.91918497682601286 -0.9258380488724921 -0.88739491661055037 -0.93321673535762373 -0.92974147400319584 -0.92052638164707878 -0.9176483985406455 -0.91268354346198766 -0.95309284236271841 -0.9295838250862688 -0.96600302100100433 -0.93238237796331469 -0.94096725882829746 -0.92320598469169768 -0.9110349982158491 -0.91730233556088314 -0.95105127133506118 -0.95931992802089505 -0.94038517339234184 -0.93501576993802882 -0.95799387686817516 -0.94906990277380288 -0.93142230849967034 -0.90060888563353325 -0.92731923984648101 -0.91667608014067214 -0.92941340417527374 -0.9544567668052033 -0.90322290030749774 -0.94314267230158011 -0.93865099506012006 -0.90427522971779761 -0.94647651053034343 -0.90794215029700898 -0.93487402780218365 -0.92174221869517203 -0.94709541803173924 -0.93443028980313791 -0.94687016282731606 -0.92816899602033376 -0.93209119727215783 -0.95285036007352475 -0.91393352915345372 -0.93812606036051416 -0.94552615232710635 -0.95136576509137127 -0.95071077186536623 -0.94726338620915151 -0.94050606557514949 -0.93376985268855228 -0.93065302687179874 -0.93568182010719891 -0.91802600286747227 -0.93006478099043666 -0.94817933540421961 -0.9627330108061336 -0.93856692731183033 -0.95135366902378149 -0.96228161313244376 -0.93920867465595492 -0.92727562857357704
leaf_weight=29.051565600093454 31.777118450496346 49.100582867860794 90.381803451105952 46.838092925958335 45.538183702155948 56.10311780590564 21.712625376880169 98.576739815529436 319.68333765072748 347.99360186513513 96.79818563349545 111.47532406123355 39.548522669356316 47.567204921972007 497.1078002313152 55.409365449566394 54.133932991884649 34.892835641745478 200.90102443657815 30.593951473012567 172.34014504123479 108.68123984290287 72.375549928750843 24.922819232568145 248.87546352343634 35.28872060123831 37.480495152063668 61.986460961867124 17.830096803605556 23.320829576347023 57.922209032811224 68.814555172808468 51.202669619116932 112.21614168724045 29.606603558640927 140.98437110008672 33.476657072082162 44.665949553716928 38.880432604812086 166.06828401703387 79.305643250700086 58.794907124713063 64.416399497538805 80.540860509965569 56.113328962121159 192.23378629609942 42.499747330322862 47.523290617857128 42.552986468188465 26.451063589658588 69.216803879942745 321.0657270392403 112.12677438743412 76.390065344981849 187.82431037770584 85.305524692870677 79.926401187200099 35.004085878375918 123.44498544139788 75.497728943359107 21.299035729374737 24.962865124922246
leaf_count=1020 1880 1959 752 2971 1696 931 1370 7675 14536 6393 5554 3487 1389 2107 20340 1660 1124 1262 3688 1138 7409 1914 1315 1363 12357 2016 2711 5103 999 1378 2800 2710 3193 9246 2382 11472 1045 1387 1381 2758 1731 1050 1146 5817 1107 8720 1727 2010 2645 1509 1310 14742 4747 3240 7641 3309 2894 1620 4649 4273 1358 1413
internal_value=-0.934058 -0.924462 -0.942702 -0.92298 -0.921103 -0.939512 -0.919142 -0.921889 -0.917971 -0.94424 -0.912446 -0.952229 -0.949607 -0.920228 -0.918984 -0.934178 -0.945815 -0.934594 -0.952169 -0.924381 -0.934498 -0.942542 -0.934812 -0.910676 -0.905912 -0.903756 -0.929791 -0.935942 -0.936421 -0.899167 -0.937601 -0.943131 -0.917578 -0.94045 -0.925004 -0.927599 -0.927308 -0.936159 -0.920225 -0.945669 -0.940833 -0.95053 -0.943262 -0.922125 -0.951092 -0.953709 -0.938618 -0.935998 -0.934272 -0.926599 -0.941843 -0.932658 -0.940532 -0.929748 -0.926355 -0.94314 -0.94969 -0.955876 -0.947044 -0.953695 -0.957717 -0.913874
internal_weight=5754.62 2727.05 3027.57 2598.48 2320.78 2273.94 2017.5 1440.33 959.48 1167.48 577.171 753.627 642.152 864.358 816.791 303.276 1077.1 94.5384 547.614 59.6455 1106.46 672.993 195.726 537.629 309.087 284.164 480.851 211.683 39.5427 95.1218 669.904 248.363 228.542 174.203 269.168 239.561 172.432 78.1426 94.2898 477.266 245.374 231.893 123.211 177.339 404.107 508.065 277.701 235.202 421.541 75.5516 141.592 378.988 159.65 436.555 264.214 130.844 307.164 114.93 192.26 128.574 96.7968 48.2837
internal_count=236529 143944 92585 136433 124481 67367 114003 81334 42745 20600 32669 25218 21731 36983 34876 10478 19848 3420 18311 2158 46767 12348 3749 30300 15736 14373 38589 17060 2369 5762 28477 8290 14564 14349 21529 19147 5473 2432 3041 8599 4489 4110 2196 11371 7500 16922 11952 10225 20187 3468 2625 17542 6757 18290 10881 5005 13234 4514 7359 7511 5631 2791
is_linear=0
shrinkage=1


Tree=1
num_leaves=63
num_cat=0
split_feature=1 36 36 22 96 29 6 127 40 115 60 115 29 13 19 29 13 68 11 117 137 131 19 132 117 115 128 29 42 74 98 117 23 1 36 132 40 127 50 124 127 118 118 105 114 105 11 132 128 118 135 141 40 141 6 23 6 6 114 85 114 114
split_gain=158.745 48.54 28.8782 17.5217 13.8484 13.5582 19.8021 12.9881 12.8047 12.734 12.0407 11.3475 8.49755 8.96964 7.74703 7.58888 7.46952 7.78429 6.55821 6.37815 6.14474 6.00562 7.79028 5.87465 5.34468 4.96387 5.54299 6.9329 4.93833 4.58401 4.40535 4.36989 6.1722 4.22821 4.06126 4.02428 3.96144 5.38979 3.90976 3.89904 5.33863 3.86856 3.89871 5.01444 4.13542 3.75932 3.99727 3.75611 3.715 4.2553 3.68838 3.62765 3.75771 3.62407 5.45702 3.54525 3.51828 3.49919 3.81437 5.72115 3.54357 3.4916
threshold=-0.15715992450714109 0.70108696818351757 0.70833334326744091 1.4051274061203005 -2.4811134338378902 -0.49049438536167139 0.60615447163581859 -0.089874409139156328 -0.65110149979591359 1.68601930141449 7.907480239868165 1.0727007985115053 -0.54643493890762318 0.7976285219192506 0.47366639971733099 -0.87137606739997853 0.86600166559219371 2.0126758217811589 -0.22408807277679441 0.33657924830913549 0.030869329348206524 0.021789448335766796 0.36995418369770056 0.48331478238105779 1.3346394300460818 0.78790077567100536 2.3502402305603032 -0.8253108263015746 0.55526897311210643 -4.7917473316192618 0.035322373732924468 1.0426141619682314 10.442112445831301 -0.6750689148902892 0.25543478131294256 0.83602148294448864 -0.56474032998085011 -0.06043648719787597 3.1567740440368657 2.649641871452332 -0.066936660557985292 1.2131013274192812 1.0384594798088076 2.5249279737472539 0.47999584674835211 2.0126758217811589 0.47096617519855505 0.19677419215440753 5.6784632205963144 1.1168568134307864 0.25000000000000011 0.49130783975124365 0.95329251885414135 0.53905272483825695 -0.028050181455910202 9.7730169296264666 0.3042390793561936 -0.56598907709121693 0.24112971872091296 1.7005987167358401 0.1311026141047478 0.74848979711532604
decision_type=2 2 2 2 2 2 2 2 2 2 2 2 2 2 2 2 2 2 2 2 2 2 2 2 2 2 2 2 2 2 2 2 2 2 2 2 2 2 2 2 2 2 2 2 2 2 2 2 2 2 2 2 2 2 2 2 2 2 2 2 2 2
left_child=2 8 3 9 25 6 7 57 23 14 11 19 13 33 15 -1 17 51 55 -10 48 22 -22 34 -23 30 -27 -28 -9 -25 -5 45 35 -4 38 -33 37 -6 -2 40 -8 42 44 -44 -18 -13 50 -36 49 -21 -47 52 -12 -39 -55 -17 -34 -3 60 -60 -59 -30
right_child=1 5 12 4 36 -7 39 28 10 -11 16 31 -14 -15 -16 18 41 -19 -20 20 21 24 -24 29 -26 26 27 -29 61 -31 -32 32 56 -35 47 -37 -38 53 -40 -41 -42 -43 43 -45 -46 46 -48 -49 -50 -51 -52 -53 -54 54 -56 -57 -58 58 59 -61 -62 -63
leaf_value=0.0068392299650545905 -0.012827493716828474 -0.011925019489931268 -0.021694910900687588 -0.0032646901331446947 0.0040713449477850598 -0.021383339336304055 0.019974008163127385 -0.016570999814802048 -0.0053860873250200711 0.012776046750016649 0.010429399076796776 -0.0014355047139383303 -0.030797115845808118 0.0094658603495158568 -0.017432780394423499 -0.0066158464131197206 0.031292813764923079 0.021355080315768545 -0.017434012207382093 0.035036611933777453 0.01404779957774486 0.020210994996505423 -0.0026413515061785818 0.0078457989480832397 -0.0011013546867799425 -0.015615201661443029 0.012611884075834776 -0.0062472061152204503 0.0022989232052811072 -0.0046186532870785731 -0.021039448894797582 -0.0093764644025594347 0.020079125016460399 -0.011259870711999674 0.0050895556141068825 0.0089212936540258338 0.0046683295849372268 -0.0019279073233028775 0.010652164718785563 0.02938206433570241 -0.013692433369776755 0.0097853559230166223 0.054108725970971688 0.019977079781398895 0.012911777374182559 0.0092184310613637726 -0.0033780025090488068 0.020539682064256604 0.0087921139188695801 0.013191962797623948 0.027506265046434216 0.01275212490273462 -0.014012317874342593 -0.0014802216352942626 -0.02502283004667584 0.012261756858831708 -0.0022505936732028272 0.0031506741148168748 -0.0072685975228702435 0.012930147858652874 0.03162817603706105 -0.017203040993294061
leaf_weight=71.131712838076055 28.126617963425815 22.110055937431753 227.60155400726944 51.65653775818646 204.42607298307121 87.939137748908252 25.529456373304129 177.14384862780571 35.559235126711428 47.742563650012016 20.921457994263619 53.448651161976159 110.36059766681865 31.579850912559777 431.00944048911333 123.98465846292675 77.594911401160061 144.70992983598262 169.42272219993174 82.21505601098761 178.33063678769395 272.52446078881621 110.80870709149167 115.98419923894107 32.343838066793978 87.825969589408487 61.802027753554285 175.41363509185612 82.684036198537797 184.00016332650557 117.37731554824859 130.01533217029646 42.446198095567524 204.10217090230435 68.801949930842966 34.354514788370579 449.62559899780899 157.03609888581559 33.149707601871341 48.007062644232064 14.76628780690953 35.545076754875481 32.295951846987009 27.881283436436206 67.107653839979321 71.462352394592017 26.106176169589162 102.17566735856235 36.582273792009801 41.826620175503194 50.013572834897786 49.883093025535345 36.225703887175769 46.617469130083919 48.78070460492745 26.006925853900611 26.610646921675652 20.435224335640669 65.134191743563861 65.509795705787838 21.940887341275811 26.290857159998268
leaf_count=951 1653 1353 5872 1111 6963 4474 1854 10876 1754 1070 1284 2399 3936 2590 6903 4959 3122 8769 3726 3648 9233 12687 4281 5561 1408 1864 796 4413 5039 8874 2381 5880 2205 10412 2810 1519 23522 5465 2560 3392 1203 1571 1260 1275 2745 3722 538 4104 1540 1758 2681 2364 1851 1618 1349 877 1181 1144 3592 3798 1206 1591
internal_value=4.33645e-05 0.00825354 -0.00834858 -0.005791 -0.00231463 -0.00367538 -0.000778963 -0.0048209 0.0117413 -0.0113467 0.0138405 0.0111038 -0.0183312 -0.0150645 -0.0128173 -0.00756764 0.0204699 0.0139815 -0.0108319 0.0146606 0.0156345 0.013084 0.00771573 0.00490417 0.0179687 -0.00900424 -0.00525412 -0.00117491 -0.0115246 0.000250149 -0.0158574 0.00454142 -0.000139824 -0.0169468 0.0107835 -0.00540163 0.00136091 -0.00190944 -0.000279957 0.0203274 0.00748739 0.0268405 0.0294958 0.0410405 0.0234843 0.00984853 0.0138483 0.0146438 0.0243869 0.0284672 0.0175376 0.003504 -0.00494508 -0.0067378 -0.0141651 -0.0030527 0.0119035 0.00505104 0.0074944 0.00296309 0.0196772 -0.00295433
internal_weight=5750.05 2906.54 2843.5 2269.86 1400.56 657.491 569.552 481.249 2249.05 869.298 1716.81 1224.65 573.644 463.284 821.555 390.546 492.165 251.74 319.414 790.191 754.632 594.008 289.139 532.238 304.868 494.075 325.042 237.216 286.119 299.984 169.034 434.457 233.427 431.704 232.254 164.37 906.486 456.86 61.2763 88.3028 40.2957 240.425 204.88 60.1772 144.703 201.031 147.582 170.978 160.624 124.042 121.476 107.03 57.1472 252.434 95.3982 149.992 69.0568 195.13 173.02 130.644 42.3761 108.975
internal_count=236537 145759 90778 67968 49482 39522 35048 28599 106237 18486 80675 56434 22810 18874 17416 10513 24241 14268 9562 36309 34555 27609 13514 25562 14095 10565 7073 5209 17506 14435 3492 20125 10785 16284 11127 7399 38917 15395 4213 6449 3057 9973 8402 2535 5867 9340 6941 6914 6946 5406 6403 5499 3135 8432 2967 5836 3386 11093 9740 7390 2350 6630
is_linear=0
shrinkage=0.05


Tree=2
num_leaves=63
num_cat=0
split_feature=2 36 36 0 30 22 0 36 113 127 22 3 115 30 126 115 9 96 74 76 131 131 80 74 0 75 19 127 75 2 3 131 119 113 119 84 24 67 0 126 96 3 131 119 96 131 77 80 115 84 115 76 67 36 103 119 30 76 30 2 3 120
split_gain=150.263 40.9384 28.1954 16.8714 16.6641 19.2531 15.4214 9.94593 11.7005 9.57132 9.23571 8.12726 7.60542 6.50618 6.3341 6.20044 6.18007 5.95292 5.9479 5.91233 5.50053 5.00085 4.98609 4.93433 4.92719 4.53619 4.10849 4.24101 4.07736 4.50612 3.94962 3.97982 3.88183 4.35956 3.7702 5.36763 5.19884 4.00017 3.75604 3.74014 3.72438 3.92425 3.71726 4.49733 3.59975 3.59568 3.81755 3.53146 3.40943 3.29027 3.29005 3.31731 3.23775 2.98486 2.94688 4.17143 3.62423 2.86739 2.8452 2.83875 2.82404 2.89822
threshold=-0.17773906886577603 0.69021740555763256 0.70108696818351757 -0.023582188412547108 0.83743050694465648 9.1199288368225115 -1.0000000180025095e-35 0.64311596751213085 0.073513496667146697 -0.089874409139156328 1.0872566103935244 -0.19653666764497754 0.74188131093978893 0.8491516411304475 1.2693096399307253 0.57384192943573009 3.9113795757293706 -2.6315500736236568 -3.9636155366897579 0.10075664892792703 -0.0012182938517071305 -0.10819755494594573 2.0124576091766362 -1.6497483253479002 -1.1222148537635801 2.8146734237670903 0.43451805412769323 -0.06043648719787597 -8.0499739646911603 -0.88281399011611927 -0.68990910053253163 0.016150498762726787 0.68199622631073009 0.032453047111630447 0.66773110628128063 2.8617925643920903 4.1807665824890146 1.8688347935676577 0.6954544484615327 3.1894338130950932 -1.9374281167984007 -0.20318944007158277 0.10152357071638109 0.67384597659111034 2.1831858158111577 -0.0053524626418948165 2.1672260761260991 1.6596848964691164 0.68702647089958202 2.9174053668975835 1.5324704051017763 16.845870018005375 2.9174053668975835 0.60688403248786937 9.5000000000000018 0.68171343207359325 -0.35222910344600672 8.5088591575622576 -0.95688340067863453 0.53062096238136303 -0.94239500164985646 1.6157338023185732
decision_type=2 2 2 2 2 2 2 2 2 2 2 2 2 2 2 2 2 2 2 2 2 2 2 2 2 2 2 2 2 2 2 2 2 2 2 2 2 2 2 2 2 2 2 2 2 2 2 2 2 2 2 2 2 2 2 2 2 2 2 2 2 2
left_child=2 6 3 7 5 9 24 10 23 32 50 -8 15 14 -4 -13 30 60 59 -7 25 -21 47 -9 -2 -20 58 -28 38 -30 -16 48 33 -3 35 37 -36 -24 39 -5 -26 -42 43 -23 -6 46 -35 54 -32 57 51 -1 -37 -31 55 -14 -56 -22 -19 -11 -12 -62
right_child=1 4 13 28 44 19 11 8 -10 18 17 12 22 -15 16 -17 -18 26 20 21 49 42 34 -25 40 -27 27 -29 29 53 31 -33 -34 45 36 52 -38 -39 -40 -41 41 -43 -44 -45 -46 -47 -48 -49 -50 -51 -52 -53 -54 -55 56 -57 -58 -59 -60 -61 61 -63
leaf_value=-0.019209424919047428 -0.0069888105236680393 0.021213613501605381 0.0002609173166435857 0.011754925490472174 -0.025406723582980802 -0.0017981826909926044 0.0053957821282602861 8.9328602354068069e-05 0.010349391332371519 -0.0048827094539974488 -0.003069643158971513 0.014283657205943177 0.0097703586654896823 -0.029249849865606189 -0.023445693288876905 0.028846192017726285 0.0045878180356499279 -0.0095885938192866536 -0.016871083790395668 -0.0035884022825926794 -0.018894414756823602 0.040868809811619791 0.0082717381685861371 -0.016334580623863792 -0.0056103590225186776 0.0071078280861413615 -0.0003138595848002617 -0.017617126972235626 -0.0096600110091068121 -0.0011306194401912075 -0.020167515134516163 -0.019347869303046009 -0.0096977108593396845 -0.000637457430259573 0.014687392337688281 -0.0044682526621844139 -0.0065911582733206566 0.026055458270680967 0.019236922639448584 -0.0039646589972391622 0.00057474577077884221 0.0098580044189644361 0.010548764715277478 0.0063567117015441432 -0.0060009227176826586 -0.0053412163346280468 0.024187787682846251 -0.0031204565944830988 -2.427325729291294e-05 -0.034355994190575827 -0.0029674770008916913 -0.0083744071316382996 0.016014441524584692 0.0094684775889832175 0.019900573818847241 -0.009682015437057552 0.0024026650718742622 0.0011926916797155059 0.0018576419104296867 0.013720816001090983 -0.018809168680829699 -0.0050305417803695636
leaf_weight=355.92474111588672 65.869354416616261 39.963828429114074 59.409995685797185 62.899981441907585 76.602847774978727 31.393353549297899 213.98896383447573 84.684893305879086 136.58086503157392 53.588775924406946 63.467656700871885 149.46922167344019 114.21794802509248 101.89999132743105 216.27699297294021 183.94757879571989 29.04587781522423 62.28667898196727 28.47703289007768 14.643185723107306 75.815414065960795 45.389611899387091 44.042295755818486 94.282354179304093 51.702827934641391 43.405801184009761 61.017498783301562 79.999128150288016 117.46786571573466 269.40195780619979 23.931807180866599 117.28886510198936 34.112194812390953 31.48081341246143 115.2894551018253 32.029377021361142 34.47085385164246 211.15079845767468 43.863101226743311 81.406748075503856 145.13503638608381 534.0368800223805 31.862608708441257 14.170103443320839 39.209229183848947 62.173948063515127 25.011125883087516 51.448077362496406 76.735372292343527 29.742543787229806 49.20369808236137 102.26139098592103 37.696751219220459 82.801333488430828 114.67384747276083 31.477064574602991 41.31198401004076 22.041291626170278 276.22570252232254 26.644863900728524 155.118280780036 56.110335709061474
leaf_count=7111 1582 2031 2296 2533 4816 2049 10313 1043 1863 3289 907 6905 4635 3322 5062 8537 1800 2873 1577 1070 4462 3223 2110 1184 2089 2376 1581 1916 2668 12357 1099 5345 1876 1699 6293 1600 1366 10452 1202 3117 7767 31045 2181 1018 1635 3286 1280 2210 3597 1693 1027 2490 1917 2062 4571 1332 2494 1241 13710 1356 3882 1358
internal_value=-0.000139113 0.00787856 -0.00826316 -0.00561485 -0.00239068 0.000962109 0.0113075 -0.00841311 -0.000463108 -0.00385905 -0.0103918 0.0145117 0.0161612 -0.0176199 -0.0150969 0.0226254 -0.0170482 -0.00680985 -0.00969716 0.0170867 -0.0142265 0.0225055 0.0134374 -0.0087718 0.0057209 -0.00287104 -0.00338665 -0.0103972 0.00110678 -0.00139452 -0.0185311 -0.013238 0.00464446 0.00793073 0.016808 0.0198712 0.00973492 0.0232042 0.00722453 0.00305134 0.00690606 0.00789292 0.0266544 0.0337861 -0.019357 0.00278053 0.0114267 0.00873523 -0.00554067 -0.020274 -0.015598 -0.0169077 0.0069361 0.00145884 0.010775 0.00538592 0.0154849 -0.0145319 -0.00035739 0.00173783 -0.0126183 -0.01535
internal_weight=5757.28 2897.69 2859.59 2235 725.729 609.916 2171.96 1577.16 315.548 472.458 1261.62 1375.21 1161.23 624.589 522.689 333.417 463.279 754.225 279.716 137.459 199.482 106.066 827.808 178.967 796.744 71.8828 479.529 141.017 657.841 469.671 434.233 217.956 192.742 158.63 474.68 324.919 149.76 255.193 188.17 144.307 730.875 679.172 91.4223 59.5597 115.812 118.666 56.4919 353.129 100.667 127.599 507.39 458.186 69.7261 352.203 301.681 145.695 155.986 97.8567 338.512 80.2336 274.696 211.229
internal_count=236781 149376 87405 64884 42158 35707 107218 40945 4090 26166 36855 64735 54422 22521 19199 15442 16903 26227 15994 9541 11349 7492 38980 2227 42483 3953 20080 3497 23939 17087 15103 10041 10172 8296 23738 16079 7659 12562 6852 5650 40901 38812 6422 4241 6451 6265 2979 15242 4696 7396 10628 9601 3517 14419 13032 5967 7065 5703 16583 4645 6147 5240
is_linear=0
shrinkage=0.05


Tree=3
num_leaves=63
num_cat=0
split_feature=12 36 12 36 29 6 127 59 115 137 28 12 105 131 64 43 131 138 131 128 81 123 117 117 21 76 121 121 115 64 80 80 97 115 75 84 138 23 138 59 114 138 138 64 124 7 75 50 80 121 103 124 137 23 117 117 22 81 28 117 4 115
split_gain=152.921 40.5206 21.8827 20.5286 15.2041 19.7953 11.4269 9.76121 9.2239 9.78527 7.98501 7.7982 7.05708 6.75683 6.2607 6.8567 6.00344 5.88475 5.64672 5.26023 5.13086 4.92576 4.75668 6.10402 5.16215 7.09418 4.75571 4.64403 4.63955 4.59615 4.58208 6.76354 5.18411 4.50656 4.34677 4.34266 4.30909 4.28145 5.54299 4.53204 4.27528 5.87416 5.634 4.06357 4.04923 5.5109 3.98777 3.9841 3.95542 3.93446 3.92302 3.83785 3.74573 6.43732 3.69448 4.72139 3.78298 3.80753 4.00585 3.68254 3.48296 3.42408
threshold=0.33034449815750128 0.69021740555763256 0.71162810921669017 0.70833334326744091 -0.49049438536167139 0.6402864158153535 -0.089874409139156328 11.31612014770508 1.0682272315025332 0.043696820735931403 -0.56614142656326283 0.15151353180408481 3.5972183942794804 0.025558209978044037 3.0872167348861699 4.0442280769348153 -0.010918956715613602 0.16517344117164615 -0.070393014699220643 5.9648630619049081 0.99859938025474559 -1.9008842706680296 0.39867931604385382 0.8927246928215028 -3.8741974830627437 -13.526545047760008 2.096542596817017 1.2111907005310061 1.0061697363853457 0.12674447149038318 1.5468724966049197 5.7065625190734872 3.9423866271972661 1.0160920619964602 -3.839540839195251 3.0677825212478642 -0.080096375197172151 11.138682365417482 -0.016470818780362603 -3.5561703443527217 0.24112971872091296 0.11702591180801393 0.050975859165191657 1.6376835107803347 0.84215188026428234 -1.7968559861183164 11.787573814392092 2.1383330821990971 1.2569398283958437 -0.94421866536140431 5.5000000000000009 5.4048922061920175 0.13268572837114337 10.569623470306398 1.3066052794456484 1.4669336676597597 1.214668393135071 3.6507846117019658 0.076987687498331084 0.75056424736976635 -0.23232609778642652 1.0647279024124148
decision_type=2 2 2 2 2 2 2 2 2 2 2 2 2 2 2 2 2 2 2 2 2 2 2 2 2 2 2 2 2 2 2 2 2 2 2 2 2 2 2 2 2 2 2 2 2 2 2 2 2 2 2 2 2 2 2 2 2 2 2 2 2 2
left_child=3 2 17 10 5 6 40 8 9 51 -1 28 20 30 15 37 18 22 -8 27 -9 -7 -2 29 25 -25 -19 36 35 -24 32 -32 -11 43 59 -12 49 39 -39 -10 42 -42 -3 -15 50 -46 -36 -38 -20 -13 -5 -4 -31 -54 56 -56 -30 58 -58 -18 -26 -48
right_child=1 4 7 44 -6 21 16 12 14 13 11 19 -14 33 -16 -17 34 26 48 -21 -22 -23 23 24 60 -27 -28 -29 54 52 31 -33 -34 -35 46 -37 47 38 -40 -41 41 -43 -44 -45 45 -47 61 -49 -50 -51 -52 -53 53 -55 55 -57 57 -59 -60 -61 -62 -63
leaf_value=0.0054095127029530508 -0.0062640388044182954 0.027077900553598839 0.029688351733407788 0.0046175981311319331 -0.020710558250550303 0.0048946652545918401 -0.010064564021972956 0.012566317886210107 -0.0087573767793738769 0.022804891876292102 -0.015469822180004797 -0.0017662976875547555 0.011947176880848566 0.018234782761982937 0.027799719082904933 -0.011167452279433993 0.015381005440733779 0.00227435900475325 0.00055471760801015994 0.0065389470002485198 0.034643704072677577 0.02780375207600513 -0.0011870558354222661 0.020105160863204824 -0.011318784460434357 0.0033948482227096339 -0.022719102227605981 -0.009158921059765554 -0.013463846051562903 0.01734842269718188 -0.0051638511872733814 0.018330313283207039 -0.0027436799192069937 0.036393207577405315 -0.020454783168230708 -0.0044487444672382309 -0.011311273472822505 0.033229247264978175 0.0046871614864953722 0.0079873558871277478 -0.0024129383793037272 0.023742732069954024 -0.0033370808793371613 -0.0001652346849805422 -0.025492475638995229 -0.013813827469497756 -0.015122396844448988 0.00082669391138406325 0.026341654980873947 0.018201588416528209 -0.017527587907549165 0.0079541515584208751 -0.0068498659256736524 0.015904574669556193 0.013482746017573759 -0.0078003151145290195 0.0036486741230789856 0.010450680636050851 -0.014167790959695184 -0.0094013287236060471 0.0022471768433361965 0.012376880834690938
leaf_weight=125.01653643138707 63.843382081482559 36.641921986360103 144.54543808568269 38.208047684282064 94.246741717681289 39.111206773202866 58.265079779550433 42.454324173741043 52.03580304607749 59.223588742315769 467.56496673729271 50.147469508927315 96.352369560860097 168.26427846821025 25.086970682255924 57.437760078348219 17.583928284235299 46.243506097700447 36.45217248192057 102.03936996031553 130.30447584576905 64.847798998933285 56.759897487703711 93.083179433364421 51.197122185025364 187.71295814868063 26.420445543248206 381.17596821160987 189.76639494579285 255.89601835049689 115.51561844581738 36.084659966174513 27.312184139154851 27.781690692994744 149.65240633953363 116.47167767863721 114.30160430911928 27.140254748985171 40.31353974621743 135.78963299188763 157.70492460764945 19.739454494323581 22.429623963776976 36.18317601038143 212.64646364096552 238.21120182098821 17.752093490678817 154.56693814694881 20.377625175286084 42.078692812006921 33.52670732466504 28.688204951584339 50.740126482211053 67.130132973194122 43.914145183749497 51.006068086717278 49.877911103889346 35.872939275112003 73.601060873828828 39.670520808082074 294.32515112822875 17.588144703302532
leaf_count=1207 3242 2058 6128 1286 5106 2777 3324 1829 3031 2297 10562 1932 4240 7260 1418 2317 1046 2554 2006 3807 5908 4452 2427 4733 2418 8683 1323 13648 3654 12639 5501 1934 1278 1229 8628 2692 3488 1324 1960 5716 8447 1026 1082 1926 4425 11554 1072 5935 1220 1831 1364 1254 3160 3614 1110 1174 1072 1239 2155 2318 15660 1061
internal_value=0.000230352 0.00741743 0.0105975 -0.008995 -0.00239933 0.000203522 -0.00336457 0.0152124 0.0127784 0.0162814 -0.00665627 -0.00747415 0.0236935 0.0123114 0.00596428 0.00380266 -0.00895764 0.00571822 0.000455868 -0.0038797 0.0297244 0.0198051 0.00661794 0.00742196 0.00421778 0.0091891 -0.0076908 -0.00534612 -0.010393 0.0119814 0.00619706 0.000835056 0.0150319 0.0183184 -0.0133489 -0.0133284 -0.00125115 0.00732076 0.0176718 0.00324155 0.00509625 0.00106764 0.0161701 0.0150521 -0.0177861 -0.0195412 -0.0169895 -0.00444571 0.0111837 0.00781168 -0.0062001 0.0264132 0.0139704 0.00622923 -0.00642683 0.0022281 -0.00877821 -0.00295842 -0.00710911 -0.00116616 0.000104283 -0.00159879
internal_weight=5755.92 3235.93 2443.87 2519.99 792.064 697.817 593.858 1250.51 981.403 643.599 1997.4 1872.39 269.111 470.365 337.804 312.717 357.342 1193.35 115.095 844.31 172.759 103.959 1120.69 1056.84 626.318 280.796 72.664 742.271 1028.08 430.526 238.136 151.6 86.5358 232.229 242.247 584.037 361.095 255.279 67.4538 187.825 236.516 177.444 59.0715 204.447 522.592 450.858 184.993 268.869 56.8298 92.2262 71.7348 173.234 373.766 117.87 444.039 94.9202 349.118 159.352 123.479 57.2544 345.522 35.3402
internal_count=236761 162626 117003 74135 45623 40517 33288 56550 44573 28807 55506 54299 11977 21425 15766 14348 20675 60453 6550 30641 7737 7229 56576 53334 31494 13416 3877 26834 23658 21840 11010 7435 3575 10415 14125 13254 13186 12031 3284 8747 12613 9473 3140 9186 18629 15979 10761 9423 3226 3763 2650 7382 19413 6774 10404 2284 8120 4466 3227 3364 18078 2133
is_linear=0
shrinkage=0.05


Tree=4
num_leaves=63
num_cat=0
split_feature=12 30 30 9 12 30 123 124 101 9 131 124 63 7 0 138 117 6 30 29 127 131 64 64 138 64 138 114 128 127 6 139 120 12 40 29 134 131 30 139 107 30 42 23 33 135 114 107 27 138 106 9 43 96 68 131 57 118 117 136 128 136
split_gain=152.263 33.3246 20.4717 17.3426 16.1958 13.677 11.0556 10.3971 10.3608 9.25663 8.95206 8.45334 8.25805 7.92431 7.87787 7.2451 6.63905 6.63582 6.50017 6.46036 7.57646 6.20278 8.10173 5.70668 5.43318 5.34315 5.30083 6.66939 5.11893 5.01598 6.07608 5.46756 4.88667 4.86127 4.75756 4.60165 4.46947 4.37546 4.25464 4.23676 4.22215 4.2041 4.12832 4.12216 4.07519 3.93629 4.32547 4.03107 3.95749 3.92534 3.90514 4.31639 3.9071 3.84805 3.98274 3.75996 3.75084 5.22748 3.73797 3.65879 3.65547 4.02613
threshold=0.28427973389625555 -0.29026740789413447 -0.18436925113201139 5.3778345584869394 0.80932182073593151 0.88186877965927135 -3.607993364334106 0.74356362223625194 1.0000000180025095e-35 5.0351219177246103 -0.0053524626418948165 5.720710515975953 0.59545964002609264 -3.0859282016754146 -0.93019381165504444 0.014653500635176899 1.2860948443412783 -0.49454461038112635 0.74455857276916515 0.43245348334312445 -0.23898010700941083 -0.07425419986248015 0.55802279710769664 1.0329783558845522 0.025765803642570976 0.10937517508864404 -0.13135535269975659 0.6609780788421632 6.1851787567138681 -0.04338321462273597 -0.75774800777435292 0.83484089374542247 -1.3348693847656248 0.76022514700889599 0.91689383983612072 -0.9738190472126006 1.0000000180025095e-35 0.095355350524187102 -0.96298784017562855 0.92451763153076183 -1.8943347930908201 0.032717135734856136 0.33946809172630316 11.044601917266847 1.0000000180025095e-35 0.25000000000000011 0.8759799897670747 4.4961941242218026 13.59999990463257 -0.23654414713382718 4.5823497772216806 -1.3093127012252805 -2.5181909799575801 -3.1574168205261226 2.1383330821990971 -0.051182072609663003 1.2656729221343996 1.0174846649169924 0.80160894989967357 -0.25000000000000006 6.1169946193695077 1.0000000180025095e-35
decision_type=2 2 2 2 2 2 2 2 2 2 2 2 2 2 2 2 2 2 2 2 2 2 2 2 2 2 2 2 2 2 2 2 2 2 2 2 2 2 2 2 2 2 2 2 2 2 2 2 2 2 2 2 2 2 2 2 2 2 2 2 2 2
left_child=2 4 7 6 8 32 56 23 14 29 11 18 -12 17 -2 -16 19 -9 21 25 -21 39 -23 40 -18 -6 27 49 36 31 -31 50 -5 -34 43 -28 38 -33 -15 -8 -1 -13 -20 -17 55 46 47 -10 -47 -14 51 -4 -52 54 -40 -22 -3 -58 -37 -38 61 -27
right_child=1 3 9 5 16 -7 10 13 45 -11 12 41 26 28 15 34 24 -19 42 20 44 22 -24 -25 -26 60 35 -29 -30 30 -32 37 33 -35 -36 58 59 -39 53 -41 -42 -43 -44 -45 -46 48 -48 -49 -50 -51 52 -53 -54 -55 -56 -57 57 -59 -60 -61 -62 -63
leaf_value=0.022172567083460437 -0.0073477177913685819 0.015916758013869419 0.0042549186106653489 -0.005655889732961235 -0.0008824297035798026 -0.023732479572838999 0.0041459809719506966 -0.025515813540131362 0.027161258156345791 -0.0010428425550378971 -0.014101144189364052 0.0025375084011059219 -8.6577675467807767e-05 -0.013634992425812734 0.0098205679974263799 0.011505157058826748 0.01363766150977918 -0.0070808515465108539 -0.019742592961396091 0.0027606541981012654 0.01510463931449379 0.025292826441934931 -0.00010994297482665582 -0.0086783340716897802 -0.0075979635924991991 0.024312781222737632 0.01213636276193642 -0.014281468885050691 0.0085901412361982371 -0.0087060565092798876 -0.027141047735168025 -0.026723397147337222 0.0074250926092267414 0.020675067934465469 -0.0063344005693872149 4.7951253075030364e-06 -0.019516978853573931 -0.005356977242086159 -0.014116640275827536 -0.018765664224337071 0.0030269628738604894 -0.026219415635798389 0.0050256286329450556 -0.0026783278122823242 0.011580172622064296 -0.0090365795423532329 -0.00099524454288174059 0.0013479658512340323 0.012686048607220432 0.033342576199614289 -0.025402120744565704 -0.01560040606374224 -0.0088707737781259961 -0.00091478779104759475 -0.00010622344305832512 0.039039280825677071 0.013959892601359686 -0.0095710719387514815 -0.015919764436024397 -0.0070079797214027059 0.00041417188182531553 0.012595251074247513
leaf_weight=45.600812834687531 110.6247346336022 87.640155568253249 75.31925193965435 29.188066389877349 46.80011496366933 22.821424091234803 106.67360737733543 103.90074699185789 120.66117308381945 88.577791592106223 305.82702288683504 17.943112848326564 12.787561411969358 118.89000090351328 597.13932632189244 115.5522518903017 73.020839315373451 98.035611337982118 35.357174237724394 29.804826668929309 29.891327416524291 76.351310580037534 51.034866571892053 47.734631786588579 44.943277516402304 158.87017875909805 26.289456360973418 13.311720874160526 51.521901897154748 62.766126023605466 230.54158495785668 114.29385837167501 132.06435976410285 163.09732609149069 138.22499279445037 64.610357718076557 109.19301053555682 33.640985602978617 133.26512775011361 19.626774826552719 71.222002952825278 32.672733835410327 25.995469412300736 86.341746169142425 30.593167499639094 22.139820681884885 19.232798509299755 17.805582457222044 104.16063473140821 22.85089768469334 54.184595894999802 36.717987553216517 114.77398465201259 463.84838622063398 80.237410754431039 103.08410438150167 38.642168107442558 46.468079013284296 80.758156641852111 138.4990023993887 30.838898957241327 173.972670792602
leaf_count=992 2499 5180 2461 1977 1600 1208 6935 1215 6891 4915 17762 777 1130 3850 23539 4173 2747 1022 2350 984 1007 4467 3608 1226 1573 5706 1377 1075 1301 2355 7724 3647 10933 10029 5319 4739 2567 1086 2031 1158 1698 2400 1467 4142 1087 910 1135 1122 6008 1714 1629 1413 5041 12656 1405 3518 2173 2684 6021 3493 1067 6196
internal_value=3.89003e-05 0.00663115 -0.010006 0.000712641 0.0106888 0.0103345 -0.00245801 -0.00643587 0.00737399 -0.0163644 -0.00470504 0.00129981 -0.00884892 -0.00793626 0.00503271 0.00652521 0.0167123 -0.0169534 0.00440983 0.018826 0.0264895 0.00793355 0.0154959 0.00527858 0.00556711 0.0149404 -0.00141667 0.0123366 -0.00620456 -0.0182234 -0.0234081 -0.0144491 0.0130553 0.0149691 0.000681171 -0.00557674 -0.0069722 -0.0221986 -0.00509089 6.54121e-06 0.0111036 -0.0167136 -0.00966026 0.00552133 0.0306031 0.0157761 0.0210187 0.0240046 0.00867907 0.0228129 -0.0100525 -0.00264075 -0.0147501 -0.00350229 -0.00897424 0.0344014 0.00895169 0.00129436 -0.00907714 -0.0127995 0.0169609 0.0184652
internal_weight=5738.48 3465.71 2272.76 1412.01 2053.7 347.171 1064.84 1461.95 1331.88 810.816 892.09 365.655 526.435 1297.39 1047.88 937.258 721.819 201.936 315.039 603.855 193.373 253.687 127.386 164.557 117.964 410.482 220.608 48.9502 1095.45 722.238 293.308 428.931 324.35 295.162 340.119 171.658 1043.93 147.935 796.241 126.3 116.823 50.6158 61.3526 201.894 163.569 284 157.7 138.467 126.3 35.6385 280.996 112.037 168.959 677.351 213.503 132.975 172.75 85.1102 145.369 247.692 363.682 332.843
internal_count=236114 172387 63727 91164 81223 24147 67017 33456 55738 30271 56980 23162 33818 29540 39672 37173 25485 2237 19985 21165 6596 16168 8075 3916 4320 14569 16056 3919 27303 25356 10079 15277 22939 20962 13634 12137 26002 4733 19942 8093 2690 3177 3817 8315 5612 16066 9148 8013 6918 2844 10544 3874 6670 16092 3436 4525 10037 4857 10760 6060 12969 11902
is_linear=0
shrinkage=0.05


Tree=5
num_leaves=63
num_cat=0
split_feature=7 36 30 96 63 22 7 30 6 67 123 21 63 131 11 57 80 131 30 81 113 64 124 7 36 115 25 50 80 123 80 63 30 96 108 30 46 25 75 5 128 107 115 24 118 5 116 123 138 108 124 75 36 139 138 131 3 30 81 11 125 59
split_gain=114.783 27.2587 25.1957 24.488 14.0466 11.8067 9.27689 8.30908 8.27377 8.21037 9.60751 8.08591 7.97137 13.9863 8.8563 7.16245 7.12407 7.03625 6.6732 6.43213 6.36598 6.50574 6.18441 6.42549 5.97081 5.43108 5.91985 5.31689 5.2018 5.14544 5.08186 4.99642 4.8083 4.77464 4.76044 4.67467 4.66951 4.64307 4.48232 4.46784 4.43791 5.11649 5.16229 4.41322 4.35844 4.34129 4.21139 6.59404 6.19534 4.14587 3.95054 3.84323 3.79954 4.98217 3.76068 3.72818 3.68556 3.58456 3.56625 3.50745 3.45985 3.42823
threshold=-0.24346863478422162 0.89673915505409252 -0.18436925113201139 -1.7871694564819334 0.70746654272079479 1.214668393135071 -1.3892979621887205 -0.29026740789413447 0.61686739325523388 3.65057384967804 -1.9182403683662412 -5.4204206466674796 0.69274798035621654 0.0035231265937909488 -0.23108915239572522 7.2160902023315439 2.8318912982940678 -0.012291971128433941 -0.9686339497566222 0.17470664530992511 0.15545687824487689 3.0872167348861699 0.86158102750778209 -3.0859282016754146 0.68297103047370922 1.0647279024124148 1.2360784411430361 3.0677825212478642 1.8964927792549136 -3.607993364334106 1.6791832447052004 1.4035470485687258 -0.9686339497566222 -0.26364892721176142 8.8425478935241717 -0.77296444773674 0.25245594978332525 -0.24332362413406369 1.0000000180025095e-35 0.15463358908891681 6.0026509761810312 -7.531357765197753 1.35725474357605 0.1227877512574196 0.96976247429847728 -0.56055679917335499 0.14519006013870242 -2.2859938144683833 0.10743254050612451 -3.6455867290496822 5.797114610671998 4.8913896083831796 0.40398550033569341 0.41056221723556524 -0.057582465931773179 -0.11977699771523474 0.11391558498144151 -0.68355163931846608 0.87198722362518322 0.13644377887248996 -3.7645138502120967 -6.119837522506713
decision_type=2 2 2 2 2 2 2 2 2 2 2 2 2 2 2 2 2 2 2 2 2 2 2 2 2 2 2 2 2 2 2 2 2 2 2 2 2 2 2 2 2 2 2 2 2 2 2 2 2 2 2 2 2 2 2 2 2 2 2 2 2 2
left_child=2 3 5 56 7 22 29 19 17 20 39 12 13 16 -15 36 55 50 -13 -5 21 46 -1 -24 40 26 35 31 58 -4 -12 52 -27 -14 44 -21 -8 45 -16 -11 41 43 -43 -20 -10 61 48 -48 -6 -3 51 -9 -25 -54 -46 -7 -2 -29 -22 -34 -23 -31
right_child=1 49 6 4 9 11 15 8 34 10 30 18 33 14 38 -17 -18 -19 24 25 28 60 23 27 -26 32 -28 57 -30 37 -32 -33 59 -35 -36 -37 -38 -39 -40 -41 -42 42 -44 -45 54 -47 47 -49 -50 -51 -52 -53 53 -55 -56 -57 -58 -59 -60 -61 -62 -63
leaf_value=0.0046079097102024007 0.0020031130667042991 0.00342151197014238 -0.0054892262545625679 -0.012195409487209628 0.022372457853915534 0.014739426866708514 -0.014399706185083461 0.0024867392710439824 0.024829677844465076 -0.0057896347010973374 0.015132133375685912 -0.016554022712467371 -0.0081950398686198838 0.018655968982988377 0.0039985127725204305 0.0098618203606702197 0.0048421286560830432 -0.0074719890231791089 0.020806875454049696 0.010124907478330877 0.00416528011013414 0.0052811114346535152 -0.019324244282754709 0.0049739545271512871 -0.014293164791113332 -0.0096546376527687182 -0.0029897476278696127 -0.0055917129339678306 0.0096913327926732261 0.0096547116071512076 0.041152822360362551 -0.021943314566601074 0.013468287182670017 0.0048161723836885138 -0.0084031438973989903 0.020786172899598467 -0.0042129316761987555 -0.022528714076334177 -0.013060641815596068 0.019511556686505574 0.012110815273209263 -0.0013468108671596298 -0.015538050698266973 -0.0028397231385910511 -0.011342448365864274 -0.019206063308331051 0.016954244406555581 0.0051777509683236618 -0.0038046277313895233 -0.019278941658584445 -0.01472556614855359 0.019206745560482599 -0.018977291022133285 -0.0020867272909375085 0.014016386985362402 0.038621709137293757 -0.010767035663017897 0.011685659625642941 -0.024336906139586972 0.0018916030198021482 0.032732058920982181 -0.011988728828561921
leaf_weight=71.347428749781102 82.917968162335455 23.094024680089206 82.110830266494304 28.336643652059138 152.22001023311168 38.035788253881037 253.81942140916362 98.272633729502559 60.105812878347933 29.470403900370002 36.330899929162115 91.59876878047362 159.57167280372232 43.78540773363784 64.345695193856955 46.87219279864803 47.905683239921927 234.43989646015689 36.879871679469943 225.14420378627256 16.177938297856599 16.618650742806494 154.47319164592773 49.828135082498193 84.536256358027458 42.482190663460642 46.026294161565602 65.318603937979788 51.663754911161959 32.037904003169388 69.708068328443915 71.20698372926563 127.73919606814161 118.98784809187055 20.555104027036577 218.29465234046802 209.06488796370104 344.41969588212669 84.460149262100458 32.245045943185687 58.347884773276746 312.71595077123493 75.980865537188947 35.306423718575388 18.577440848574042 66.366597475018352 187.3690075930208 329.53021551668644 24.847262846771628 101.91948593687266 16.152249188162386 49.391649711877108 80.347413152456284 92.243863716721535 34.729592484422028 46.659397071693093 163.52783559495583 47.557310439180583 22.419499480631202 132.78362527769059 59.247986043337733 31.205784832127392
leaf_count=1303 4329 1506 2123 976 8917 1068 14234 6110 3866 1606 1945 3484 4245 1444 1790 3322 1487 14883 951 10554 1000 1072 1732 1019 1305 2593 471 1592 3224 1094 3702 1493 5988 4710 1560 7408 12514 8197 2114 1715 1716 8735 2100 1117 1373 1912 10693 19321 1393 6013 1091 3007 1715 1758 2317 1277 5812 1079 1418 3412 3784 983
internal_value=-7.48249e-05 0.00729062 -0.0068391 0.00838341 0.00993609 -0.00341802 -0.0129933 0.00654969 0.00166072 0.0143406 0.0244683 -0.000680734 0.00353701 0.00879695 9.62175e-05 -0.00799836 0.0209713 -0.00198155 -0.0043419 0.00969052 0.0122352 0.0136992 -0.00899236 -0.0107475 -0.00236843 0.0105447 0.0137908 -0.00729313 -0.000314361 -0.0174596 0.0333205 -0.0107898 0.00516218 -0.00265032 0.0121701 0.0155464 -0.00989297 -0.0194541 -0.00579385 0.00790128 -0.000309145 -0.00199462 -0.00428296 0.00980654 0.0160962 -0.0107506 0.0120141 0.0095681 0.0186955 -0.0151151 0.00586447 0.00852523 -0.00681504 -0.0102628 0.00496406 0.0293159 -0.00651606 0.00187456 -0.0132827 0.0077146 0.0274172 -0.00112056
internal_weight=5749.68 2752.34 2997.34 2627.33 2380.88 1931.44 1065.9 1353.03 532.224 1027.85 167.754 1299.12 603.752 325.192 192.591 509.757 132.601 398.256 695.366 820.807 860.094 769.833 632.323 560.976 603.767 792.47 489.465 406.502 90.2612 556.141 106.039 293.626 303.005 278.56 133.968 443.439 462.884 474.03 148.806 61.7154 519.231 460.883 388.697 72.1863 113.413 129.61 693.966 516.899 177.067 125.014 163.817 147.664 222.419 172.591 53.307 84.6952 246.446 112.876 38.5974 260.523 75.8666 63.2437
internal_count=236672 143059 93613 135540 125399 49234 44379 65609 34207 59790 8968 37543 18135 9180 5348 30070 3832 25091 19408 31402 50822 45180 11691 10388 15924 30426 18433 8656 5642 14309 5647 5985 11993 8955 9116 17962 26748 12186 3904 3321 14619 12903 10835 2068 7556 3989 40324 30014 10310 7519 10208 9117 4492 3473 3690 2345 10141 2671 2418 9400 4856 2077
is_linear=0
shrinkage=0.05


Tree=6
num_leaves=63
num_cat=0
split_feature=1 30 36 0 22 117 29 127 36 29 14 96 96 22 30 59 67 113 30 30 58 59 106 1 17 26 119 43 74 99 43 57 9 3 98 3 24 117 64 116 3 105 117 29 74 16 31 107 116 81 113 113 127 67 9 46 116 59 30 105 117 122
split_gain=99.7099 26.565 26.3865 16.7303 9.75781 9.12375 8.48509 10.8257 8.34801 7.63477 7.41546 7.41525 6.41049 5.93479 5.75562 5.58113 5.46218 5.25934 5.40339 5.16979 5.03273 4.97048 4.50394 4.46188 4.39123 4.20908 4.06321 3.96867 3.90865 3.67698 3.44624 3.30931 4.08376 3.26717 4.00438 3.26322 3.14802 4.01052 7.06005 3.20056 3.04831 3.01675 2.99712 2.97475 2.96785 2.89442 2.88541 2.84926 2.7701 3.65229 2.73587 2.71986 2.66146 2.65833 2.64938 3.25627 2.56323 3.30477 2.54019 2.48339 2.51661 2.45227
threshold=0.0097604813054204004 0.79989895224571239 0.70108696818351757 -0.29831628501415247 1.4051274061203005 0.33657924830913549 -0.58244305849075306 -0.050993423908948891 0.68659421801567089 -0.86046862602233876 0.31248623132705694 -2.3429795503616329 -3.1574168205261226 7.945693016052247 -0.22706275433301923 11.31612014770508 3.3497501611709599 0.1174350567162037 -0.29026740789413447 -0.96298784017562855 -1.1653698682785032 8.8016710281372088 10.011487960815431 1.388817369937897 2.3757897615432744 0.71837928891181957 0.65054118633270275 4.8864288330078134 10.852119922637941 -1.0000000180025095e-35 -2.0013839006423946 6.1057665348052987 10.256011962890627 -0.37436971068382258 0.33338323235511785 0.55520111322402965 -6.7064111232757559 1.1497605443000796 0.46160484850406652 0.23817664384841922 -0.98767846822738636 4.7050054073333749 1.1760800480842593 0.60003554821014415 -0.4785818457603454 0.031500741839408881 1.0000000180025095e-35 -1.661197245121002 0.25076012313365942 0.77703866362571727 0.16910894960165027 0.060368143022060401 -0.29215179383754725 2.4414010047912602 -1.6479442119598386 0.22554339468479159 0.32381799817085272 -3.0556244850158687 0.26932403445243841 2.1383330821990971 1.0928521752357485 4.4050455093383798
decision_type=2 2 2 2 2 2 2 2 2 2 2 2 2 2 2 2 2 2 2 2 2 2 2 2 2 2 2 2 2 2 2 2 2 2 2 2 2 2 2 2 2 2 2 2 2 2 2 2 2 2 2 2 2 2 2 2 2 2 2 2 2 2
left_child=1 3 5 4 36 16 7 27 9 -6 25 40 41 -9 19 17 -2 18 24 42 -3 -16 26 -19 29 30 35 48 54 -12 -7 -24 -33 44 50 -17 -1 39 -39 -38 -11 47 -14 -36 -21 -32 -8 -5 59 51 -35 -50 -13 -49 -10 -56 58 -58 -47 60 -4 -61
right_child=2 20 6 12 8 10 46 13 28 11 15 52 14 -15 21 22 -18 23 -20 33 -22 -23 31 -25 -26 -27 -28 -29 -30 -31 45 32 -34 34 43 -37 37 38 -40 -41 -42 -43 -44 -45 -46 56 -48 53 49 -51 -52 -53 -54 -55 55 -57 57 -59 -60 61 -62 -63
leaf_value=-0.020964967381100166 -0.019118125534984445 -0.031465975786285065 -0.0047627060649483976 0.0046484005244483324 0.0082542941548409549 -0.0017257783301031738 -0.017924970385932222 -0.013072873616192433 -0.004150394027320742 0.00073527015896934105 0.023318846951704938 0.012912610385953796 -3.9861001903001713e-05 0.0058091526261804388 -0.0059043306300394505 0.017687845490433451 0.01033009441858674 0.007572798910667207 0.0051365329377237702 0.0075625358870621542 -0.014070008728969031 0.0087473588847523463 -0.0010310883493597296 -0.01196557257522003 0.0047680891352150229 -0.0074214550896194486 0.013511588552928715 0.022984579837760467 0.0026710100722798871 0.01339186357297821 -0.0031436819166810849 0.030173272796958268 0.001883997018909447 0.016483811957088642 -0.0015355612115470828 0.04350986616751585 -0.01598508456764729 0.0081247047281610765 -0.012312411337944912 -0.0065732992032600385 -0.013433489264625623 -0.01888060980195046 -0.017222571135183828 0.01553841012616794 -0.003480847648967585 0.012338918248164896 0.0024593129707201817 -5.6553860738603372e-06 0.003660286255338568 0.0077914357974184674 -0.0028933440604912639 -0.02019306141356398 -0.0015925090643793126 -0.015363141309400986 -0.026303242362131996 -0.010536749261618834 0.014829849005652146 -0.0046254173181300229 0.0024487306981912319 0.02603634911887099 0.014193108773985481 0.0032164293502625479
leaf_weight=92.486842246260494 37.971494822762907 99.649032285902649 38.563302637543529 52.219028807710856 135.72245376231149 80.01494154240936 90.904384286608547 139.55802864348516 41.936188413295895 45.108797874301672 195.89243695791811 29.249169684015214 82.962617420125753 55.05805650446564 331.31570207607001 31.158198695164174 20.873377697076648 148.88438601559028 149.73624719167128 109.69638656778261 92.906513759866357 65.30990883987397 33.769805355463177 31.371260314248502 76.941128084436059 42.845688599161804 46.755638489034027 32.838077719788998 31.721405065152794 236.75706926966086 43.110240043606609 27.128218587953597 22.331459722481668 157.6927508758381 100.01866906136274 42.912387117277831 321.96379288705066 67.10820151027292 98.18493645824492 139.31466983677819 218.82399129634723 45.863096833694726 31.577480847015977 28.911270698998123 125.10730871465057 515.52029389049858 19.836053895764053 47.708551077637821 17.304136996623129 47.725276968907565 18.975432361010462 25.931988336145878 408.53881554026157 63.844775335863233 73.5451660878025 75.377440892159939 27.594602535478771 61.481518769171089 77.408839222043753 29.843889465555549 24.632176271174103 20.1674021682702
leaf_count=1582 1961 3558 2261 1317 1837 4124 4983 8488 1729 606 8009 1405 4244 3910 20226 1707 876 6745 9362 2938 5189 4940 1618 513 790 606 1871 1824 1486 9192 2094 1192 1174 8368 3507 1222 6294 1317 2185 2858 5554 985 1542 1459 3516 24531 1119 1160 1041 2941 957 1472 18709 1551 2504 2752 1481 2847 5690 1754 1379 1288
internal_value=-6.92783e-05 -0.00585951 0.00743654 -0.00469635 -0.00781234 0.0101435 -0.00230218 0.000911254 -0.00472692 -0.0024033 0.0107505 -0.00450845 -0.000287373 -0.00771933 0.00131411 0.0135817 -0.00868135 0.0116481 0.0137096 0.00418088 -0.0236411 -0.00341286 0.0210683 0.00394122 0.0161543 0.00720686 0.0272083 0.00801127 -0.0132245 0.0181016 0.00802632 0.0111179 0.0187461 0.00622038 0.00958825 0.034453 -0.0122968 -0.0108614 -0.00402011 -0.0132435 -0.0110433 -0.00816417 -0.00529918 0.00273027 0.00172855 0.00910689 -0.0143252 -0.00469267 0.00511112 -0.00137729 0.0143802 -0.0112565 -0.000488537 -0.00907713 -0.0158671 -0.0189245 0.0098985 0.00186943 0.011079 0.0101623 0.00312475 0.0179628
internal_weight=5725.66 3232.84 2492.82 3040.28 1779.08 1950.46 542.363 431.622 1060.02 837.443 1891.61 701.721 1261.2 194.616 1051.57 1043.64 58.8449 839.583 659.327 654.942 192.556 396.626 204.056 180.256 509.591 847.976 120.826 237.006 222.58 432.65 805.13 83.2295 49.4597 540.402 305.598 74.0706 719.058 626.572 165.293 461.278 263.933 209.635 114.54 128.93 234.804 725.115 110.74 163.772 204.168 90.9614 176.668 43.2361 437.788 111.553 190.859 148.923 682.005 89.0761 592.929 113.207 63.1955 50.0113
internal_count=236340 116275 120065 107528 50818 87605 32460 26358 36582 28111 84768 26274 56710 12398 51697 43395 2837 34611 27353 26531 8747 25166 8784 7258 17991 41373 4800 13960 8471 17201 40767 3984 2366 20745 14291 2929 14236 12654 3502 9152 6160 5013 5786 4966 6454 36643 6102 4028 12136 5454 9325 2513 20114 2711 6985 5256 34549 4328 30221 6682 3640 3042
is_linear=0
shrinkage=0.05


Tree=7
num_leaves=63
num_cat=0
split_feature=2 36 36 10 14 1 29 113 29 1 63 1 59 20 14 137 138 74 46 108 131 80 108 141 128 114 96 130 63 131 119 20 126 113 59 108 119 6 124 126 60 20 67 128 80 80 22 77 119 80 119 30 107 108 135 67 67 131 74 10 131 80
split_gain=104.557 21.9777 21.753 13.4234 12.431 10.8324 8.23657 7.26456 6.69879 7.69806 7.26203 6.25241 5.77552 6.26958 6.40902 5.80078 5.7719 5.61401 5.50203 5.37228 5.20519 4.89394 4.79085 6.11231 4.70905 4.41783 4.39471 4.32821 4.28863 6.20229 4.14048 4.21245 4.11799 3.93177 4.64519 3.87407 3.85285 3.84846 3.8422 6.82772 3.68329 4.01559 4.22373 4.39488 3.47538 4.20196 3.46954 3.39364 3.27485 3.24252 3.19904 3.11646 4.18911 5.66923 5.1216 5.0682 5.01066 4.4126 3.6479 3.62376 3.09224 3.04522
threshold=-0.076765146106481538 0.87137678265571605 0.69021740555763256 0.4580076932907105 -0.040242414921522134 0.11683785915374757 -0.52803644537925709 0.11608349904417993 -0.86046862602233876 -0.27671319246292109 0.38190416991710668 -1.1546656489372251 7.2302150726318368 0.30426929891109472 0.74994498491287243 0.11067837476730348 0.025765803642570976 -5.2286140918731681 0.2395790442824364 7.2716655731201181 -0.1466388404369354 0.83822017908096325 -4.3368794918060294 0.83827248215675365 4.8481087684631357 0.62419527769088756 -2.2208875417709346 0.010017346125096084 0.71501228213310253 -0.15012894570827481 0.69317403435707103 5.8740105628967294 4.586705446243287 0.059595903381705291 1.1283190250396731 6.8277790546417245 0.67280322313308727 1.450884282588959 3.0923101902008061 8.7007222175598162 4.3778729438781747 0.35859604179859167 2.4414010047912602 2.9174053668975835 5.4669818878173837 1.3705422282218935 10.664298057556154 -11.201251983642576 0.5541919767856599 0.85336333513259899 0.68391171097755443 0.076279435306787505 0.77582496404647838 -1.0000000180025095e-35 0.68301269412040722 3.1567740440368657 3.6242519617080693 -0.012291971128433941 -4.9254245758056632 -0.56926047801971424 0.09886490181088449 1.4910469651222231
decision_type=2 2 2 2 2 2 2 2 2 2 2 2 2 2 2 2 2 2 2 2 2 2 2 2 2 2 2 2 2 2 2 2 2 2 2 2 2 2 2 2 2 2 2 2 2 2 2 2 2 2 2 2 2 2 2 2 2 2 2 2 2 2
left_child=2 3 4 5 8 26 11 17 10 37 -1 -4 13 15 28 21 -9 -5 24 20 -14 -7 -3 -24 61 -23 -2 47 49 -30 31 -16 -26 38 -35 36 -28 46 -19 -40 41 42 43 -20 45 -21 -10 -17 -25 -15 -22 52 53 54 56 57 58 -55 -6 -53 -59 -13
right_child=1 22 6 7 51 12 -8 16 9 -11 -12 18 19 14 30 27 -18 33 40 44 50 25 23 48 32 -27 35 -29 29 -31 -32 -33 -34 34 -36 -37 -38 -39 39 -41 -42 -43 -44 -45 -46 -47 -48 -49 -50 -51 -52 59 -54 55 -56 -57 -58 60 -60 -61 -62 -63
leaf_value=-0.0073254087580895055 -0.011924053698161206 0.0078150390356141602 -0.020958847145190973 0.017822564524201692 0.016100621817403751 0.0059128604432474793 -0.026421874618288946 -0.020463163768742704 -0.011017945576668733 0.00013865731990781444 0.0095313498238963346 -0.020845072845514658 0.00036547031395462001 0.0097266336380640722 0.01181807165678146 0.0085266036779033921 0.0039135286546060355 -0.014824283444335741 -0.0077924088279256011 0.015501853063566814 0.025433833013315577 0.025979923716595407 0.012031123583042569 -0.00036232543037662262 0.0070161616059743227 0.011664858666258307 0.010665118977286857 0.017523067559890311 -0.011263658841824639 0.012794474818620175 -0.00037234158192756965 0.033483160529558124 -0.013143560655134013 -0.0049763747834881671 0.019891104107159985 -0.0016093865678439429 0.00089015107176119036 0.0011160853019403869 0.015486864301824966 -0.013778282351366248 0.012751761563877046 -0.01542400679077313 -0.010956310544860957 0.015766843410120211 0.019648871729750932 -0.0086824446188544843 0.0028011459472038693 -0.0095530406624773495 -0.020788864263637147 -0.0029330681939727355 0.010376618597440514 0.006835157803306827 0.011556114561757539 0.012820333631121172 -0.005520423548985659 -0.01194083431557154 0.028253566991140417 -0.012268414487114132 0.00025778480686273542 -0.010797656047449603 0.0042642236350744142 -0.0065009425346329837
leaf_weight=121.50492492457852 33.842749300878495 29.061567895114422 131.66341872978956 51.224950601346791 55.28463921835646 71.307291090022773 106.07282465742901 62.626274949405342 962.9962053229101 251.6718932534568 124.19542656093836 148.76380755379796 28.762243359815329 60.726663589011878 66.938608824741095 46.604404416400939 35.70562557503581 53.800974318757653 27.600179138127714 23.257576910313219 223.02861702442169 172.36742426874116 17.219253484159708 24.160925740376115 45.293289204593748 96.631068112328649 325.17573045147583 45.527914179023355 27.347186684142798 180.37727305619046 28.98641129443422 37.835924745071679 46.574510328471661 30.699417338706553 37.537747434340417 145.1993544860743 146.50958655588329 77.434787245932966 38.958656559698284 31.562325653620064 29.204514679964632 57.764218875207007 47.428508458659053 48.39981745602563 29.531869972124696 44.290891291107982 45.756750672589988 47.241516497451812 103.74535103980452 214.47722420515493 53.412419306579977 38.033826356753707 110.15606101462618 53.603198969271034 61.931714117992669 110.41714689834043 28.984407000709325 52.247537523042411 91.874240429606289 89.879029377363622 52.116963396314532 56.588321071118116
leaf_count=1437 1142 1916 2045 1833 1957 3601 3928 2057 24116 13311 1658 5816 1370 2750 2704 2650 1201 1833 1184 1135 10065 8219 1004 1379 1958 4533 20602 2637 1441 9334 1142 1270 1998 1193 1177 9569 9203 3100 1323 1147 1744 2646 2004 2134 1431 2051 1785 2585 6347 9686 2624 2661 4862 1765 2099 3786 1028 1657 3176 4529 1628 2425
internal_value=3.127e-05 0.00727061 -0.00624922 0.00847397 -0.00385317 0.00993506 -0.0136577 -0.000716388 -0.0063522 -0.00774136 0.00121542 -0.0113512 0.0122718 0.0103016 0.00687613 0.0145891 -0.0118506 0.00392258 -0.00867904 0.017449 0.02069 0.0180845 -0.00969792 -0.0133484 -0.0130058 0.0211443 0.00450086 0.00572368 0.00410514 0.00943689 0.0163721 0.0208105 -0.00335516 -0.000132606 0.00912746 0.00549057 0.00767011 -0.00955944 -0.00537161 0.00234393 -0.0024068 -0.00512687 0.000105036 0.00725818 0.00674559 0.000138933 -0.0103804 -0.000597445 -0.0170892 -1.58545e-05 0.0227606 0.00146902 0.00294619 0.000978847 0.0065259 -0.00397111 0.0107968 0.00179505 0.00654311 -0.00549479 -0.00419494 -0.0171408
internal_weight=5739.13 2665.68 3073.44 2491.5 2328.09 2149.38 745.353 342.116 1583.56 1337.86 245.7 639.281 1498.65 1096.37 616.689 479.68 98.3319 243.784 507.617 402.284 305.203 340.306 174.187 145.126 297.22 268.998 650.727 139.374 482.928 207.724 133.761 104.775 91.8678 192.559 68.2372 616.885 471.685 1086.19 124.322 70.521 210.397 181.193 123.429 76 97.0803 67.5485 1008.75 93.8459 127.906 275.204 276.441 744.529 616.616 506.46 238.075 268.385 176.143 157.968 147.159 127.913 104.365 205.352
internal_count=236591 134154 102437 123508 74555 111744 27882 11764 45407 42312 3095 23954 71228 52552 28327 24225 3258 8506 21909 18676 14059 16353 10646 8730 12197 12752 40516 7872 23211 10775 5116 3974 3956 6673 2370 39374 29805 29001 4303 2470 9712 7968 5322 3318 4617 3186 25901 5235 7726 12436 12689 29148 21958 17096 8260 8836 6161 5050 5133 7190 3285 8241
is_linear=0
shrinkage=0.05


Tree=8
num_leaves=63
num_cat=0
split_feature=12 36 12 36 29 23 114 29 122 80 11 137 11 64 130 116 132 116 117 130 5 116 64 3 130 85 75 118 106 130 138 123 117 124 106 19 117 138 19 29 138 23 13 132 127 130 108 114 80 29 106 130 58 106 19 108 117 80 137 5 130 64
split_gain=92.7738 27.8186 23.1316 16.716 9.60215 7.75737 7.63359 7.56154 8.27858 9.14781 7.3191 6.65641 6.58353 6.40613 6.25287 5.82787 6.61065 5.52837 6.14304 5.20074 7.09006 4.93163 5.83961 6.93493 5.52996 5.35659 4.89066 6.53987 7.68331 4.75525 4.71332 4.89187 5.29147 4.6297 7.20433 4.83919 4.28772 4.26928 4.24362 4.2212 5.71562 4.59696 4.05145 3.84033 3.77056 3.72863 3.72286 3.71656 6.85099 4.27741 4.25572 4.13143 3.73098 3.66859 3.61923 3.51029 3.45653 3.33853 3.28113 4.02096 3.27478 6.98519
threshold=0.28427973389625555 0.89673915505409252 0.71907302737236034 0.68659421801567089 -0.89194178581237782 8.6990480422973651 0.47087918221950537 -0.91959547996520985 10.815281391143801 1.0755395889282229 0.46041847765445715 0.090035811066627516 -0.13259825855493543 0.72554075717926036 -0.012994403950870035 0.19982828199863437 0.60357144474983226 0.16097354888916018 1.2456277608871462 -0.01821731403470039 -0.21696013212203977 0.14646704494953158 3.0872167348861699 1.046699106693268 0.007218046812340618 1.4978661537170412 -7.6480984687805167 1.1232337355613711 3.8406133651733403 -0.0089732520282268507 0.078022554516792311 -0.15362409502267835 0.93754065036773693 0.86158102750778209 2.0262367725372319 0.58345440030097973 0.86867964267730724 -0.18372590094804761 0.5186961591243745 1.0000000180025095e-35 -0.063909821212291704 10.740968227386476 0.13161528855562213 0.57603687047958385 -0.09281682968139647 -0.016659925691783425 -4.2353792190551749 0.53916853666305553 2.2959580421447758 -0.58244305849075306 11.779899120330812 -0.0035843190271407361 4.3618977069854745 11.43546772003174 0.70254218578338634 7.4931218624114999 1.0447064042091372 1.0598754882812502 0.10238783061504365 -0.12194646149873732 -0.012262735050171612 0.92790722846984874
decision_type=2 2 2 2 2 2 2 2 2 2 2 2 2 2 2 2 2 2 2 2 2 2 2 2 2 2 2 2 2 2 2 2 2 2 2 2 2 2 2 2 2 2 2 2 2 2 2 2 2 2 2 2 2 2 2 2 2 2 2 2 2 2
left_child=3 2 7 4 6 17 -1 8 9 -2 21 15 13 19 39 16 -12 18 -6 -7 -21 47 23 44 -24 -25 27 28 -14 -16 31 32 -31 34 -5 53 -13 -19 -38 58 41 -41 -15 -17 -23 -11 -32 51 49 -49 -50 52 -4 56 -27 -46 -35 -28 59 -9 -39 -62
right_child=1 -3 10 33 5 12 -8 14 -10 45 11 36 26 42 29 43 -18 37 -20 20 -22 22 24 25 -26 54 57 -29 -30 30 46 -33 -34 35 -36 -37 38 60 -40 40 -42 -43 -44 -45 55 -47 -48 48 50 -51 -52 -53 -54 -55 -56 -57 -58 -59 -60 -61 61 -63
leaf_value=-0.0048380526303092057 -0.0090755744732437683 -0.015845344350120593 0.021170692757005977 0.011346900372271327 -0.020934839291303204 -0.0046695626892575134 0.014884717955798432 -0.011395210586241111 -0.023678629418598864 -0.0056505691963297617 0.016400714207517417 0.0014531812866756841 -0.0069760234525924935 -0.011998367753604279 0.01921967657991723 -0.020290184744474894 -0.009774854625663798 0.0068140285679774999 0.0011096099239120347 0.024674637082336082 0.00060178675270812737 0.015214050266095812 0.0082974743349318279 -0.0086021850098671783 0.034779330910868086 -0.00065122357326205039 -0.00010032939688573852 -0.015179673457991948 0.020114803217830657 0.012667342946216542 0.0084432227087567532 -0.0052632976565883446 0.0037823002198484924 -0.019339097714092913 -0.01736305555041796 -0.025591201647530211 0.0071200342458723337 -0.016163753659288085 0.029283298826503608 -0.0027917409754413436 -0.012453067946530122 0.021105725028847108 0.0012705057480806644 0.00029402971362975274 0.0098228600982458898 0.011581289384877239 -0.0064290334336424351 -0.018105475906212583 0.028131656736679785 0.0084162970358498453 0.0014847738764101153 0.027439500934404976 -0.00075446111325449823 0.0014876038628505175 0.018227056651820235 -0.0027298918044395314 -0.0081885453993672131 -0.013718820671217425 0.015056771877852574 0.0078258881945834757 0.001093996798805408 -0.015491287239835408
leaf_weight=94.69277594704181 178.23285412183031 148.83917382359505 37.631509483326226 37.213996562175453 186.02049302635714 52.271263483911753 92.849590159486979 42.598869035486132 43.029879910405725 38.793152266647667 53.870076175779104 69.88439889671281 46.928873287048191 96.087051001377404 57.039477549027652 49.510767042636871 36.55255795782432 43.422803670167923 37.283015485852957 62.710436359513551 56.254748004022986 308.58711128868163 41.909965022932738 86.572523768059909 40.72528386162594 54.372982682660222 54.71738439751789 43.265737962443382 49.150409557390958 313.59389040339738 54.802224508486688 74.689007620327175 366.62130577117205 210.07118984498084 40.65174995502457 129.85514441691339 50.448486595414579 112.0792514490895 39.510046305134892 79.702195478137583 133.89554812386632 21.528027187101543 131.53495104704052 38.536845940165222 289.59284250158817 117.39547794125974 138.09190825931728 22.345295047853142 44.559547954238951 29.660665696021169 22.310296683106571 122.11977404123172 35.001263089943677 34.321746028959751 42.08733380259946 66.357720445841551 119.82798705855384 250.41563527844846 46.51559350406751 58.53091724589467 150.79636632837355 103.889386522118
leaf_count=1003 6480 8864 2143 1143 5424 1680 1020 2026 1378 1265 1642 1736 1053 2157 3088 1336 1080 1871 1199 1862 2328 17465 2182 2997 2109 1817 1281 1002 1320 17391 2989 4253 20367 7063 1445 2632 1418 3343 918 4737 7020 1279 5816 1000 16815 3710 7362 1391 2159 1624 1201 6203 1677 1395 1369 4262 4078 6063 2638 3203 4213 3285
internal_value=-0.000114615 0.00497047 0.00591834 -0.00805753 -0.00549413 -0.00684687 0.00505938 0.00197353 -0.00426246 -0.00145218 0.0102991 0.00370835 -0.00367181 0.000992303 0.00367903 -0.00290996 0.00586172 -0.0110118 -0.0173106 0.00817175 0.0137748 0.0120697 0.0101382 0.00879898 0.0225883 0.000169516 -0.0078217 -3.94218e-05 0.00719206 0.00574276 0.0048351 0.00660859 0.00794104 -0.0154049 -0.00378511 -0.0171799 0.0109621 -0.00741564 0.0178836 -0.00174279 -0.0058563 0.00304458 -0.00446824 -0.0117492 0.0111568 0.00725883 -0.00209718 0.0175497 0.00994025 -0.00356779 0.0199631 0.0218293 0.011237 -0.013875 0.00807802 0.00747733 -0.0154716 -0.0113177 0.00478524 -0.000426019 -0.00916933 -0.00583935
internal_weight=5732.36 3496.05 3347.21 2236.31 1664.37 1476.83 187.542 1765.06 377.451 334.421 1582.15 338.313 843.336 398.858 1387.61 178.47 90.4226 633.491 223.304 171.236 118.965 1243.83 930.206 847.571 82.6352 183.033 444.478 139.345 96.0793 1004.84 947.798 754.904 680.215 571.942 77.8657 494.076 159.843 410.188 89.9585 382.771 235.126 101.23 227.622 88.0476 664.538 156.189 192.894 313.628 118.876 52.006 66.8698 194.753 72.6328 364.221 96.4603 355.951 329.899 305.133 147.645 101.13 366.765 254.686
internal_count=236270 172594 163730 63676 45920 43897 2023 89186 12833 11455 74544 9130 24562 13843 76353 5058 2722 19335 6623 5870 4190 65414 49016 44725 4291 6183 10719 3375 2373 55450 52362 42011 37758 17756 2588 15168 4072 12712 2336 20903 13036 6016 7973 2336 38542 4975 10351 16398 6375 3015 3360 10023 3820 12536 3186 21077 11141 7344 7867 5229 10841 7498
is_linear=0
shrinkage=0.05


Tree=9
num_leaves=63
num_cat=0
split_feature=12 12 30 30 30 59 114 118 23 124 28 10 36 10 103 123 5 134 119 116 67 47 43 10 119 118 113 9 67 139 138 0 117 138 106 138 36 125 30 126 137 124 30 125 28 123 139 11 116 23 138 116 130 118 98 9 59 67 75 7 130 123
split_gain=91.424 25.0404 16.7262 14.2328 12.85 10.3561 8.90625 7.95598 7.9415 7.71656 8.41008 7.5896 6.84734 6.20874 5.98618 5.66249 5.5068 6.62192 7.5054 5.4937 8.77317 5.77875 5.11145 5.01174 5.0035 5.18595 5.03643 4.98276 4.69356 4.66346 5.71542 4.65973 4.61421 4.72262 4.6012 4.32859 4.62602 4.32146 4.30088 4.52717 4.13118 4.39704 5.0407 4.46267 4.08206 3.93188 3.96421 3.89875 3.91318 3.7979 3.62113 5.29293 4.8939 3.62048 3.59176 3.46376 3.45728 3.94576 3.35475 3.25643 3.18145 3.17568
threshold=0.28427973389625555 0.71162810921669017 -0.18436925113201139 0.74455857276916515 -0.22706275433301923 11.31612014770508 0.77102681994438182 1.2496507167816164 10.442112445831301 0.86158102750778209 -0.033608149737119668 -0.35411627590656275 0.90760871767997753 -0.12157372012734412 1.5000000000000002 -1.3084799051284788 0.23128250241279605 1.0000000180025095e-35 0.5652727782726289 0.16647350043058398 2.8029010295867924 0.030492780730128292 0.28566408157348638 -0.61173585057258595 0.72079432010650646 1.3897969722747805 0.012496082112193109 1.4256865382194521 2.4414010047912602 0.69160249829292308 0.087964728474617018 -0.45924888551235193 0.81215023994445812 -0.052665179595351212 4.0197958946228036 0.023343789391219619 0.40760868787765508 -3.5627825260162349 -0.96298784017562855 1.8586716055870058 0.25208672881126409 3.3178782463073735 -0.72982063889503468 -3.7645138502120967 -0.40834559500217432 -3.551129817962646 0.49019254744052893 -0.38575644791126246 0.17325916886329654 12.72421455383301 -0.052665179595351212 0.16970790177583697 -0.01328294165432453 0.93186271190643322 0.59560060501098644 -3.4641305208206172 11.967366218566896 2.3502402305603032 11.522016525268556 -1.0046727657318113 0.0054602767340838918 -0.78228807449340809
decision_type=2 2 2 2 2 2 2 2 2 2 2 2 2 2 2 2 2 2 2 2 2 2 2 2 2 2 2 2 2 2 2 2 2 2 2 2 2 2 2 2 2 2 2 2 2 2 2 2 2 2 2 2 2 2 2 2 2 2 2 2 2 2
left_child=2 4 9 5 13 6 19 12 22 10 -1 56 23 14 -2 37 17 29 -19 20 21 -3 -8 -6 25 26 -21 50 -9 38 -31 58 33 -5 -29 -22 -37 -10 -11 -40 41 42 -7 -44 45 -13 -47 -24 -49 55 51 -16 -52 -23 -41 -25 57 -4 -15 -48 -36 -62
right_child=1 3 11 32 7 40 8 28 15 16 -12 44 -14 31 27 -17 -18 18 -20 24 35 53 47 49 -26 -27 -28 34 -30 30 -32 -33 -34 -35 60 36 -38 -39 39 54 -42 -43 43 -45 -46 46 59 48 -50 -51 52 -53 -54 -55 -56 -57 -58 -59 -60 -61 61 -63
leaf_value=0.022000172262008094 -0.0064067508850479517 -0.013336708947585391 0.0036416103624518034 0.022990682636919408 0.0065440106597319725 0.013556947139995924 0.010603643647044423 -0.0027338504109772643 0.013132292750303457 -0.012275230556009363 -0.0014613680881693444 0.001000369017800074 -0.023087677050997214 -0.0092363262015911479 0.0076785872248489526 0.025225401260684066 0.0025730727041626726 0.0031289094334675891 -0.017892649545237751 -0.0048479746493785281 0.029596175947632971 0.0062927247919627258 0.0069864599221001319 0.00062153544040839106 -0.0083674547668520297 0.029798269635855891 0.0095958859022155368 0.024215220784718636 0.022433064746579801 -0.0041260994859828046 -0.023334138193459836 0.0039206129342526366 -0.012539630833892375 -0.0054465319537315929 -0.0046105741400267099 0.026165123043981189 -0.0006506996427805995 -0.014751605133575405 -0.012850349990354608 -0.0018078163768546398 0.0076281527438649679 0.013626526155796606 0.013051328596045887 0.043417440983186097 -0.021166255960038433 0.0026808988081373697 -0.019565464343220595 -0.00063100788476851133 -0.019999706931225457 0.0048512230470825809 -0.0057545452428640446 0.035747468411774917 0.017342517031814383 0.020669868220115468 0.0085447793302353362 -0.01062930892566312 0.0061805791581035661 -0.013137578390445829 0.0039997701020959738 -0.0030786825471704506 0.00070250132764978189 0.01952995517124613
leaf_weight=46.454999451525509 51.736271163914353 22.528305965475738 45.167238843627274 18.537743574474007 81.617829741444439 46.73507008003071 34.224137761630118 32.096569309011102 24.874682699330151 102.4026722968556 146.12083129724488 46.661900838837028 50.767513640224934 138.76569177024066 30.605557363014668 39.570929363369942 159.08771052630618 50.560887062456459 222.15343666123226 65.777856454718858 112.65778862079605 135.26961564691737 24.905357244424522 85.673483633901924 40.767502654343843 24.174577075988054 482.90227437298745 23.264608651399612 35.883485061582178 91.662198115605861 65.658134877681732 513.8521543610841 86.68775036605075 34.702365914359689 81.982258297037333 24.365789535921067 35.035179949365556 20.978477865457535 69.056641942821443 386.25482160132378 68.311826353427023 102.71187298092991 21.978516411036253 57.442899631336331 275.78527520410717 27.840335482731462 184.07793798390776 39.10995724843815 75.317906741052866 59.931175669655204 30.6379458559677 44.282760911155492 67.202110186684877 65.317795726004988 101.62364035658538 324.32284449227154 45.646912348456681 127.14740881323814 68.273150122258812 38.061466166749597 53.124259870965034 34.220967771951109
leaf_count=650 2421 914 2319 1227 7661 1804 2048 2256 1162 2919 3910 1802 3118 3798 1514 1873 5712 1112 4579 3012 5215 6435 1542 5491 2053 1096 22373 1137 2544 1656 1037 18923 5482 2123 4516 1172 1359 1108 1466 8538 2869 4684 1109 2843 9017 1169 5362 1584 2656 4951 1500 2215 3358 3085 1954 19923 2513 5591 2040 2499 2863 1964
internal_value=5.85996e-05 0.00508331 -0.00784593 0.00942138 0.000978499 0.0107865 0.00875467 -0.00449303 0.000470114 -0.00461331 0.00461178 -0.0136736 -0.00633913 0.00420699 0.0090247 0.0125345 -0.00604901 -0.00731415 -0.0140091 0.0108687 0.0154771 0.00863159 -0.00565262 -0.00460393 0.00779978 0.00901278 0.00783616 0.0112671 0.0111774 -0.00500679 -0.0126145 0.00137683 -0.00569126 0.00557878 0.00551749 0.0238595 0.0115264 0.000178924 -0.0031103 -0.00133093 0.0191659 0.0223729 0.028703 0.0362848 -0.0166868 -0.0122405 -0.0146832 -0.00987462 -0.0136833 -0.00658863 0.0173423 0.0254747 0.0101817 0.0113632 0.000413405 -0.00829915 -0.0055632 -0.00876074 -0.0048802 -0.0168706 0.00232768 0.00873696
internal_weight=5744.55 3513.13 2231.42 1704.89 1808.24 1564.96 1267.78 670.293 258.981 1441.04 192.576 790.388 602.313 1137.95 417.057 85.4241 1248.46 1089.37 272.714 1008.8 395.174 223.116 173.557 551.545 613.622 572.855 548.68 365.32 67.9801 816.658 157.32 720.891 139.928 53.2401 192.592 172.059 59.401 45.8532 659.338 556.935 297.18 228.868 126.156 79.4214 572.427 296.642 249.98 139.333 114.428 469.928 172.728 74.8883 97.8401 200.587 487.878 409.996 217.962 172.315 207.039 222.139 169.327 87.3452
internal_count=236826 173021 63805 80828 92193 71996 58687 45944 11973 33533 4560 30272 41144 46249 21488 4143 28973 23261 5691 46714 18180 10434 7830 38026 28534 26481 25385 19067 4800 17570 2693 24761 8832 3350 10480 7746 2531 2270 14877 11958 13309 10440 5756 3952 19849 10832 9030 5782 4240 30365 8587 3729 4858 9520 10492 25414 10423 7910 5838 7861 9343 4827
is_linear=0
shrinkage=0.05


Tree=10
num_leaves=63
num_cat=0
split_feature=12 36 139 12 60 20 2 60 107 14 36 64 127 130 11 108 36 115 20 121 63 9 15 122 127 47 131 122 98 85 108 119 80 11 139 115 115 123 137 8 116 119 108 63 108 131 63 4 84 123 77 126 64 132 36 20 141 139 115 108 121 11
split_gain=92.8881 20.9644 15.5293 15.2027 10.5599 11.3065 7.65085 7.05957 6.17314 5.82609 6.08106 5.81542 7.29781 8.82174 7.41542 6.42744 6.22559 5.60148 5.51938 5.90815 5.38275 6.04037 5.87914 5.28172 4.94498 4.82927 4.77336 5.1259 5.56364 4.84445 5.00003 6.07119 4.84424 4.80567 4.73633 8.83492 5.49837 4.57145 4.54253 4.45783 4.43176 4.43068 4.68636 5.24986 5.3658 4.35422 4.33259 4.29817 4.1997 4.06431 3.99363 5.30917 3.97713 3.94935 5.33563 6.16518 3.91081 3.85775 3.7785 3.57595 3.45214 3.4332
threshold=0.33034449815750128 0.90036234259605419 0.73429951071739208 0.70376530289649974 7.907480239868165 -0.058993922546505921 -1.0393619537353513 8.8211727142334002 5.281217336654664 -0.64959999918937672 0.70108696818351757 0.90601238608360302 -0.066936660557985292 -0.01821731403470039 -0.47372050583362574 -3.14878237247467 0.17210145294666293 0.90484648942947399 6.2034587860107431 -1.7799105644226072 0.67893332242965709 2.5523761510849003 0.035555865615606315 2.1731750965118413 -0.089874409139156328 0.30413863062858587 -0.2078624218702316 1.9460501670837405 0.53800016641616832 2.1383330821990971 7.4931218624114999 0.57640069723129284 2.6248741149902348 0.050261359661817558 1.0165737271308901 0.7773970663547517 0.6459597945213319 -3.5292034149169917 0.12677441537380221 -1.2998580932617185 0.13648298382759097 0.66714790463447582 9.2661294937133807 0.48791006207466131 -6.921083688735961 -0.15012894570827481 0.37672555446624761 -0.52157163619995106 2.1383330821990971 -3.5292034149169917 -8.2998847961425763 5.7498095035552987 2.9964579343795781 0.69482758641242992 0.6974637806415559 -3.5246232748031612 0.90826159715652477 1.2415313720703127 0.85824093222618114 -3.5573924779891963 -1.0477039217948911 0.36943747103214269
decision_type=2 2 2 2 2 2 2 2 2 2 2 2 2 2 2 2 2 2 2 2 2 2 2 2 2 2 2 2 2 2 2 2 2 2 2 2 2 2 2 2 2 2 2 2 2 2 2 2 2 2 2 2 2 2 2 2 2 2 2 2 2 2
left_child=2 3 8 9 5 34 25 53 11 -2 41 12 13 23 16 38 -14 -13 19 -12 21 40 -23 -1 -24 -4 -6 28 32 30 31 -29 -28 -31 35 36 -5 -17 -15 -18 -7 42 43 44 -11 -22 -10 -39 -32 -45 51 -47 -19 54 55 -8 -3 -36 -48 -58 -55 -37
right_child=1 56 6 4 26 20 7 -9 46 10 18 17 14 15 -16 37 39 52 -20 -21 45 22 24 -25 -26 -27 27 29 -30 33 48 -33 -34 -35 57 61 -38 47 -40 -41 -42 -43 -44 49 -46 50 58 -49 -50 -51 -52 -53 -54 60 -56 -57 59 -59 -60 -61 -62 -63
leaf_value=-0.015476303097812933 -0.0054128841447127051 0.0013977831792396046 -0.026731871302362209 0.014219004043808468 -0.0025716851537137307 0.0089712492394541255 0.014185102410751136 0.013155180554484183 -0.0080061470915306996 0.018199899696430138 0.013701258423946164 -0.015239267351806774 -0.010068230557464553 0.021436537706588522 -0.010207000849539563 0.010425829042739327 0.023328611730401582 -0.007835889379248109 0.014256377659273282 -0.010359642683904166 -0.0067817261818010222 0.022724015825023564 0.010595270350341787 0.0028663799901037443 -0.00448190428458868 -0.010870841678642006 -0.0012583411400683784 0.035196427512083441 -0.009960245544013497 0.017219991543750798 0.013817958861482149 0.01464936443094474 0.02469096939411115 0.047631430687297867 -0.01419445665513578 0.013418435054280687 0.038946832573008738 0.0036050975805437604 -0.00063505241643884846 -0.0017571747972350484 -0.0097818088157757346 0.00073554778834878601 -0.00065543650785839305 0.027167155998555993 -7.7024925444073113e-05 0.008283863330930178 0.025993067014802924 -0.011038152114663543 -0.012198544712456053 0.011029199191895551 0.0063021824272914808 0.034672640928980952 0.006056440525298897 -0.0031461316093248366 -0.013173214294909428 -0.011754586905184933 0.00016057059053541854 0.0093242740555859512 0.0031948886834088559 -0.023135842857465585 -0.023662511878134677 -3.6236936208428588e-05
leaf_weight=104.84503698255867 195.03015555953607 31.273981417994946 150.99860994936898 52.423397023696452 31.146335396915674 34.316180064342916 45.560872642323375 27.207476635463536 32.153350791428238 45.766905209515244 25.515315197873861 261.26766243251041 43.375094715040177 73.122454821597785 474.57827699417248 77.654227177612484 38.2877964861691 302.17404076270759 31.728731487877667 166.88879551412538 38.599464779254049 34.498443393502384 86.805500871036202 58.930825382936746 128.7851922349073 84.553426114842296 29.176884483080357 48.756402742117643 30.077505631372333 37.053991706576198 30.839885981287807 161.5100968410261 40.019881572574377 27.667711372021586 22.242444895673543 206.43333645584062 51.49727846076712 98.905384853016585 32.824761565774679 28.859668621793389 169.55454406188801 353.40747418394312 138.64629425760359 44.491365329828113 191.96028516115621 51.269313420634717 27.464580709114671 92.895564688835293 22.507049069739878 294.35703773191199 195.65788868675008 30.165408346801996 58.037613421212882 28.450679901521653 143.44485366437584 37.032625750638545 20.427516965661198 43.493125909939408 45.039274237118661 78.622460548300296 88.273891480639577 61.083046796731651
leaf_count=3012 9686 1866 2314 2620 1504 1685 1264 1389 1052 2413 1504 8594 1967 2292 11532 2224 1171 9728 2531 10196 2019 1128 3175 1606 5202 1284 1540 2225 1232 1854 1403 7269 1861 817 1165 11570 2490 2216 978 1684 8163 17465 7442 2288 7348 2733 1290 3081 1179 15641 9531 1536 2291 1010 6057 953 1280 2498 1781 4643 3188 2029
internal_value=-8.28377e-05 0.00541477 -0.00742945 0.00623341 0.00950849 0.00700373 -0.014356 -0.00965676 -0.00513026 0.0025474 0.00376454 -0.00584034 -0.00366792 0.000532272 -0.00751018 0.00474865 0.00401043 -0.00970969 -0.00366159 -0.00690263 0.0033179 -0.000183216 0.00498122 -0.00898674 0.00169133 -0.0213827 0.0159511 0.0173144 0.00689717 0.0203134 0.0167192 0.0201206 0.014402 0.032704 0.0133818 0.0155447 0.0276981 0.000567458 0.0148778 0.0131723 -0.00648604 0.00533188 0.00758216 0.00955162 0.00374405 0.00827681 0.0064407 -0.00358737 0.00273687 0.0135124 0.0104575 0.0194992 -0.00554527 -0.0116306 -0.00749815 0.00254739 -0.0138918 0.000925581 0.0129506 -0.0185545 -0.0189965 0.010402
internal_weight=5739.63 3283.7 2455.94 3153.37 1665.58 1206.82 605.522 369.97 1850.42 1487.79 1292.76 1745.76 1124.28 539.178 585.101 375.402 110.523 621.479 224.133 192.404 769.652 453.96 250.089 163.776 215.591 235.552 458.756 427.609 99.2743 328.335 263.613 210.266 69.1968 64.7217 437.173 371.437 103.921 269.455 105.947 67.1475 203.871 1068.63 715.222 576.576 237.727 315.692 104.657 191.801 53.3469 338.848 277.093 81.4347 360.212 342.763 226.038 82.5935 130.324 65.7356 72.5039 99.05 116.725 267.516
internal_count=236689 162731 73958 154942 78428 57544 17459 13861 56499 76514 66828 52376 31763 15409 16354 10791 4822 20613 14231 11700 35172 19353 9505 4618 8377 3598 20884 19380 4633 14747 12076 9494 3401 2671 22372 18709 5110 7521 3270 2855 9848 52597 35132 27690 9761 15819 4123 5297 2582 17929 13800 4269 12019 12472 8274 2217 7789 3663 3071 5923 4198 13599
is_linear=0
shrinkage=0.05


Tree=11
num_leaves=63
num_cat=0
split_feature=12 30 139 37 10 14 6 41 12 124 26 30 141 125 24 138 113 26 77 130 128 10 123 25 113 118 118 64 57 130 115 26 120 120 123 8 67 76 121 10 139 113 123 42 46 25 115 57 138 105 141 115 19 41 140 6 76 115 42 1 123 123
split_gain=81.3167 21.8079 13.6596 11.9853 10.5284 9.95035 9.91503 9.22061 11.5168 7.18692 6.70122 9.22168 9.77575 6.63051 6.38566 6.15657 7.0783 5.72153 5.65884 5.12475 5.094 6.42044 7.73996 5.29548 5.07827 5.86709 5.01157 4.95653 4.93366 5.30617 4.91978 5.08543 4.87833 6.1685 4.84868 5.87501 4.74345 4.691 4.81355 4.65067 5.6645 4.53825 6.88902 4.49439 4.40354 4.38168 4.13113 4.08319 4.056 5.66054 5.18924 4.00738 4.00253 4.73089 4.48593 5.43185 4.12394 3.99056 3.97953 4.0044 3.83267 3.8255
threshold=0.28427973389625555 -0.29026740789413447 0.73429951071739208 0.081521742045879378 -0.14433013647794721 0.68154299259185802 0.6402864158153535 3.6837259531021123 0.81965848803520214 0.74356362223625194 0.71837928891181957 -0.72982063889503468 0.65716281533241283 -3.6312321424484248 1.645683288574219 -0.13773801922798154 0.065008882433176055 0.18361064046621325 -8.8477020263671857 -0.030277305282652375 3.1567740440368657 -0.18400794267654416 -1.2663954496383665 1.0435463786125185 0.068041995167732253 1.0883491635322573 0.76852408051490795 0.47849972546100622 -4.077622413635253 -0.00050245389866176982 1.4035864472389223 0.031270118430256851 -0.01689842157065868 1.1972944736480715 -3.7817878723144527 -1.761144697666168 4.1190040111541757 -12.964126110076903 1.0000000180025095e-35 -0.063968475908040986 0.18529338389635089 0.12075995653867723 -1.7266216874122617 1.1274619698524477 0.37205411493778234 1.0799475908279421 0.92754760384559642 6.743903875350953 0.0073585328646004209 4.4367339611053476 0.44948528707027441 0.74473416805267345 0.73738297820091259 -5.192429542541503 0.56250000000000011 -0.23524118959903714 -12.794818401336668 0.88825345039367687 2.8517836332321171 -0.49741059541702265 -2.128142118453979 -1.9008842706680296
decision_type=2 2 2 2 2 2 2 2 2 2 2 2 2 2 2 2 2 2 2 2 2 2 2 2 2 2 2 2 2 2 2 2 2 2 2 2 2 2 2 2 2 2 2 2 2 2 2 2 2 2 2 2 2 2 2 2 2 2 2 2 2 2
left_child=2 4 9 -3 7 10 13 8 30 34 11 17 24 -5 18 16 26 58 37 27 21 22 -11 28 25 -13 -15 -17 -23 -30 -2 60 -14 -34 35 -1 52 38 -4 40 47 42 -21 -18 -20 -7 -43 -8 50 -50 -19 -10 53 -22 56 -56 -55 -53 59 -6 -32 -41
right_child=1 3 14 6 5 45 39 -9 51 20 -12 12 32 15 -16 19 43 48 44 41 36 23 -24 -25 -26 -27 -28 -29 29 -31 31 -33 33 -35 -36 -37 -38 -39 -40 61 -42 46 -44 -45 -46 -47 -48 -49 49 -51 -52 57 -54 54 55 -57 -58 -59 -60 -61 -62 -63
leaf_value=0.018076209397202194 0.011984157882063378 -0.013436629611371554 0.0002115759804970498 0.0054642820299388613 -0.0087844136714714319 0.010520280350679135 0.0032179114642130594 -0.004607518522863242 0.035135542219301069 -0.013755664944624577 -0.0097209304223781299 0.029033381066504271 -0.0089688334008353656 -0.006914455023577926 -0.00031470207244271918 0.017042924626994773 -0.013586345282159761 0.013284743874083134 -0.023062666531492845 0.0065465133151753801 0.0069376098094284635 -0.0079002455825524995 0.0052708653049672542 0.0010116159127826479 0.0076933454348877568 0.0057391047474118426 0.023931957815108564 -0.0079488379020786395 -0.010700184809933594 -0.028892399573006058 -0.006668475466724744 -0.01417727828130696 0.02159840496242359 -0.0055004550180174248 -0.0066802206885780459 -0.003109010820420071 0.01061089063456273 0.0026836886943799694 -0.021717080825026977 0.0039525340917367082 -0.0030566019297355567 0.0040806736053020142 -0.0090540328723427363 0.014673244202698331 -0.0069627481582440242 0.028359688307137938 -0.022027228775194363 0.021551090970696678 -0.020467440132494595 0.0035746013361494483 -0.0069541879899754928 0.0020072343095730231 -0.017112831399030526 -0.014357791464724184 -0.0088138261350692148 0.010205288930364024 -0.0047385317735704835 0.022538669235969026 -0.0065881157078418505 0.009110568167232342 0.02355209807565169 0.024671987336459002
leaf_weight=73.006006176117808 400.435701710172 147.04044315312058 37.114555768668652 260.82284861337394 31.845866119489074 248.30013176053762 65.578225805889815 68.426461700815707 61.35636044293642 91.727623031940311 90.952384202741086 93.364245945587754 74.743462727870792 14.813908722717313 70.852041655220091 39.327212892472744 45.868761419318616 43.730184940621257 260.27861483721063 88.644048044458032 83.183235169854015 106.10414157574996 115.20234196260571 46.614338262937963 115.9635841017589 41.287193003110588 50.005982264876366 31.831118045374751 75.516255983151495 108.79627773631364 15.497060384135692 36.738145185634494 37.66431491356343 38.174695038702339 70.020716587547213 54.17447285912931 46.598993023857474 58.7429488892667 71.226099760271609 36.58039941219613 117.28939914656803 16.766305956058204 294.85034846747294 14.862180439755319 57.090097306761891 38.575364612974226 79.016175493132323 55.141653382685035 71.551831369288266 34.053400021977723 85.475003288127482 30.703676725737751 59.218867189250886 149.63828983483836 59.062264897860587 86.144581046421081 432.95277529163286 116.15733427274972 64.392194535117596 237.52682980895042 19.047010218258947 62.345698531251401
leaf_count=1737 20079 8899 1142 15839 1510 8020 5199 1945 2505 3102 1084 2869 1912 932 2801 2074 3185 1352 6213 5602 2256 2340 4689 518 3443 1144 3777 2325 2074 2741 1084 1225 993 1031 1984 2147 1479 1679 1812 2342 8262 1013 18219 975 1677 383 4748 4327 2087 1028 2723 1320 1013 4674 1501 2510 13715 4771 3341 14112 1308 3868
internal_value=-0.000104942 0.00461829 -0.00760337 -0.000165699 0.00785388 0.00518144 0.00141284 0.0125999 0.0143526 -0.00530178 0.00291618 0.00414517 0.00989889 -0.00124089 -0.0143666 -0.00384914 0.00597254 3.43324e-05 -0.0163975 -0.00612301 -0.00650964 -0.0103321 -0.00328874 -0.0145452 0.0158524 0.022352 0.016892 0.00607551 -0.0170171 -0.0219182 0.00985225 -0.00212448 -0.00020057 0.00846127 0.00358516 0.00927579 -0.00419795 -0.00857392 -0.014527 0.00870148 0.00473004 -0.00797815 -0.00541015 -0.00608051 -0.0203194 0.0133638 -0.0174814 0.0121161 -0.00587561 -0.0129037 0.000135523 0.024078 -0.00504705 -0.00406653 -0.005363 0.00243347 -0.00731039 0.0184537 0.00421745 0.00687345 0.0108657 0.0175692
internal_weight=5730.01 3516.75 2213.27 1420.78 2095.96 1347.6 1273.74 748.362 679.935 1657.96 1060.73 969.773 401.197 936.809 555.304 675.986 125.551 568.575 484.452 550.435 1460.76 543.961 206.93 337.031 250.615 134.651 64.8199 71.1583 290.417 184.313 471.718 71.2822 150.582 75.839 197.201 127.18 916.799 167.084 108.341 336.935 238.009 479.277 383.494 60.7309 317.369 286.875 95.7825 120.72 234.81 105.605 129.205 208.217 870.2 810.981 727.798 145.207 582.591 146.861 333.765 269.373 34.5441 98.9261
internal_count=236659 172855 63804 91586 81269 47032 82687 34237 32292 48480 38629 37545 11392 58689 15324 42850 8869 26153 12523 33981 42612 15464 7791 7673 7456 4013 4709 4399 7155 4815 23696 3617 3936 2024 5868 3884 27148 4633 2954 23998 17788 29582 23821 4160 7890 8403 5761 9526 7190 3115 4075 8596 25669 24656 22400 4011 18389 6091 18963 15622 2392 6210
is_linear=0
shrinkage=0.05


Tree=12
num_leaves=63
num_cat=0
split_feature=12 30 11 30 30 9 124 139 124 113 8 101 24 12 9 30 67 132 97 68 1 117 119 131 131 64 24 103 4 18 30 23 67 131 85 64 17 30 125 124 20 113 64 119 50 59 11 129 64 124 132 132 131 57 127 24 103 139 6 59 122 119
split_gain=68.7797 17.7983 15.1021 13.5897 10.1123 12.0428 9.48831 8.42456 7.85226 6.93387 6.604 6.25853 6.24728 6.16878 5.91726 5.73737 6.08554 5.42224 5.65624 5.57542 5.29919 5.15318 5.11383 5.11347 6.92774 7.62075 5.02798 4.99835 4.90532 4.78378 4.68845 5.15675 4.55935 5.35146 4.78967 4.86023 4.37121 8.4551 4.35632 5.75835 4.27053 7.86005 4.09609 6.97028 3.91415 3.79153 3.7884 3.68044 5.61938 3.66342 3.58419 3.58269 3.56775 3.55452 3.50416 3.97547 3.86003 5.59141 3.96045 3.73814 3.58486 3.46207
threshold=0.33034449815750128 -0.29026740789413447 -0.35082183778285975 -0.18436925113201139 0.87137606739997875 5.0351219177246103 1.5808648467063906 0.17401926964521411 0.86158102750778209 0.091841604560613646 -1.6965776085853574 1.0000000180025095e-35 -6.7064111232757559 0.6954864263534547 -3.0357390642166133 -0.95688340067863453 4.2121002674102792 0.48331478238105779 2.7562566995620732 1.0000000180025095e-35 -0.47050774097442621 0.73485198616981517 0.56279456615448009 -0.0012182938517071305 -0.077409785240888582 0.52326542139053356 -1.8447262048721311 11.500000000000002 0.97732302546501171 1.0000000180025095e-35 0.79989895224571239 15.04403591156006 3.5972183942794804 0.076197694987058653 2.8029010295867924 0.4199624508619309 2.1166542768478398 -0.69930991530418385 -0.37601037323474878 2.2229807376861577 -0.88283106684684742 0.077323500066995635 0.48992693424224859 0.65606483817100536 4.1971738338470468 -2.6765011548995967 0.33034160733222967 2.5000000000000004 1.4664120674133303 1.2201372385025027 0.74596774578094494 0.32795698940753942 0.082355920225381865 -2.4823801517486568 -0.052989656105637543 -3.8035538196563716 11.500000000000002 0.81590780615806591 0.21820672601461413 0.99185320734977733 -2.6922380924224849 0.71881824731826793
decision_type=2 2 2 2 2 2 2 2 2 2 2 2 2 2 2 2 2 2 2 2 2 2 2 2 2 2 2 2 2 2 2 2 2 2 2 2 2 2 2 2 2 2 2 2 2 2 2 2 2 2 2 2 2 2 2 2 2 2 2 2 2 2
left_child=3 2 13 8 5 6 22 49 9 29 -11 20 -10 -2 21 -14 17 18 27 -19 46 -8 -3 24 -16 -26 -21 -17 38 -1 54 53 34 42 36 -36 37 -22 39 50 -24 -42 -34 -44 47 -20 -4 -7 52 -5 -15 -23 -49 -32 56 -56 57 58 60 -58 -9 -13
right_child=1 4 11 7 -6 44 14 30 12 10 -12 61 15 28 23 16 -18 19 45 26 32 51 40 -25 25 -27 -28 -29 -30 -31 31 -33 33 -35 35 -37 -38 -39 -40 -41 41 -43 43 -45 -46 -47 -48 48 -50 -51 -52 -53 -54 -55 55 -57 59 -59 -60 -61 -62 -63
leaf_value=-0.0098070134863246887 0.0086531937082969749 0.019549904561236193 -0.011924674790285625 0.017237856209378167 -0.015592161551731773 0.0076037118699496522 0.016314050716649844 -0.0056404071247101485 -0.017385579846420775 0.028160560518779507 0.00063860526243235188 0.014976983588457128 -0.01158532825392077 0.0057730830877984092 -0.010544878466783553 -0.0016427320016720278 0.014185462895140286 -0.016555766389511534 0.0020521833287740531 -0.0090323197192875623 -0.00011551289441074249 -0.01742397398338235 0.011750987776288902 -0.01181166757611722 0.016721522876512577 -0.0091556463188981526 0.0012876124105006136 0.011193538918817839 0.006348630976423443 0.0094401134235469232 -0.035952918127232683 -0.0030357566248464217 0.013645305066659816 0.021106072552460671 0.0010383429094447333 0.027501122197320149 -0.0055710920883097802 0.011467083572546666 0.0040551347995369169 0.034152979875636903 0.0090803109383651177 -0.014250410988288265 0.0081612489279417229 -0.019400383412746677 -0.010897172250715037 -0.013064121635141117 0.0040691041400941425 0.036629368422230531 -0.0051784651375518503 -0.0035622874280162261 0.029499120480527854 0.0033101779007519445 0.0080866370270712973 -0.013636258585932582 -0.0053994509833681379 -0.019167322557572881 -0.019588227631888902 -0.012801494117109203 -0.012025717733534834 0.0020605832707124329 0.014363100729676512 -0.0042020287670390582
leaf_weight=75.744408732745796 195.5153214414604 52.363929082173854 80.407829104922712 21.038669949863106 89.015038461890072 252.44362254440784 49.149998971261084 29.64998124120757 89.880996576976031 44.579215882811695 39.320057442877442 202.24689709115773 206.23777698678896 49.785318166483194 105.15614671399817 150.09789417171851 46.897416729945689 108.59059887193143 70.028964166995138 242.41490230010822 453.12482194928452 24.973594156093895 75.462417041417211 282.20076873479411 69.164810078684241 42.079110770486295 223.58982565114275 146.02386212395504 52.451043837238103 48.961047165561467 54.900686932727695 28.166600978467613 76.846902635414153 81.689100352115929 31.661386206746101 34.513290758244693 142.76568890176713 236.47263022558764 25.727405851706862 108.36748837446794 67.00284236529842 67.665773546788841 59.606400638818741 30.612728745676577 18.538171418942511 92.674785214476287 61.885776290670037 33.989147945772856 14.963914330583064 108.22064440790564 20.970720217097551 64.478550182655454 20.079108830075711 38.714275175705552 76.374270247295499 206.25598711101338 88.57671364583075 89.234276444651186 27.472648290917277 24.205662810709327 65.065541648305953 24.381364286411554
leaf_count=1822 10966 3274 2607 1139 5097 17268 3605 1114 1564 904 1255 9967 6726 2617 6363 3245 1232 1997 1672 4749 19573 1954 4568 17970 3884 3015 6485 3785 1731 1187 1661 1152 2426 2604 944 1257 1546 6978 1374 5067 4212 4289 2059 1093 1329 2216 1269 2233 1232 5786 989 4833 1271 1538 2308 8668 3465 3400 1209 1203 2494 1284
internal_value=-1.22798e-05 0.00469534 0.00770671 -0.00636383 0.000220662 0.00141414 -0.00162308 -0.0114179 -0.00360113 0.00534641 0.0160235 0.00528171 -0.00497161 0.0156802 -0.00491069 -0.0040404 -0.0025533 -0.00337756 0.000676214 -0.00659249 0.00390406 0.00411646 0.00630017 -0.00743604 -0.00159202 0.00696044 -0.00411969 0.00476786 0.0207531 -0.00217773 -0.0134917 -0.0224827 0.00503382 0.0109667 0.00333974 0.0158023 0.00226049 0.00391028 0.0242021 0.0269071 0.00262075 -0.00273296 0.0055397 -0.00171847 0.00935788 -0.00669074 -0.00506672 0.0106749 0.0206339 0.000339093 0.0142879 -0.0030944 0.0276113 -0.0278832 -0.0115184 -0.0156054 -0.00777251 -0.00363145 0.00330543 -0.0150517 0.00813232 0.0128675
internal_weight=5740.68 3297.76 1969.03 2442.92 1328.73 1239.71 899.698 857.876 1585.04 208.605 83.8993 1516.21 1376.44 452.817 637.203 1286.56 1080.32 1033.42 458.826 574.595 1289.59 138.602 262.495 498.601 216.4 111.244 466.005 296.122 257.302 124.705 728.617 121.782 1147.29 248.755 898.538 66.1747 832.363 689.597 204.851 179.124 210.131 134.669 167.066 90.2191 340.014 162.704 142.294 321.476 69.0322 129.259 70.756 89.4521 54.0683 93.615 606.835 282.63 324.205 211.422 122.188 112.782 94.7155 226.628
internal_count=236724 162748 76351 73976 86397 81300 57967 35137 38839 5168 2159 53607 33671 22744 41624 32107 25381 24149 10918 13231 42356 10392 16343 31232 13262 6899 11234 7030 11778 3009 28212 4351 38480 8182 30298 2201 28097 26551 10047 8673 13069 8501 5578 3152 23333 3888 3876 22004 4736 6925 3606 6787 3504 3199 23861 10976 12885 8217 4817 4668 3608 11251
is_linear=0
shrinkage=0.05


Tree=13
num_leaves=63
num_cat=0
split_feature=1 37 37 2 139 2 28 20 22 81 59 114 118 129 108 119 3 130 20 130 25 80 80 98 37 141 20 28 118 97 120 108 22 81 132 118 10 76 28 22 130 64 129 105 64 130 27 76 21 130 125 139 84 130 3 113 120 108 41 106 23 21
split_gain=58.8003 15.675 13.9535 10.9422 9.56038 8.33985 8.27969 11.3009 6.83216 6.59358 6.83354 6.84755 6.45645 12.8475 6.0165 5.59721 5.58814 5.77188 5.13646 8.03273 6.04356 4.96872 4.90782 4.88077 4.75398 4.74369 4.94025 5.71682 4.58952 4.56974 4.56059 4.46158 4.41569 4.38852 4.35739 4.31336 4.13764 4.03027 4.01414 3.95005 4.214 4.90785 3.89868 3.74225 3.68966 4.44664 3.61831 3.49839 3.48337 3.47271 3.33503 4.50814 4.09986 3.3242 3.12323 3.11167 3.9564 3.11093 3.05702 3.00124 2.95459 2.93085
threshold=-0.15715992450714109 0.27717390656471258 0.070652171969413771 -1.0120937824249265 0.69755399227142345 -0.051942300051450722 -0.40203171968460077 6.2034587860107431 10.784737110137941 0.98711356520652782 15.401764392852785 0.77853521704673778 0.83915504813194286 1.5000000000000002 3.7302333116531377 0.57640069723129284 1.0966278314590456 -0.02747244946658611 1.2318411469459536 -0.020974931307137009 0.41243247687816625 4.4713826179504403 1.420870900154114 0.026946663856506351 0.31702899932861334 0.95126086473464977 1.1266435980796816 -0.56614142656326283 1.0406497120857241 5.4411656856536874 0.70922780036926281 -1.5439170002937315 1.4051274061203005 0.33162318170070654 0.098387096077203764 1.0476300716400149 0.30762752890586859 -13.888274192810057 0.13956429809331897 1.4369470477104189 -0.011800244916230438 0.88604852557182323 1.0000000180025095e-35 3.4811217784881596 0.87651133537292492 0.004370919195935131 16.800000190734867 -8.7444696426391584 -6.3239014148712149 -0.012262735050171612 -3.4440984725952144 0.77385497093200695 2.0126758217811589 -0.025144895538687703 -1.0108403563499448 0.078735847026109709 0.82954096794128429 6.714419126510621 2.4244203567504887 6.4229655265808114 14.932456016540529 -1.6655614376068113
decision_type=2 2 2 2 2 2 2 2 2 2 2 2 2 2 2 2 2 2 2 2 2 2 2 2 2 2 2 2 2 2 2 2 2 2 2 2 2 2 2 2 2 2 2 2 2 2 2 2 2 2 2 2 2 2 2 2 2 2 2 2 2 2
left_child=2 6 60 4 24 57 7 22 25 12 11 18 13 30 15 -12 17 42 19 -11 37 35 50 -13 -4 26 27 -5 -25 -10 -7 59 34 -27 -29 -16 49 -20 -21 40 -26 -42 -14 -32 -17 -46 -34 -6 -28 -19 52 53 -2 -52 -41 -9 -57 -3 -33 -8 -1 -50
right_child=1 5 3 8 47 9 31 55 29 10 14 23 16 -15 21 44 -18 36 20 38 -22 -23 -24 28 39 33 48 32 -30 -31 43 58 46 -35 -36 -37 -38 -39 -40 54 41 -43 -44 -45 45 -47 -48 -49 61 -51 51 -53 -54 -55 -56 56 -58 -59 -60 -61 -62 -63
